{"model_data": {"model": "SimpleRNN", "input_size": 2, "skip": 1, "output_size": 1, "unit_type": "LSTM", "num_layers": 1, "hidden_size": 32, "bias_fl": true}, "state_dict": {"rec.weight_ih_l0": [[-0.03860217705368996, -0.4369641840457916], [0.08539779484272003, 1.284360408782959], [-0.09345890581607819, 0.04521764814853668], [-0.13208141922950745, -1.226090431213379], [-0.07610934972763062, -0.3339274525642395], [-0.0011629494838416576, -0.2375173270702362], [-0.1301441341638565, -0.36775338649749756], [-0.01632339507341385, -0.274019330739975], [0.002568672876805067, 0.20690354704856873], [0.32532986998558044, -0.13250134885311127], [-0.007382657378911972, 0.05667922645807266], [0.029272066429257393, 0.11108361184597015], [-0.07615824788808823, -0.40481603145599365], [0.011104987934231758, 0.9364446401596069], [-0.018093712627887726, -0.33668240904808044], [0.027438702061772346, 0.8440020084381104], [0.0014734741998836398, 0.08473522961139679], [-0.1693512201309204, -0.08401872962713242], [-0.2668958008289337, -0.6276050806045532], [0.11000761389732361, 0.17129431664943695], [-0.0803019180893898, 0.004921415355056524], [0.028572024777531624, -0.35004109144210815], [0.020399227738380432, -0.3276525139808655], [0.012659326195716858, -0.15097008645534515], [-0.07303325831890106, -0.34222719073295593], [-0.3486303687095642, -0.05544855818152428], [0.13185159862041473, 1.027000069618225], [-0.18352310359477997, -0.8823432922363281], [-0.005719222128391266, 0.05619662627577782], [-0.08083146065473557, -1.702413558959961], [0.023161305114626884, 0.14760206639766693], [0.0010319271823391318, -1.5088039636611938], [-0.06616415083408356, 0.5749942064285278], [-0.09341125935316086, 0.5776850581169128], [-0.005505041219294071, -0.43026337027549744], [-0.16223782300949097, -0.876190721988678], [-0.04626767337322235, 0.01588241010904312], [-0.04000118002295494, -0.045475032180547714], [-0.13096636533737183, 1.3029415607452393], [0.08739501982927322, 0.6322364807128906], [0.36177676916122437, 0.10630239546298981], [-0.03323575109243393, 0.33452746272087097], [-0.005434961058199406, 0.04868793487548828], [-0.03343751281499863, 0.1303209811449051], [0.014531416818499565, 0.6676012873649597], [-0.10309787094593048, 0.5458328723907471], [-0.13136234879493713, -0.17454946041107178], [0.055915046483278275, 0.3184259533882141], [0.007757371291518211, 0.07974442094564438], [0.003752927528694272, 0.5809656381607056], [0.040257927030324936, 0.5987867712974548], [-0.14697225391864777, -0.020448723807930946], [0.09370718151330948, 0.33436134457588196], [-0.008853251114487648, 1.5594017505645752], [0.04174108803272247, 0.6225394606590271], [0.06895189732313156, 0.5420755743980408], [-0.05023007094860077, 0.3784259855747223], [-0.3182264566421509, 0.43001243472099304], [0.26461729407310486, 0.5635426044464111], [-0.11701198667287827, 0.9682623147964478], [-0.00831243209540844, 0.05439895763993263], [0.05472961813211441, -0.5115450024604797], [0.01541259977966547, 0.18841959536075592], [-0.12380541115999222, 0.6239003539085388], [-0.0949418917298317, 0.05810556560754776], [-1.2467899322509766, 0.48281678557395935], [-0.9952712655067444, 0.048715364187955856], [0.009804651141166687, -0.06559822708368301], [-0.049616847187280655, -0.04889390990138054], [0.09918635338544846, -0.040790777653455734], [1.4785010814666748, -0.005129232071340084], [0.04091798514127731, -0.013960459269583225], [-1.0962932109832764, 0.194004625082016], [0.09403673559427261, 0.08188270777463913], [0.0009074376430362463, 0.012874106876552105], [-0.10839728266000748, 0.6581524610519409], [-0.06414985656738281, 0.05268930271267891], [0.254783034324646, -0.1892634481191635], [0.027506349608302116, 0.039606764912605286], [-1.6335725784301758, 0.2241244614124298], [-0.019223662093281746, -0.04479948803782463], [0.10430813580751419, -0.08969728648662567], [-0.6992166638374329, 0.1443217247724533], [0.9421772360801697, -0.03818562254309654], [0.0682482123374939, 0.06411498785018921], [-0.7979692220687866, -0.18597039580345154], [-0.011369419284164906, -0.048585787415504456], [-0.12079983949661255, -0.12423015385866165], [-0.12170421332120895, -0.046156030148267746], [-0.5495988726615906, -0.016451647505164146], [-0.04288798198103905, -0.015527593903243542], [-1.9198687076568604, -0.11207977682352066], [-0.03456387296319008, -0.035711467266082764], [0.39604905247688293, 0.23305602371692657], [-0.0563710480928421, -0.03841923177242279], [-0.04094991087913513, -0.010358444415032864], [-0.06483517587184906, 0.1824321299791336], [0.042171090841293335, 1.8882266283035278], [-0.0284372940659523, -0.3063788115978241], [-0.0924266055226326, -0.599543035030365], [-0.1256278157234192, -0.25511619448661804], [0.0117879007011652, -0.23810413479804993], [0.04545322060585022, 0.33019497990608215], [-0.1446724832057953, 0.15263275802135468], [0.06844807416200638, 0.3732440769672394], [0.10775928944349289, 0.20580977201461792], [-0.007001183927059174, 0.057329196482896805], [-0.18162809312343597, -1.889507532119751], [-0.11034601181745529, -0.029063016176223755], [-0.0291958749294281, 1.044701099395752], [-0.07208672165870667, -0.1114579290151596], [-0.005000466015189886, 0.9007499814033508], [0.004492956213653088, 0.08411159366369247], [-0.06977665424346924, 0.1298249363899231], [0.7925550937652588, -0.07280786335468292], [0.04252798482775688, 0.23970432579517365], [-0.13616017997264862, 0.16993440687656403], [0.09567970037460327, 0.2333049774169922], [-0.038256485015153885, 0.11987471580505371], [-0.01432631816715002, 0.182904914021492], [0.007080564741045237, 0.048767682164907455], [-0.6436998844146729, 0.28247371315956116], [0.019620085135102272, 0.3056970238685608], [-0.02080743946135044, 0.5331525802612305], [-0.0048897406086325645, 0.056099023669958115], [-0.09406324476003647, -1.309267520904541], [0.02385108172893524, 0.14666278660297394], [-0.09291017055511475, -0.3270246982574463]], "rec.weight_hh_l0": [[-0.0617356039583683, 0.09469527006149292, -0.0712624043226242, -0.01406280230730772, -0.013473715633153915, 0.060652997344732285, -0.04101376235485077, -0.027548929676413536, 0.028100617229938507, 0.003935224376618862, -0.010852561332285404, 0.16985736787319183, 0.1288391351699829, 0.13264763355255127, 0.057643841952085495, 0.04896504804491997, 0.038768649101257324, -0.07453551143407822, 0.009432419203221798, -0.03992760181427002, 0.04945351183414459, -0.03504454717040062, -0.19205987453460693, -0.1619759351015091, -0.10282999277114868, -0.11294374614953995, 0.0193980410695076, -0.07161591202020645, -0.0036788161378353834, -0.09221751242876053, -0.009632525965571404, 0.07274636626243591], [0.05705924704670906, 0.14421604573726654, 0.04948864132165909, 0.09778842329978943, 0.047531720250844955, 0.010510856285691261, 0.00441083125770092, 0.14156343042850494, -0.05902831628918648, 0.08647286891937256, -0.0354587584733963, 0.27734339237213135, -0.0445503368973732, -0.001514397794380784, -0.04314546659588814, -0.03477342426776886, 0.017276115715503693, -0.06648306548595428, -0.21074412763118744, 0.12137822061777115, -0.22653596103191376, 0.1345241665840149, 0.09894086420536041, 0.14845027029514313, -0.05155085772275925, -0.15347877144813538, 0.19166217744350433, 0.07118894904851913, 0.031371794641017914, -0.02961898408830166, 0.06741104274988174, -0.3392275273799896], [-0.03794963285326958, -0.04320186749100685, -0.19273827970027924, -0.20154786109924316, -0.20349998772144318, 0.022774240002036095, -0.05966810882091522, 0.05109294876456261, -0.13337090611457825, -0.17117173969745636, -0.02542305365204811, 0.05045181140303612, 0.04285179078578949, 0.2669941782951355, -0.06890532374382019, -0.16340559720993042, -0.022155674174427986, -0.13734817504882812, -0.2541864216327667, 0.23089416325092316, 0.08326984941959381, 0.04330065846443176, -0.03528723493218422, -0.024631749838590622, 0.08576870709657669, 0.022404059767723083, -0.04689670726656914, 0.18904945254325867, 0.05353902280330658, -0.07097496837377548, 0.029734579846262932, 0.09285003691911697], [0.13681596517562866, 0.05185224115848541, -0.1550723761320114, -0.033676162362098694, -0.09544365108013153, -0.02043144963681698, -0.09314905852079391, -0.01338715385645628, -0.09634143859148026, 0.06821249425411224, 0.03159886971116066, 0.22370903193950653, 0.005240424536168575, 0.24792085587978363, 0.015135352499783039, -0.16276277601718903, -0.04095609113574028, -0.004132397938519716, 0.25498345494270325, -0.004853494465351105, 0.05880723148584366, -0.1853460669517517, -0.13567213714122772, 0.04269716888666153, -0.1335824877023697, 0.08278185874223709, 0.10500270873308182, -0.09525390714406967, -0.04487968608736992, 0.029188882559537888, -0.11969972401857376, 0.04634672403335571], [-0.0022223510313779116, 0.03662833943963051, 0.04301636666059494, 0.006424101535230875, 0.026657486334443092, 0.00910777784883976, -0.05438273400068283, -0.046100541949272156, 0.00405521783977747, -0.023037783801555634, -0.0039315600879490376, -0.015228096395730972, 0.024675754830241203, 0.03684601932764053, -0.1102677434682846, -0.01904761604964733, -0.009758265689015388, -0.012942013330757618, 0.030497241765260696, -0.0073850881308317184, -0.005027260631322861, -0.011269604787230492, -0.015108325518667698, 0.0026126212906092405, -0.006968772504478693, 0.09367605298757553, -0.0590432845056057, 0.034217070788145065, -0.00794585607945919, 0.028987566009163857, -0.02048449218273163, 0.050685398280620575], [-0.06127655506134033, -0.03838827461004257, -0.021525001153349876, -0.053714439272880554, 0.08517790585756302, 0.008953691460192204, -0.05136130005121231, -0.020902100950479507, 0.04879249259829521, -0.04944182187318802, -0.01022323127835989, -0.04273680970072746, -0.0008703924249857664, 0.05032401159405708, 0.13460798561573029, 0.03997791185975075, 0.0325191356241703, -0.05118478834629059, -0.12151069194078445, 0.09685588628053665, -0.11472834646701813, 0.014317779801785946, -0.016814788803458214, -0.08946286886930466, -0.00518155749887228, -0.13263164460659027, -0.06357739120721817, 0.07626675069332123, 0.005586543586105108, -0.012654945254325867, 0.04041655734181404, 0.06534381955862045], [0.1810200810432434, 0.0487917885184288, 0.45904669165611267, 0.36781689524650574, 0.2974505126476288, 0.05552470684051514, -0.11667947471141815, 0.04274440184235573, -0.0984998419880867, 0.25179070234298706, 0.03362197428941727, 0.08602048456668854, -0.09942548722028732, -0.1062750443816185, -0.2711034119129181, 0.05556373670697212, 0.011268713511526585, 0.3930617570877075, 0.13537034392356873, 0.24392548203468323, -0.3095775246620178, -0.3530144691467285, 0.18502213060855865, 0.5691946148872375, -0.23123838007450104, 0.3833986222743988, -0.7940328121185303, -0.18797457218170166, 0.02233181707561016, -0.04952390119433403, 0.006979029159992933, 0.16461512446403503], [-0.05467061325907707, -0.02324574440717697, 0.08407805860042572, 0.09986906498670578, -0.0512414313852787, -0.009675032459199429, -0.07740815728902817, -0.08589857071638107, -0.061838019639253616, -0.014197519980370998, 0.00816009659320116, -0.013458830304443836, 0.07223420590162277, -0.1913152039051056, -0.11896452307701111, -0.14476348459720612, -0.07970981299877167, 0.009989354759454727, 0.09912668913602829, -0.07706243544816971, 0.26506751775741577, -0.06618300825357437, 0.15078777074813843, 0.08270532637834549, 0.16894128918647766, 0.11858638375997543, 0.0466439388692379, -0.13361331820487976, -0.012192622758448124, -0.02261221967637539, -0.04018330201506615, -0.06617705523967743], [-0.01755901426076889, -0.11245997995138168, 0.08965342491865158, 0.05252590775489807, 0.021403014659881592, -0.018767645582556725, 0.07301507145166397, -0.020164581015706062, -0.048155151307582855, -0.0989561453461647, 0.0017666177591308951, -0.12047840654850006, 0.007847916334867477, 0.05501173064112663, 0.06153809279203415, -0.06596610695123672, -0.01108393631875515, 0.036974191665649414, -0.07174710184335709, 0.03446688875555992, -0.0934053286910057, -0.055849961936473846, -0.009657914750277996, -0.03462681546807289, -0.00824363436549902, 0.08253300935029984, -0.024004971608519554, 0.0025387918576598167, -0.005981415044516325, 0.08805996924638748, -0.016971774399280548, -0.012894506566226482], [-0.004028253722935915, 0.15465766191482544, 0.32344284653663635, 0.08168123662471771, -0.3105371594429016, -0.10455140471458435, 0.22990307211875916, 0.14638227224349976, -0.4344538748264313, -0.07564735412597656, 0.014640511944890022, 0.672823965549469, 0.04196687415242195, 0.19949786365032196, -0.13659150898456573, -0.8446012735366821, -0.10028772801160812, 0.0999472439289093, -0.11189758032560349, -0.11846203356981277, 0.32618483901023865, -0.3128999173641205, 0.1745794117450714, 0.042839184403419495, -0.0195116326212883, 1.5735820531845093, 0.143606498837471, 0.17306967079639435, -0.0045073325745761395, 0.1802544742822647, -0.062134429812431335, -0.05808144807815552], [-0.00164802058134228, 0.004473562352359295, -0.009930867701768875, -0.001975580584257841, -0.003322119591757655, 0.0034597180783748627, 0.010656471364200115, -0.0026037809439003468, -0.0062514739111065865, 0.04829071834683418, 0.0006687738932669163, 0.015046492218971252, -0.003886108286678791, -0.0004437516035977751, -0.015753092244267464, 0.015695761889219284, -0.004643332213163376, -0.0010013910941779613, 0.011029999703168869, -0.0009083474287763238, 0.0126516567543149, 0.012199925258755684, 0.02761322818696499, -0.004025074653327465, 0.006221186835318804, 0.018185194581747055, 0.031989313662052155, 0.00162446906324476, -0.002896486781537533, 0.005018206313252449, -0.006115547847002745, -0.0015968650113791227], [-0.028969524428248405, -0.07912672311067581, -0.05205855146050453, -0.01638122834265232, 0.016335800290107727, 0.045886337757110596, 0.040769536048173904, 0.01247686892747879, -0.019836178049445152, 0.07911435514688492, 0.0004345568304415792, -0.015125910751521587, -0.018367668613791466, 0.006018214393407106, -0.12938876450061798, 0.049379829317331314, 0.0031713079661130905, 0.010231323540210724, 0.057641398161649704, -0.050751280039548874, 0.055199287831783295, 0.05157843232154846, 0.020599601790308952, -0.006488652899861336, -0.0746256485581398, -0.032220613211393356, 0.10293015837669373, -0.026201676577329636, -0.0015924085164442658, 0.0030409768223762512, -0.007622843608260155, 0.03184601292014122], [0.07050854712724686, 0.0928521603345871, -0.05452093854546547, 0.12368741631507874, -0.10682643204927444, 0.004296174738556147, -0.0039776093326509, 0.024181079119443893, 0.08734623342752457, -0.09069815278053284, -0.02409006468951702, 0.030589016154408455, 0.05861552059650421, 0.020573746412992477, -0.11000588536262512, -0.08785463869571686, -0.010484923608601093, 0.18151764571666718, -0.03497358039021492, 0.04512776434421539, -0.003486023284494877, 0.014984437264502048, 0.21489264070987701, 0.1405363529920578, -0.057317301630973816, 0.09196211397647858, 0.013287445530295372, -0.06485532969236374, 0.03353533148765564, -0.012671724893152714, 0.04530330002307892, -0.025527728721499443], [-0.07101727277040482, 0.022975711151957512, -0.08603177219629288, -0.0060895890928804874, 0.20552019774913788, -0.05508260428905487, 0.024779828265309334, 0.07711529731750488, -0.012659912928938866, -0.15602783858776093, 0.05321000888943672, 0.05308622866868973, -0.12412834912538528, -0.23218441009521484, -0.13535277545452118, -0.15204089879989624, 0.04714054614305496, -0.08359584212303162, -0.0476057231426239, 0.020828353241086006, -0.02559872530400753, -0.14699827134609222, 0.0020463350228965282, 0.11239150911569595, 0.1326131820678711, -0.10459655523300171, -0.3315039575099945, 0.06945675611495972, 0.003234627190977335, 0.07441451400518417, 0.014910411089658737, -0.008394110947847366], [0.08053619414567947, -0.03144216537475586, -0.06025058403611183, -0.0066548665054142475, 0.14692378044128418, 0.10571663826704025, -0.2454516589641571, 0.025184638798236847, -0.024817144498229027, 0.10380339622497559, 0.035437192767858505, 0.15275278687477112, -0.017961587756872177, 0.10319965332746506, -0.10997232794761658, -0.021281249821186066, -0.006996749434620142, -0.07628804445266724, 0.049147382378578186, -0.01800497993826866, 0.014818553812801838, -0.05071287974715233, 0.05868649482727051, 0.025969766080379486, 0.04738893732428551, -0.04237136244773865, 0.059699807316064835, 0.04712330177426338, -0.018683411180973053, 0.11735978722572327, -0.043261438608169556, 0.03896250203251839], [0.011245502158999443, 0.03232820704579353, -0.09548966586589813, 0.03830689191818237, -0.025610426440835, 0.0126053337007761, 0.054695725440979004, -0.028699876740574837, -0.09099472314119339, 0.21286417543888092, 0.031797610223293304, 0.11389537900686264, 0.036161620169878006, -0.00025082167121581733, -0.05103196203708649, 0.023377561941742897, -0.053795523941516876, 0.0016189393354579806, 0.1634712517261505, -0.025344330817461014, 0.07744487375020981, 0.1226179450750351, -0.023615330457687378, 0.059386417269706726, -0.030655479058623314, -0.028644073754549026, 0.14912071824073792, 0.019270475953817368, -0.0456148236989975, -0.027009746059775352, -0.11978262662887573, -0.1597546935081482], [-0.004316307604312897, 0.05656297132372856, 0.0043960376642644405, 0.008942775428295135, -0.02824379689991474, 0.009207137860357761, 0.02806166559457779, -0.0009508361690677702, -0.010558006353676319, 0.04732916131615639, 0.002252936828881502, 0.022363901138305664, 0.02664666250348091, -0.021606983616948128, -0.027463329955935478, -0.025113655254244804, -0.010298911482095718, -0.014815707691013813, 0.010621439665555954, 0.002128851367160678, 0.05928768590092659, 0.01302958745509386, 0.01684872806072235, -0.0049679637886583805, 0.004707187879830599, 0.012082235887646675, -0.01745663955807686, 0.005414041690528393, -0.005225430708378553, 0.010675438679754734, -0.013070851564407349, -0.009286629967391491], [0.010815870016813278, -0.09406222403049469, 0.06454576551914215, 0.018130166456103325, -0.1193382740020752, 0.0322774276137352, 0.027372661978006363, -0.001807996304705739, 0.031825076788663864, -0.045779988169670105, -0.05658195540308952, 0.16332530975341797, -0.05213123559951782, 0.1345026195049286, -0.041319992393255234, 0.1400594562292099, -0.07152146100997925, 0.10352817922830582, -0.05141019448637962, -0.13641344010829926, -0.1094825267791748, 0.04288841411471367, 0.12337671965360641, -0.016550399363040924, -0.0836595892906189, 0.1437297761440277, 0.06728925555944443, -0.0038646222092211246, -0.007174801547080278, 0.008591770194470882, 0.013119060546159744, -0.037468671798706055], [-0.02316354401409626, 0.07358299940824509, 0.055443767458200455, -0.8832362294197083, -0.1437360644340515, -0.1736905574798584, -0.8175936341285706, 0.1001087874174118, 0.16966402530670166, -0.8442245721817017, 0.018371401354670525, -0.23103773593902588, -0.014010380022227764, 0.09268949180841446, 0.35773566365242004, -0.33234715461730957, -0.10202910751104355, -0.05429714173078537, -0.24998891353607178, -0.593398928642273, -0.40570539236068726, 0.10398150235414505, 0.14111390709877014, -0.8582462668418884, -0.025849085301160812, 0.1727597564458847, 0.6760872602462769, -0.029989253729581833, -0.059561390429735184, -0.19719207286834717, -0.059153951704502106, 0.1480238288640976], [0.009720912203192711, -0.0885799452662468, -0.14856190979480743, 0.008743860758841038, -0.05327865108847618, -0.017648231238126755, 0.06799410283565521, 0.004355456214398146, -0.044137176126241684, 0.00904453732073307, 0.013090099208056927, -0.05408438667654991, -0.0058392370119690895, -0.09725456684827805, 0.03364300727844238, 0.05269397422671318, -0.023844754323363304, 0.036543577909469604, -0.03239315748214722, -0.09839049726724625, 0.0662791058421135, 0.009288584813475609, 0.02040627971291542, 0.07642274349927902, -0.012579630129039288, -0.07236257195472717, -0.04884283244609833, 0.06438470631837845, -0.012143870815634727, 0.010023103095591068, -0.03398101031780243, 0.004766468890011311], [0.043589964509010315, 0.11172366887331009, 0.029057146981358528, 0.004013821016997099, -0.06172364577651024, 0.0031632159370929003, 0.046447232365608215, 0.09310784935951233, 0.046744778752326965, 0.009307722561061382, -0.022138161584734917, 0.04018513858318329, 0.00728993397206068, -0.02277711220085621, -0.025712352246046066, -0.1280168741941452, -0.04510818049311638, -0.009916076436638832, 0.15538744628429413, -0.00020316513837315142, 0.0499272346496582, 0.013272648677229881, -0.03942848742008209, 0.11746206879615784, 0.029104385524988174, 0.18768753111362457, 0.12833337485790253, -0.06432686746120453, 0.00047388451639562845, 0.031234659254550934, 0.006831137929111719, 0.023846540600061417], [0.3075915575027466, -0.09379958361387253, 0.050617363303899765, 0.03803745284676552, 0.03024539165198803, 0.14646728336811066, -0.15026284754276276, -0.11930214613676071, -0.23437537252902985, -0.24524274468421936, -0.013739080168306828, -0.03865349665284157, 0.022765709087252617, 0.1965968906879425, -0.11151684075593948, -0.19104115664958954, 0.0961221307516098, 0.11008995026350021, 0.4136389195919037, -0.08647506684064865, 0.062451958656311035, -0.1781199723482132, 0.02908545732498169, -0.1393314003944397, -0.05454276129603386, 0.8198628425598145, 0.20724409818649292, 0.16043347120285034, 0.06759372353553772, 0.06256163120269775, 0.03686966374516487, -0.41448089480400085], [0.04082416743040085, 0.09928236901760101, -0.020231187343597412, 0.08489968627691269, -0.031566422432661057, -0.09197922050952911, 0.011270524002611637, -0.10891774296760559, -0.25514233112335205, -0.16463790833950043, 0.06244548410177231, 0.12042499333620071, 0.0027664070948958397, -0.08431141823530197, -0.13792912662029266, -0.28651344776153564, -0.0652904286980629, -0.052622146904468536, 0.052694689482450485, -0.2702920436859131, 0.1012100875377655, -0.004650289658457041, 0.07702861726284027, -0.22226294875144958, -0.04868956282734871, 0.19430620968341827, 0.0019811380188912153, 0.003960763104259968, -0.0632832944393158, -0.1534421294927597, -0.13831056654453278, -0.11058031767606735], [0.08989904820919037, -0.02055482566356659, 0.058566100895404816, -0.10384143888950348, -0.012534702196717262, 0.017214979976415634, 0.07752614468336105, 0.06078753620386124, 0.05859141796827316, 0.07030799239873886, -0.05338108912110329, 0.17665106058120728, 0.01796978898346424, -0.04276953637599945, 0.002048811409622431, 0.12226339429616928, -0.043113041669130325, 0.0276313666254282, 0.019702235236763954, 0.09754181653261185, -0.0976337194442749, -0.06725679337978363, 0.09228036552667618, 0.08851595968008041, -0.00749068520963192, 0.18178220093250275, -0.055079635232686996, 0.003247397718951106, 0.026069702580571175, 0.09609287232160568, 0.06750694662332535, 0.0474088229238987], [0.07690957933664322, 0.009017569944262505, -0.03141620755195618, 0.0030594314448535442, 0.16900824010372162, 0.0029132775962352753, -0.06279616057872772, -0.049240730702877045, 0.04349196329712868, -0.007396709639579058, -0.002648091409355402, 0.03044908680021763, 0.12626239657402039, 0.08192083239555359, -0.01923977956175804, 0.07639455050230026, 0.028170637786388397, 0.01943378336727619, -0.008355583064258099, 0.07637152075767517, -0.05206315964460373, 0.01867801696062088, 0.04026871919631958, 0.08496825397014618, 0.07912243902683258, 0.14272859692573547, -0.0856989398598671, 0.13615770637989044, -0.006556397769600153, 0.02879059687256813, 0.009698060341179371, -0.013244930654764175], [-0.13052374124526978, 0.5297247171401978, -0.17218783497810364, -0.011182273738086224, 0.0004885245580226183, 0.14578454196453094, 0.13299214839935303, 0.04403110593557358, 0.2048589140176773, -0.018783990293741226, -0.06336452066898346, -0.20973829925060272, -0.03412318974733353, -0.09696128219366074, 0.11516069620847702, 0.2134837508201599, 0.05231297016143799, 0.12298807501792908, 0.21464620530605316, 0.019230715930461884, 0.030751898884773254, 0.008850134909152985, -0.00766017148271203, -0.19961802661418915, 0.10861938446760178, 0.07326386868953705, -0.05082884803414345, -0.014555566012859344, 0.052422575652599335, -0.17511312663555145, 0.08642487227916718, 0.12310675531625748], [0.009959423914551735, -0.004460511729121208, 0.10607380419969559, 0.05901041254401207, 0.0008206257480196655, -0.014497533440589905, 0.07477608323097229, 0.021338308230042458, -0.09124497324228287, 0.2146691381931305, -0.004721448756754398, 0.2799675464630127, 0.027784571051597595, -0.17627711594104767, -0.02734563685953617, 0.09941527992486954, -0.0064883301965892315, -0.04254113510251045, -0.05627474933862686, -0.03204832226037979, -0.02132091112434864, 0.037957023829221725, 0.062096886336803436, 0.0385134294629097, 0.07660990953445435, -0.0524124875664711, -0.151140496134758, 0.00010864112846320495, 0.00033304814132861793, 0.035088226199150085, 0.002810851437970996, -0.19471262395381927], [-0.20228658616542816, -0.4679332673549652, 0.507844865322113, -0.14465707540512085, -0.10860388725996017, 0.09732174873352051, -0.00872486550360918, 0.07674703747034073, -0.25730282068252563, -0.4326857626438141, -0.053672365844249725, 0.042672690004110336, 0.35202643275260925, -0.19842715561389923, -0.19869621098041534, -0.21356242895126343, -0.07989118248224258, -0.4916534423828125, -0.1366465985774994, -0.33445900678634644, 0.40430232882499695, -0.02419382333755493, 0.10227097570896149, -0.36113792657852173, -0.2908303439617157, 0.9110990762710571, -0.16661639511585236, -0.12128415703773499, -0.03307042643427849, 0.6363322138786316, -0.043327536433935165, 0.2220791131258011], [0.004181613679975271, -0.016685068607330322, -0.004259463865309954, -0.0020148048643022776, -0.012509260326623917, 0.00529565941542387, 0.0031229862943291664, -0.0010376207064837217, -0.0015362633857876062, 0.04657517373561859, 0.0022223452106118202, 0.01849985308945179, -0.0011378811905160546, -0.006615401711314917, -0.004156127106398344, 0.013919506222009659, -0.007682462222874165, -0.00518898805603385, 0.003856547409668565, -0.0036067324690520763, 0.007563660852611065, 0.02464139275252819, 0.00954020768404007, -0.014057186432182789, 0.0010935720056295395, -0.004869036376476288, 0.015971457585692406, 0.011534496210515499, -0.005768012721091509, 0.004800821654498577, -0.011008932255208492, -0.0072183446027338505], [0.016034265980124474, 0.014383319765329361, 0.04154908284544945, 0.002603508299216628, -0.060638125985860825, -0.010522814467549324, 0.08939767628908157, 0.06549897789955139, -0.20519205927848816, -0.1262524574995041, -0.020022373646497726, 0.08273481577634811, -0.07585816085338593, 0.09970875829458237, 0.0537380650639534, -0.11303602159023285, -0.04006180167198181, 0.038640327751636505, -0.09802839905023575, -0.03267015889286995, -0.008777658455073833, -0.1737571805715561, -0.0559290274977684, -0.0737512931227684, 0.03197936341166496, 0.214875727891922, -0.1429852843284607, -0.11168606579303741, -0.0052879913710057735, -0.02773616462945938, -0.03401787579059601, 0.2856014370918274], [0.01151276659220457, -0.08365868031978607, -0.034575749188661575, -0.01777128502726555, -0.07395298779010773, 0.016475535929203033, 0.008084901608526707, -0.017295872792601585, -0.036439284682273865, 0.11280559003353119, 0.008230001665651798, 0.058843571692705154, -0.005163830239325762, 0.007546905893832445, 0.004960620775818825, -0.010284801945090294, -0.032145749777555466, 0.009753517806529999, 0.028186295181512833, -0.010820046067237854, 0.03804166615009308, 0.08687524497509003, 0.018493350595235825, -0.04879006743431091, -0.0013564329128712416, -0.029966915026307106, 0.058008305728435516, 0.01653265208005905, -0.02078307420015335, 0.010406138375401497, -0.05004270002245903, -0.023195698857307434], [-0.05847286805510521, 0.024842247366905212, 0.07581295073032379, 0.09975705295801163, 0.06694146990776062, -0.03353682905435562, 0.04056353121995926, 0.05358664691448212, -0.0801258236169815, -0.09364144504070282, 0.01872324012219906, 0.14908407628536224, -0.04571053385734558, -0.05074248090386391, 0.05692967772483826, -0.26157140731811523, 0.05596629157662392, -0.006623235065490007, -0.03695659711956978, -0.0281076543033123, 0.03390606865286827, -0.02747572958469391, -0.052561692893505096, 0.25040754675865173, -0.0006220456562004983, 0.05819166451692581, -0.13225586712360382, -0.027703367173671722, 0.03834732621908188, -0.1381911039352417, 0.06193909794092178, -0.009697239845991135], [-0.16748720407485962, 0.02504540979862213, -0.12037297338247299, 0.07303498685359955, -0.005751961376518011, -0.015189210884273052, 0.11893552541732788, -0.04170113429427147, -0.08460472524166107, 0.09880643337965012, -0.003318717470392585, 0.29389962553977966, 0.104132279753685, 0.1129319965839386, 0.015798725187778473, -0.03209209442138672, -0.011748408898711205, 0.17208987474441528, 0.015031109564006329, -0.07762928307056427, 0.06823384761810303, 0.08858498185873032, 0.11776795983314514, 0.11260540783405304, -0.12370938807725906, 0.08079338073730469, -0.026225188747048378, 0.03183319792151451, 0.0014025348937138915, -0.05769828334450722, -0.016021978110074997, 0.006119148340076208], [0.005250231828540564, 0.33708181977272034, 0.047017112374305725, 0.060758884996175766, 0.07615188509225845, -0.048529114574193954, -0.06544413417577744, -0.017728624865412712, 0.24444973468780518, 0.03511125221848488, -0.011224773712456226, 0.48198315501213074, -0.07744362205266953, -0.1752631962299347, 0.2495923936367035, -0.49147358536720276, -0.0371612124145031, -0.13025033473968506, -0.2621777057647705, 0.18676500022411346, 0.023398423567414284, 0.21054919064044952, 0.039454564452171326, 0.07230343669652939, 0.08411090821027756, -0.08696189522743225, -0.3474733531475067, 0.10925542563199997, 0.0044178138487041, 0.14513257145881653, -0.0186251699924469, -0.15412668883800507], [-0.10364532470703125, -0.007248874753713608, -0.21942895650863647, -0.3060716688632965, -0.14242155849933624, -0.05978424847126007, -0.22856704890727997, 0.05955856293439865, 0.05677158758044243, -0.018314983695745468, -0.011311817914247513, 0.13675223290920258, 0.022111019119620323, 0.24392129480838776, 0.061285629868507385, 0.14037930965423584, -0.049351487308740616, 0.1910375952720642, 0.053043629974126816, 0.33492496609687805, -0.12366019189357758, -0.08176993578672409, 0.033811960369348526, -0.09062478691339493, -0.08130472153425217, 0.2025693655014038, 0.0343899242579937, -0.014616706408560276, 0.044346634298563004, -0.14551739394664764, 0.020592100918293, 0.3376535177230835], [0.07941444963216782, 0.07221872359514236, -0.04707694426178932, -0.18339399993419647, -0.006442518904805183, -0.01858474127948284, -0.17284052073955536, -0.03125644475221634, -0.010022995062172413, 0.06382634490728378, 0.035743772983551025, 0.3474888205528259, -0.04914955049753189, 0.22784768044948578, -0.033805541694164276, -0.1488979309797287, -0.03881199285387993, -0.02656658925116062, 0.22823984920978546, -0.048328544944524765, 0.03207485005259514, -0.09599181264638901, -0.08125428110361099, 0.007700681686401367, -0.12409895658493042, -0.2252500355243683, 0.08796311169862747, -0.02776253968477249, -0.04888392239809036, -0.08840824663639069, -0.12062758207321167, 0.10061509907245636], [0.000843274116050452, -0.07734041661024094, 0.06504271924495697, 0.017379041761159897, 0.06494034826755524, 0.004719180054962635, -0.04625264182686806, -0.049719762057065964, -0.07784918695688248, 0.050790220499038696, 0.0038249960634857416, 0.05363857373595238, 0.036131858825683594, -0.000598813989199698, -0.14752885699272156, -0.0015985510544851422, -0.018329516053199768, -0.012378813698887825, 0.06810321658849716, -0.10512354969978333, 9.826825407799333e-05, -0.06026923283934593, -0.07417990267276764, 0.008808744139969349, 0.011888538487255573, 0.060627229511737823, -0.012672184035182, 0.029298273846507072, -0.013806644827127457, 0.036279913038015366, -0.045421846210956573, 0.0337769091129303], [-0.05096682161092758, -0.04643353074789047, 0.04226165637373924, -0.0441618487238884, 0.09427745640277863, -0.006552248261868954, -0.008378664962947369, 0.004270854871720076, 0.07292269170284271, -0.0011811534641310573, 2.058782229141798e-05, -0.04862506687641144, -0.013995788991451263, -0.019158100709319115, 0.09689986705780029, 0.04099026322364807, 0.016910744830965996, -0.03522135689854622, -0.08504102379083633, 0.03153945878148079, -0.036650627851486206, 0.005876968149095774, -0.00022115535102784634, -0.0427720807492733, -0.0005653111729770899, -0.0013593389885500073, -0.07867074012756348, 0.05104534327983856, -0.005034651607275009, -0.017583146691322327, 0.020955590531229973, 0.10785456746816635], [-0.007716766558587551, -0.2011088877916336, -0.09487202763557434, 0.1464393138885498, 0.13861089944839478, -0.04225587099790573, 0.005492601543664932, 0.003194640390574932, -0.5188222527503967, 0.34044116735458374, 0.06816963106393814, 0.4708264470100403, 0.15342524647712708, 0.25803741812705994, -0.09007503092288971, -0.14880681037902832, -0.07072484493255615, 0.34703394770622253, -0.12031096965074539, -0.270677387714386, -0.009686456061899662, 0.14569157361984253, -0.07416103035211563, 0.2628360986709595, -0.3204396963119507, 0.6134109497070312, 0.2545337378978729, 0.02071407437324524, -0.05005364865064621, -0.12638521194458008, -0.13716445863246918, -0.34334757924079895], [0.007241799030452967, -0.0841105505824089, 0.01593620888888836, 0.028074510395526886, -0.11399853229522705, 0.09872215986251831, -0.062281254678964615, -0.032400574535131454, 0.019931195303797722, 0.10200116783380508, 0.02099720947444439, 0.06912117451429367, -0.07885874807834625, -0.054459698498249054, -0.12638913094997406, -0.023995714262127876, -0.02569974586367607, -0.02877567708492279, 0.18723320960998535, 0.19039618968963623, 0.0539737232029438, -0.050145622342824936, 0.12757597863674164, 0.10876360535621643, 0.19474202394485474, 0.08358042687177658, 0.06639769673347473, -0.019417187198996544, -0.008143635466694832, 0.06489592045545578, -0.0017103079007938504, 0.06857763230800629], [-0.06758268177509308, -0.24507251381874084, 0.010064760223031044, 0.02178046479821205, 0.12129916995763779, -0.09870826452970505, 0.12226124107837677, -0.024707406759262085, -0.05600864812731743, -0.25977933406829834, 0.03862864151597023, -0.16657216846942902, 0.04725002124905586, 0.24621354043483734, 0.06169040873646736, -0.1203627735376358, -0.0016545569524168968, 0.19120213389396667, 0.20688888430595398, 0.0524175651371479, -0.13713125884532928, -0.263075053691864, -0.04148783162236214, 0.02327004447579384, -0.0512702502310276, 0.028452018275856972, -0.13122870028018951, -0.011801501736044884, -0.009607017040252686, 0.15592752397060394, -0.03437207266688347, -0.12318796664476395], [0.06352084130048752, 1.7700024843215942, 0.29545700550079346, -0.1455366015434265, 0.11487028747797012, 0.04334232583642006, 0.19242489337921143, -0.03547081723809242, 0.44813409447669983, -0.16346563398838043, -0.06662566214799881, -0.44507652521133423, -0.01179528795182705, -0.6031349301338196, -0.28826212882995605, -0.18332166969776154, 0.12548314034938812, -0.5566855072975159, -0.7522004842758179, 0.054115381091833115, -0.0677785649895668, -0.1595071703195572, -0.07695456594228745, 0.11172076314687729, 0.19761961698532104, 0.05227193981409073, -0.32039153575897217, 0.4734978675842285, 0.07768453657627106, 0.01957806758582592, 0.10185842216014862, 0.046549953520298004], [-0.00018557369185145944, -0.01132954191416502, -0.00807045679539442, -0.0017115188529714942, -0.0056264931336045265, 0.0040681385435163975, 0.011764734983444214, -0.0030423311982303858, -0.002826473442837596, 0.04680924490094185, 0.0006902051973156631, 0.013678084127604961, -0.0044583105482161045, 0.003128280397504568, -0.015033606439828873, 0.022129811346530914, -0.00542865227907896, -0.0014822612283751369, 0.013070757500827312, -0.004804702941328287, 0.012117411941289902, 0.012515019625425339, 0.02728928066790104, -0.005857476964592934, 0.0044569880701601505, 0.01720748469233513, 0.03779887780547142, 0.0003924529592040926, -0.0031396166887134314, 0.00467342883348465, -0.007573391310870647, -0.0009492464596405625], [-0.06736872345209122, -0.34014320373535156, -0.013891047798097134, -0.02454209513962269, 0.000694212329108268, 0.05663636699318886, 0.08798080682754517, -0.015638206154108047, 0.0657547265291214, 0.1813153475522995, -0.014784605242311954, -0.11841738969087601, -0.05167708918452263, -0.05162524804472923, -0.11307894438505173, 0.1323271542787552, 0.025142939761281013, 0.050983887165784836, 0.021116139367222786, -0.03977485001087189, 0.06625481694936752, 0.14319439232349396, 0.049351319670677185, -0.011155725456774235, -0.11375752091407776, -0.2310919463634491, 0.1515774428844452, -0.06419019401073456, 0.008067646063864231, -0.06842533499002457, 0.013936454430222511, 0.1671048402786255], [0.03459413722157478, 0.061755843460559845, -0.07367606461048126, 0.09551893174648285, 0.02881721220910549, 0.002837838837876916, 0.15644098818302155, 0.1528884470462799, -0.04354747384786606, 0.0032821428030729294, -0.0005835802294313908, 0.13222993910312653, 0.022551018744707108, -0.006694533862173557, -0.01886092871427536, 0.025887537747621536, -0.0033093267120420933, 0.09538241475820541, 0.07897324860095978, -0.035605620592832565, -0.0694698616862297, 0.03520742431282997, 0.07050183415412903, 0.1270497739315033, -0.052515070885419846, 0.05196598917245865, 0.03558436408638954, 0.020542770624160767, -0.0023679048754274845, -0.00997591856867075, 0.01112457737326622, -0.020579611882567406], [-0.005634654778987169, -0.18051333725452423, 0.17597061395645142, -0.10448569059371948, 0.07363837957382202, 0.06565673649311066, -0.10726485401391983, 0.005380288232117891, 0.10610433667898178, 0.14191126823425293, 0.020471444353461266, 0.12212137132883072, 0.0005405634292401373, -0.13052456080913544, -0.17985808849334717, 0.008314108476042747, -0.019848613068461418, -0.09417469799518585, -0.04340701922774315, 0.11351720243692398, -0.03841464966535568, -0.04900011047720909, -0.060709062963724136, -0.011627952568233013, 0.07329768687486649, 0.12017034739255905, -0.30994510650634766, -0.012341085821390152, 0.011925173923373222, 0.03888668492436409, 0.015277447178959846, 0.01043354906141758], [0.07755415886640549, -0.09095045924186707, -0.057823747396469116, -0.028854936361312866, 0.26183512806892395, 0.14754249155521393, -0.32446300983428955, 0.002611620118841529, 0.0656464621424675, 0.0887826532125473, 0.01550646498799324, 0.17895084619522095, -0.007834542542696, 0.12749788165092468, -0.06514599919319153, 0.06618804484605789, 0.02434839867055416, -0.06506990641355515, -0.013246681541204453, 0.027068771421909332, -0.03391402214765549, -0.00758023327216506, -0.06951426714658737, 0.013816616497933865, 0.03956099599599838, -0.09901273995637894, 0.026775524020195007, 0.12789630889892578, 0.0058725751005113125, 0.09630551189184189, 0.017779696732759476, 0.04297509416937828], [0.12797752022743225, 0.3987862467765808, -0.06644833087921143, 0.0185865368694067, 0.10752157121896744, -0.018512062728405, 0.030011162161827087, -0.0047584157437086105, -0.04144683852791786, 0.12045857310295105, 0.054622262716293335, 0.08671405166387558, 0.04079720750451088, 0.07094600051641464, -0.12546341121196747, -0.07926253229379654, -0.03572290763258934, -0.03662016987800598, 0.3139864504337311, 0.20837876200675964, -0.13757437467575073, -0.12979823350906372, -0.12069607526063919, 0.037642717361450195, -0.06565923243761063, 0.02169872634112835, -0.11985606700181961, -0.02441658452153206, -0.050808101892471313, -0.005031063687056303, -0.13979144394397736, -0.10458802431821823], [-0.008016685955226421, 0.06435616314411163, -0.0018482879968360066, 0.003990231081843376, -0.045121826231479645, 0.004274513106793165, 0.024542266502976418, -0.009040681645274162, -0.015100527554750443, 0.04222477972507477, 0.0041976748034358025, 0.024856843054294586, 0.02598450891673565, -0.021359460428357124, -0.026343533769249916, -0.053901758044958115, -0.013307922519743443, -0.01729460060596466, 0.013422050513327122, 0.011456083506345749, 0.06426402926445007, 0.010080331936478615, 0.020714687183499336, -0.011362528428435326, 0.01164297480136156, 0.0007612849003635347, -0.04103629291057587, -0.00036474328953772783, -0.007536282762885094, 0.013346162624657154, -0.01971907541155815, -0.005328252445906401], [0.0444522425532341, -0.10747574269771576, -0.05397750809788704, -0.02663622424006462, -0.17461583018302917, 0.05811060592532158, 0.013841952197253704, 0.021751156076788902, -0.024139365181326866, 0.07153651118278503, -0.033045511692762375, 0.21568630635738373, -0.033449746668338776, 0.07680210471153259, -0.039108674973249435, -0.05850405618548393, -0.0828547552227974, 0.0343564935028553, -0.13530957698822021, -0.024181406944990158, -0.014696510508656502, 0.14489728212356567, 0.21870379149913788, -0.026600241661071777, -0.04168259724974632, 0.08294324576854706, 0.038283269852399826, 0.047256313264369965, -0.014312757179141045, 0.10455185174942017, -0.02944946475327015, -0.03299794718623161], [0.019298313185572624, -0.41613447666168213, 0.03932112082839012, -0.05945655703544617, 0.143281951546669, 0.06862705200910568, -0.1128992959856987, -0.007107992190867662, 0.04594406858086586, 0.2979336678981781, -0.019071431830525398, 0.12789829075336456, 0.10265976935625076, 0.020647374913096428, 0.005243055522441864, 0.25514155626296997, 0.03438383713364601, 0.09298398345708847, -0.35122090578079224, 0.026809087023139, -0.15117651224136353, 0.02165604755282402, -0.0012878819834440947, -0.09417381882667542, 0.07594084739685059, 0.06980916857719421, -0.24527482688426971, -0.028620580211281776, 0.038653045892715454, 0.057333413511514664, 0.06231793016195297, 0.02261926420032978], [0.09159702807664871, -0.1685173362493515, -0.02836422063410282, 0.011205853894352913, -0.02576983906328678, -0.0065231178887188435, 0.030985340476036072, 0.010864627547562122, -0.05382882431149483, 0.07418449968099594, -0.00033947848714888096, 0.04654458537697792, 0.010756490752100945, -0.1330033242702484, -0.03292815759778023, 0.09138466417789459, -0.0059401364997029305, 0.015975788235664368, -0.04624095931649208, -0.1648503988981247, 0.1334334760904312, 0.06018410623073578, 0.03076913394033909, 0.18330258131027222, -0.052455175668001175, -0.006750044878572226, 0.010052316822111607, 0.0852888748049736, -0.004439744167029858, -0.009305980056524277, 0.008899861015379429, -0.11220426857471466], [0.05688615143299103, 0.021470824256539345, 0.02790357545018196, 0.05572853237390518, -0.13877442479133606, 0.004872376099228859, 0.21948251128196716, 0.015962185338139534, -0.14934080839157104, 0.10980979353189468, -0.008862764574587345, 0.12189208716154099, 0.06273441016674042, -0.02700449340045452, 0.01578293927013874, -0.1318923681974411, -0.06858444958925247, -0.006809016223996878, 0.1611299365758896, -0.025384750217199326, 0.1078968197107315, -0.1394912302494049, -0.07812052965164185, 0.17280413210391998, 0.06614220142364502, 0.2028530389070511, 0.11125891655683517, -0.1451583355665207, -0.02040032483637333, 0.02022036351263523, -0.05925070494413376, 0.019606992602348328], [0.005939092952758074, -0.11543609201908112, -0.06631933152675629, -0.0248816329985857, 0.05581899732351303, 0.11012731492519379, -0.23567289113998413, 0.04811704158782959, -0.009610996581614017, 0.15965396165847778, 0.03536748141050339, 0.30971142649650574, -0.024215124547481537, 0.10698636621236801, -0.09314591437578201, 0.10755736380815506, 0.02047250233590603, -0.17008602619171143, -0.3728701174259186, 0.08684271574020386, -0.14333420991897583, -0.014380068518221378, -0.09483042359352112, 0.017129790037870407, 0.02800406888127327, 0.07207638770341873, -0.2262149155139923, 0.22724449634552002, -0.009972377680242062, 0.07514320313930511, -0.0029947850853204727, -0.11778037250041962], [-0.09387258440256119, -0.0720064789056778, -0.009803091175854206, -0.052709102630615234, 0.0011313912691548467, -0.0032889507710933685, -0.052703335881233215, 0.058612190186977386, -0.08604153990745544, -0.012784347869455814, 0.03724249452352524, 0.19998520612716675, -0.038249898701906204, 0.1415977030992508, -0.05291350558400154, -0.015351569280028343, -0.02351248450577259, 0.10709661990404129, 0.05894406512379646, -0.08914116024971008, 0.008188859559595585, 0.1224704310297966, 0.11121533066034317, 0.03978537395596504, -0.042624298483133316, -0.08627445995807648, -0.04655136540532112, 0.07808692753314972, -0.04988135024905205, -0.09884152561426163, -0.11880070716142654, -0.14027678966522217], [-0.04510026425123215, -0.012123649008572102, 0.03873668238520622, -0.10148212313652039, 0.08281713724136353, 0.019344070926308632, -0.00921365525573492, 0.014981348067522049, -0.09578394144773483, 0.05519861727952957, 0.013065371662378311, 0.1652403473854065, 0.021556030958890915, -0.05789456516504288, -0.0833391547203064, 0.013582603074610233, -0.08357975631952286, 0.0562543086707592, 0.20098218321800232, 0.060915447771549225, -0.09521522372961044, -0.12769316136837006, 0.09965606033802032, 0.13346728682518005, 0.05217508226633072, 0.14783072471618652, 0.07174310088157654, 0.004051707219332457, -0.026124143972992897, 0.016771778464317322, -0.04183431714773178, 0.15254275500774384], [-0.012153394520282745, 0.028984231874346733, 0.14527910947799683, 0.0014609622303396463, 0.2174091935157776, -0.10838452726602554, -0.07184157520532608, -0.06397058069705963, 0.0793100968003273, 0.043854210525751114, 0.03200969845056534, 0.13769091665744781, -0.05499761924147606, -0.10318504273891449, -0.1191665530204773, 0.07131356745958328, 0.015168340876698494, 0.06531006097793579, 0.227015420794487, 0.21818019449710846, -0.222002774477005, -0.13831225037574768, 0.09700731188058853, 0.17155732214450836, 0.18690598011016846, 0.18284352123737335, -0.21946078538894653, 0.08414672315120697, -0.011734478175640106, 0.029590385034680367, -0.0028207972645759583, 0.1062244325876236], [-0.07135967910289764, 0.03435276821255684, -0.08193475008010864, 0.13978062570095062, 0.08373948931694031, 0.10530159622430801, 0.322494238615036, 0.14469601213932037, 0.00016853112902026623, 0.28833723068237305, -0.04897936433553696, 0.010697017423808575, -0.12870420515537262, -0.3054961860179901, 0.06247805431485176, 0.29964733123779297, 0.02374720200896263, 0.22910910844802856, 0.07529859989881516, -0.0833558589220047, 0.0632428377866745, 0.17317673563957214, 0.14935113489627838, -0.07400155067443848, 0.04562844708561897, 0.3491532802581787, 0.09605292230844498, -0.07839835435152054, 0.039364930242300034, -0.18975110352039337, 0.07419488579034805, 0.12781153619289398], [-0.0347585529088974, -0.030424971133470535, 0.12405743449926376, -0.027376962825655937, 0.06558137387037277, 0.03735741600394249, -0.039908334612846375, -0.07032476365566254, -0.19275914132595062, -0.012021131813526154, -0.06318362057209015, 0.5313764214515686, 0.05717061832547188, 0.279784619808197, 0.23911099135875702, 0.22871382534503937, 0.04519402235746384, -0.09597217291593552, -0.5369862914085388, 0.15782640874385834, -0.11090034991502762, -0.33682680130004883, 0.03863542154431343, -0.04135829955339432, 0.08569585531949997, -0.22044508159160614, -0.3606741726398468, 0.04770601913332939, 0.013796222396194935, -0.06690119206905365, 0.06792003661394119, -0.17551061511039734], [-0.13731640577316284, -0.048610053956508636, 0.007598511409014463, 0.22187477350234985, -0.012180323712527752, -0.0589178204536438, 0.2578388452529907, 0.05175965279340744, -0.07336243987083435, 0.22710064053535461, 0.042239461094141006, 0.30809667706489563, -0.008658114820718765, 0.017225418239831924, 0.2234548181295395, -0.005861449986696243, -0.0674339160323143, 0.17673982679843903, -0.4556885063648224, -0.07886610925197601, -0.05808907002210617, 0.18295204639434814, -0.04322601109743118, 0.22438566386699677, -0.15755414962768555, 0.083488829433918, -0.2219274342060089, 0.12103839963674545, -0.07253853976726532, -0.17580768465995789, -0.11309687048196793, 0.07693696767091751], [0.0050611975602805614, -0.009603616781532764, 0.001980898668989539, -0.002071747090667486, -0.012368712574243546, 0.004121711943298578, 0.00305301696062088, -0.002618107944726944, 0.0032028930727392435, 0.04578816890716553, 0.0016988326096907258, 0.018578670918941498, -0.004254981875419617, -0.010941113345324993, -0.001473071752116084, 0.011375104077160358, -0.0061018457636237144, -0.00696393009275198, 0.004275450017303228, -0.0019943437073379755, 0.004501533694565296, 0.024476785212755203, 0.008153078146278858, -0.015317209996283054, 0.002569321310147643, -0.006787299644201994, 0.010488958097994328, 0.009447426535189152, -0.0051662190817296505, 0.005271686241030693, -0.009013249538838863, -0.005181580316275358], [0.06357106566429138, 0.0008682039915584028, 0.1960773915052414, 0.07489138841629028, -0.04126196727156639, 0.018981602042913437, 0.05351939797401428, 0.11719661206007004, -0.15751121938228607, -0.06782066822052002, -0.012134064920246601, 0.24162788689136505, -0.060334865003824234, 0.07402468472719193, -0.006025956477969885, -0.041848547756671906, -0.02068006619811058, -0.027473000809550285, -0.15166908502578735, -0.10578791052103043, 0.05096688121557236, -0.19312657415866852, -0.07908455282449722, -0.05784253776073456, -0.037084631621837616, 0.01137509010732174, -0.09230303019285202, -0.10802113264799118, -0.0056674727238714695, -0.03705158829689026, -0.026410451158881187, 0.1880263090133667], [0.015685612335801125, -0.057014428079128265, -0.03876021131873131, -0.03168785572052002, -0.08857138454914093, 0.008575615473091602, 0.004294008482247591, -0.026037683710455894, -0.03542321175336838, 0.12983043491840363, 0.009089712053537369, 0.07266250252723694, -0.02594687230885029, 0.0004020121996290982, 0.019532719627022743, -0.024066120386123657, -0.035370904952287674, 0.002553574275225401, 0.03457926958799362, -0.0009312931215390563, 0.027221577242016792, 0.10023029893636703, 0.014311213046312332, -0.07501847296953201, 0.007633900735527277, -0.036850009113550186, 0.04090465232729912, 0.013174602761864662, -0.02492881566286087, 0.01816616579890251, -0.05564304441213608, -0.012768536806106567], [-0.18463937938213348, -0.04755036160349846, 0.1864471137523651, 0.03879072144627571, 0.15676070749759674, -0.01828305423259735, 0.08338877558708191, 0.1731339544057846, -0.13073749840259552, 0.13154171407222748, -0.000981285935267806, 0.4378993511199951, -0.04162748530507088, -0.01464525144547224, 0.049040500074625015, 0.0337466299533844, 0.025806289166212082, 0.16957353055477142, -0.21162302792072296, -0.21174824237823486, 0.03925244137644768, 0.06383591145277023, -0.10792773216962814, 0.33009639382362366, -0.16235148906707764, 0.17855659127235413, -0.10054992884397507, 0.03148307651281357, 0.04409927874803543, -0.10917048156261444, 0.06629028916358948, -0.10600800067186356], [0.7849793434143066, -0.05154764652252197, -0.10584646463394165, 0.10883177816867828, 0.05555916205048561, -0.051402345299720764, -0.4062671959400177, -0.15543483197689056, 0.14874090254306793, 0.1368589848279953, 0.028574060648679733, -0.1438540816307068, 0.32214152812957764, -0.16198237240314484, 0.06056109443306923, -0.11686109751462936, 0.013748371973633766, 0.20027010142803192, -0.08259345591068268, -0.1323181837797165, 0.0168085265904665, -0.137635737657547, 0.6190522909164429, 0.4211333692073822, -0.0977962538599968, -0.09454791992902756, 0.05806713551282883, 0.04038718715310097, 0.011001058854162693, 0.41451749205589294, 0.030229536816477776, 0.3277648091316223], [0.05360376462340355, 0.9405516386032104, -0.09977459907531738, -0.18271130323410034, -0.021648893132805824, 0.10311175137758255, -0.19343440234661102, -0.07470840215682983, 0.575859010219574, -1.66025710105896, 0.019025055691599846, -0.1021534651517868, 0.007888871245086193, -0.1732153296470642, 0.07133537530899048, 1.237924337387085, -0.0541747510433197, 0.07083321362733841, -0.09669001400470734, -0.4706256687641144, -0.023949837312102318, -1.521121859550476, 0.1430477648973465, -0.14832496643066406, 0.08113159239292145, -0.07281869649887085, -0.04558958485722542, -0.5299714803695679, -0.05729635804891586, -0.2637937366962433, -0.109733946621418, -0.33166563510894775], [0.22868597507476807, -0.23745286464691162, 1.4290574789047241, -0.17214429378509521, 0.1793186515569687, 0.12439921498298645, 0.05942713841795921, 0.16286742687225342, -0.9717686176300049, -0.3814704716205597, -0.0039042707066982985, 0.1378159075975418, -0.025940045714378357, -1.1927969455718994, -0.4700273871421814, -0.09014543145895004, 0.08659198880195618, -0.49569451808929443, 0.13927356898784637, -0.27554139494895935, -0.03849544748663902, -0.01367858238518238, -0.007265894208103418, 0.06940356642007828, 0.26401159167289734, -0.19315627217292786, -0.27097639441490173, 0.2823922634124756, -0.034491341561079025, -0.7286670207977295, -0.030218450352549553, 0.3402354121208191], [-0.14922168850898743, -0.03839689865708351, 0.13575881719589233, 0.8823767304420471, 0.020607197657227516, 0.01751399226486683, 0.010944045148789883, 0.1078554093837738, -0.12130942940711975, 0.2778970003128052, -0.014206117019057274, -0.41928017139434814, 0.26697978377342224, -0.6677788496017456, 0.09356696158647537, -0.033693812787532806, -0.034410398453474045, 0.2083142101764679, 0.1986316442489624, 0.02140960469841957, 0.018384868279099464, -0.3415362536907196, -0.07543886452913284, 0.5226314663887024, -0.4454275369644165, 0.0697452574968338, -0.031452495604753494, 0.12626588344573975, 0.015490895137190819, -0.36199212074279785, 0.04541460797190666, -0.7398504018783569], [-0.011714635416865349, 0.05167980492115021, -0.14925985038280487, 0.008772118017077446, 0.6434744596481323, -0.2021796852350235, -0.0642121359705925, -0.010523123666644096, -0.10543575882911682, 0.058402810245752335, -0.033330559730529785, 0.04275989904999733, 0.03635919466614723, -0.1856335997581482, 0.12082510441541672, 0.08806143701076508, 0.05901612713932991, -0.16468152403831482, 0.20607753098011017, -0.2709936499595642, -0.40685513615608215, -0.038692835718393326, -0.004979003220796585, 0.14295123517513275, -0.04887894541025162, -0.0940438061952591, -0.023113809525966644, -0.10202606767416, 0.037313006818294525, 0.2625352144241333, 0.06917203962802887, 0.019858427345752716], [0.0559198260307312, -0.07217590510845184, 0.10585197806358337, -0.04967547208070755, 0.28539592027664185, 0.3685975670814514, -0.038588736206293106, 0.08625943213701248, 0.06921310722827911, -0.07940477877855301, 0.07464328408241272, 0.08858039230108261, 0.017818260937929153, 0.09596890211105347, -0.13904283940792084, 0.2539888322353363, -0.15306368470191956, -0.04395860806107521, 0.06546410918235779, 0.23275946080684662, 0.43787699937820435, 0.10556744039058685, 0.018276676535606384, 0.04992019385099411, -0.019173474982380867, -0.09443368762731552, -0.03143597021698952, -0.03705116733908653, -0.09657871723175049, 0.01452588103711605, -0.13470248878002167, -0.021694950759410858], [-0.1229005679488182, 0.7155783176422119, -0.16651102900505066, -0.1179737076163292, 0.04462876170873642, -0.08432327210903168, 0.4551789462566376, -0.27516645193099976, -0.11191627383232117, 0.12574583292007446, 0.04655241593718529, -0.006846769712865353, 0.03906511887907982, -0.20542198419570923, -0.2151399701833725, -1.206632137298584, 0.026583677157759666, 0.004034699406474829, -0.43002641201019287, -0.047511253505945206, -0.06302189081907272, 0.32485535740852356, 0.3596050441265106, 0.12408588081598282, 0.022262202575802803, 0.16479958593845367, -0.8595213294029236, 0.048779845237731934, -0.013396039605140686, -0.09571734815835953, -0.03399813175201416, 0.41610023379325867], [0.06370817124843597, 0.07220722734928131, -0.0803537666797638, -0.015351962298154831, 0.038231171667575836, -0.16269037127494812, 0.16017219424247742, 0.735959529876709, -0.06620904803276062, -0.09723449498414993, 0.01831735484302044, 0.0521712563931942, -0.6279621720314026, -0.06054757162928581, -0.24981456995010376, 0.04585213214159012, 0.02934577502310276, 0.08318307995796204, -0.04957291856408119, -0.10683197528123856, -0.11535857617855072, -0.06351690739393234, 0.2958541512489319, -0.3215177655220032, -0.35129645466804504, -0.0018105794442817569, 0.009724375791847706, 0.13914801180362701, 0.01594121754169464, 0.12440930306911469, 0.01862182468175888, -0.02959819883108139], [-0.04499995708465576, -0.057972799986600876, 0.4499901831150055, 0.19705639779567719, -0.0847363993525505, -0.25543248653411865, 0.029797818511724472, -0.037852752953767776, -0.390438437461853, 0.32584789395332336, 0.0467042438685894, -0.5172333121299744, -0.18253909051418304, 0.5867799520492554, 0.09599661827087402, -0.12207450717687607, 0.002785739954560995, 0.08216096460819244, -0.11598630994558334, 0.3374939560890198, 0.1468493789434433, -0.5616140365600586, -0.007033226080238819, 0.05042998865246773, -0.048861321061849594, -0.182773619890213, -0.0006612302386201918, 0.7628462910652161, 0.049674998968839645, 0.03083888627588749, 0.11247846484184265, 0.5710542798042297], [0.08362480252981186, 1.2035480737686157, 0.27086561918258667, -0.1372874677181244, -0.06133037060499191, 0.026960594579577446, 0.006041849032044411, -0.026586143299937248, 0.6925386786460876, 0.3309456408023834, -0.003222655039280653, 0.05735788866877556, 0.023779746145009995, -0.19364117085933685, 0.1514432281255722, -0.06755028665065765, -0.030265875160694122, -0.14485065639019012, 0.2816943824291229, -0.1418890357017517, 0.029157448559999466, -0.31415969133377075, 0.0899379551410675, -0.021001087501645088, -0.001712627476081252, 0.0968686044216156, 0.03239821270108223, -0.16774895787239075, -0.012914856895804405, -0.19087949395179749, -0.033865079283714294, 0.025081558153033257], [0.03701063245534897, -0.036290884017944336, 0.00022062589414417744, -0.02814054861664772, 0.0788356140255928, -0.04163944348692894, -0.040229953825473785, -0.021816173568367958, 0.01071295328438282, 0.0069488706067204475, 0.043688733130693436, 0.02657114528119564, 0.041176266968250275, -0.011502638459205627, -0.04416205734014511, -0.15081456303596497, 7.550698501290753e-05, 0.04075813665986061, 0.05135729908943176, 0.03654785826802254, -0.04019739106297493, -0.005533774383366108, -0.025559796020388603, 0.013325552456080914, -0.031158853322267532, -0.03579467162489891, 0.0236511193215847, 0.02844156324863434, -0.017680997028946877, 0.029417090117931366, -0.05944168567657471, -0.009110732935369015], [-0.014051764272153378, 0.1586037576198578, -0.3429080545902252, 0.37108874320983887, -0.10128556191921234, -0.17706316709518433, 0.12561596930027008, -0.08515678346157074, 0.0010320887668058276, 0.04972578585147858, 0.011218252591788769, 0.2664905786514282, 0.12254069000482559, -0.20311903953552246, 0.11551497131586075, -0.067267045378685, -0.007982161827385426, -0.04018967226147652, 0.1377345621585846, 0.19029027223587036, 0.16868460178375244, 0.025888720527291298, -0.13008077442646027, -0.11230578273534775, 0.10012797266244888, -0.029284320771694183, 0.04333730414509773, -0.1543121486902237, 0.009551992639899254, 0.35903048515319824, 0.0337020643055439, -0.453827440738678], [-0.49194616079330444, -0.046610280871391296, -0.1242503970861435, -0.3196871280670166, -0.05973545461893082, -0.1158330887556076, -0.28694218397140503, 0.5379820466041565, -0.07116400450468063, 0.2198466807603836, -0.03509567305445671, -0.15215197205543518, 0.6278187036514282, -0.09061893075704575, 0.017634669318795204, 0.07684925943613052, -0.022758765146136284, 0.10020174831151962, -0.06041812151670456, -0.3983227610588074, 0.05343078821897507, -0.3247333765029907, -0.2618289291858673, 0.2691427171230316, -0.34211602807044983, -0.056226830929517746, -0.047087348997592926, -0.184989333152771, -0.005012616980820894, 0.6323316693305969, 0.02738899365067482, 0.11124294996261597], [0.1265701800584793, 0.17810788750648499, 0.2350470870733261, 0.730600118637085, -0.0002455523645039648, 0.02587316185235977, -0.5062094330787659, -0.029722511768341064, -0.6832166910171509, 0.0384586937725544, 0.005008983891457319, 0.2440241575241089, -0.27524054050445557, 0.5613635778427124, 0.09639301151037216, 0.31383129954338074, 0.05644760653376579, -0.30194324254989624, 0.16709020733833313, -0.6683047413825989, 0.07822983711957932, 0.40748143196105957, 0.0891854390501976, 0.13043856620788574, 0.15128329396247864, -0.09289950877428055, 0.14529696106910706, 0.09411944448947906, 0.022488975897431374, 0.8132068514823914, 0.019831333309412003, 0.07133591175079346], [-0.021339107304811478, -0.08130781352519989, 0.3120400905609131, -0.07706054300069809, 0.006257552187889814, -0.02226698026061058, 0.3741607666015625, 0.3289724290370941, 0.009719165973365307, -0.26564550399780273, -0.055337995290756226, 0.15011338889598846, 0.3107791244983673, 0.35666972398757935, 0.7942073345184326, -0.0007879823679104447, -0.05342772603034973, -0.39802446961402893, -0.21115756034851074, 0.5116912126541138, 0.0033048491459339857, 0.5283111333847046, 0.05612678453326225, 0.10934896022081375, -0.26901522278785706, 0.05630943551659584, 0.01463619340211153, -0.24155087769031525, -0.002073800191283226, -0.1344774067401886, -0.03334476426243782, 0.11032284051179886], [-0.03343275189399719, -0.6621630191802979, -0.1734449714422226, 0.08956719189882278, 0.12616372108459473, -0.08528301119804382, 0.668172299861908, 0.11970952898263931, 0.17418350279331207, -0.31864479184150696, 0.03401351347565651, 0.01593775302171707, -0.034109387546777725, 0.009568531066179276, -0.12926779687404633, -0.28579896688461304, 0.03592133894562721, -0.2511580288410187, 0.22463281452655792, 0.03334072232246399, -0.02305874601006508, -1.0165807008743286, -0.09754525125026703, 0.1991719752550125, 0.012706209905445576, -0.5341313481330872, 0.02724243886768818, -0.1366424709558487, -0.03963092714548111, 0.08535337448120117, -0.12162449955940247, -0.3762165606021881], [0.006569643039256334, 0.11071810871362686, -0.07198388874530792, 0.009621601551771164, 0.04075860604643822, 0.07596432417631149, 0.07424993067979813, -0.05462435260415077, -0.05343533307313919, 0.09069114178419113, -0.03846517205238342, -0.09162915498018265, 0.01653887704014778, -0.054458532482385635, 0.03819211944937706, 0.10337364673614502, 0.08849635720252991, -0.07307101041078568, 0.017586803063750267, -0.1362847536802292, -0.11207878589630127, 0.006615357007831335, -0.03782137855887413, -0.00371090741828084, 0.03372438624501228, -0.11556925624608994, -0.009108001366257668, -0.03825955465435982, 0.052338071167469025, 0.06322012096643448, 0.09481394290924072, 0.02258937619626522], [-0.24917875230312347, -0.140838623046875, 0.04589196667075157, -0.43391621112823486, 0.03553549200296402, 0.09403418749570847, -0.04398341104388237, 0.030834384262561798, -0.01911516673862934, 0.15066269040107727, 0.024765966460108757, -0.13599863648414612, -0.3096461296081543, 0.19083663821220398, 0.6408917903900146, 0.10246413946151733, 0.02965533174574375, 0.295470654964447, 0.11215565353631973, -0.12450000643730164, 0.17849941551685333, 0.03912881016731262, 0.4239146411418915, 0.35634496808052063, -0.13111460208892822, 0.17749778926372528, -0.23065145313739777, -0.3046182096004486, -0.055022936314344406, 0.09383587539196014, -0.12640292942523956, -0.4061037302017212], [0.002883576788008213, 1.0674339532852173, -0.532512366771698, 0.09294621646404266, 0.03942219167947769, 0.0371980145573616, -0.7376360297203064, -0.15550918877124786, -1.1019755601882935, -0.34579718112945557, 0.005233395379036665, 0.6018276214599609, 0.09235202521085739, 0.06582151353359222, -0.16556134819984436, -0.13791827857494354, 0.01748005300760269, 0.12421917915344238, -0.056906893849372864, 0.07024231553077698, 0.08628511428833008, -0.8957735896110535, 0.2555331587791443, -0.04454286769032478, -0.07627813518047333, -0.31779590249061584, 2.144460439682007, -0.49625152349472046, -0.04624592885375023, 0.22567833960056305, -0.02833741530776024, -0.5226374864578247], [-0.009266012348234653, 0.06748411804437637, -0.11477873474359512, -0.023593375459313393, 0.04650804400444031, 0.118122898042202, -0.08187375962734222, 0.037579070776700974, 0.843744695186615, 0.5684947371482849, -0.06669630855321884, -0.36765027046203613, 0.017974676564335823, 0.6574020981788635, -0.04658179730176926, 0.03158482909202576, 0.1840898096561432, -0.19041472673416138, 0.12254668027162552, -0.07559823244810104, -0.11337827891111374, -0.06918342411518097, 0.07282189279794693, 0.1886225789785385, 0.11950820684432983, 0.4012402296066284, -0.43908587098121643, 0.2980375587940216, 0.04452725872397423, -0.8950389623641968, 0.10750450193881989, -0.17078323662281036], [-0.10798797756433487, 0.07797147333621979, -0.09770892560482025, -0.0444941408932209, 0.4740481674671173, 0.16987575590610504, 0.019784364849328995, -0.009195583872497082, 0.08936819434165955, 0.06696107238531113, 0.006140000186860561, -0.06464023143053055, 0.02728426642715931, -0.049068473279476166, 0.13895395398139954, -0.198677659034729, 0.15254215896129608, -0.028841063380241394, -0.06686055660247803, -0.34414076805114746, 0.5053896903991699, -0.08568108826875687, 0.01948009990155697, -0.050120268017053604, -0.123607337474823, -0.03153883293271065, 0.07226156443357468, -0.18628256022930145, 0.03300881013274193, 0.24556690454483032, -0.005846741143614054, 0.15256480872631073], [0.1748741716146469, 0.2778836786746979, -0.1119275763630867, 0.09993035346269608, 0.022323407232761383, 0.12308146059513092, 0.18835404515266418, -0.1414351761341095, 0.18133321404457092, 0.3215722143650055, -0.03740045800805092, -0.4723314940929413, 0.12307878583669662, -0.16233231127262115, -0.18418572843074799, -0.00043012906098738313, 0.054301097989082336, 0.0026684110052883625, -0.03742777183651924, -0.07404863834381104, -0.01496661826968193, 0.1263529658317566, -0.04376046732068062, -0.13969296216964722, -0.013822256587445736, 0.10770250111818314, -0.027208276093006134, 1.0252881050109863, 0.019465617835521698, 0.012849494814872742, 0.013035702519118786, -0.09316960722208023], [-0.6927806735038757, -0.050257954746484756, 0.02577676996588707, 0.04058567434549332, -0.0008426972199231386, -0.04122401401400566, 0.059030622243881226, -0.4295661449432373, -0.022926487028598785, 0.0756826400756836, -0.0007020843913778663, 0.09566011279821396, 0.3058536946773529, -0.12590281665325165, -0.010333837009966373, -0.006793815176934004, -0.0364229641854763, -0.2713547348976135, 0.08463295549154282, 0.041162554174661636, 0.02870097942650318, -0.030724508687853813, 0.7231433987617493, -0.5194680690765381, -0.27979397773742676, 0.004392250441014767, 0.02070637233555317, 0.07918684929609299, 0.003849216504022479, -0.1360379457473755, 0.0409708134829998, -0.09499432146549225], [-0.4067528545856476, 0.11587019264698029, 0.1115434542298317, -0.3474014103412628, -0.04121815785765648, -0.17175325751304626, 0.3929847180843353, 0.2793423533439636, -0.1969483196735382, -0.010808390565216541, -0.028187735006213188, 0.03691490739583969, 0.03510803356766701, 0.043638281524181366, -0.3105900287628174, -0.019234411418437958, 0.04682198166847229, 0.3552010953426361, -0.3008090555667877, -0.052234042435884476, -0.1158141940832138, 0.3724939525127411, 0.49424970149993896, 0.422780305147171, 0.7434762120246887, -0.16286572813987732, 0.04905814677476883, -0.1340724229812622, 0.04076924920082092, -0.14600275456905365, 0.0726400762796402, -0.25190576910972595], [-0.04743904620409012, -0.031222689896821976, -0.08763432502746582, 0.6404469609260559, 0.011920621618628502, 0.05520983785390854, -0.08864611387252808, 0.4799516201019287, -0.10509277135133743, 0.1491459310054779, 0.041293609887361526, -0.029301337897777557, 0.3680395483970642, -0.192965567111969, 0.3507457375526428, -0.1462460607290268, -0.024697227403521538, -0.06329889595508575, 0.2800363600254059, 0.15536290407180786, 0.04668719321489334, -0.3318289518356323, 0.30968451499938965, -0.5427108407020569, 0.7006786465644836, -0.03204003721475601, 0.008694744668900967, 0.25664791464805603, -0.012828944250941277, -0.22220507264137268, -0.05384032055735588, -0.06015520915389061], [0.010527446866035461, 0.4085656702518463, 0.10403244942426682, -0.17459626495838165, 0.043149434030056, -0.3247447609901428, -0.022102857008576393, -0.09836500138044357, 0.35637539625167847, 0.07041233777999878, 0.044061172753572464, 0.27723607420921326, 0.0263950377702713, -0.028095629066228867, 0.018584586679935455, 0.5749223828315735, 0.037516772747039795, -0.16153816878795624, 0.2988278269767761, -0.15488757193088531, 0.23295435309410095, -0.13303515315055847, 0.06329209357500076, 0.027739830315113068, -0.018211115151643753, 0.17844295501708984, -0.11505184322595596, -0.11109839379787445, -0.011265913024544716, -0.243644118309021, 0.011253605596721172, 0.367740273475647], [-0.059770479798316956, -3.4890987873077393, 0.00798510666936636, 0.10560674965381622, 0.10697031021118164, 0.039807308465242386, 0.3829703629016876, 0.00640334514901042, 0.1628124862909317, 0.5112717151641846, 0.008032568730413914, 0.04289146140217781, -0.06683658063411713, -0.08349835872650146, -0.03326941654086113, 1.5230189561843872, 0.012774054892361164, 0.2120465189218521, -0.1846480816602707, -0.4298356771469116, -0.13195361196994781, 0.5573649406433105, -0.2115519642829895, -0.0698247030377388, 0.04120853543281555, -0.2764841914176941, 1.561100721359253, 0.4067796468734741, -0.014251969754695892, -0.041219938546419144, -0.024685721844434738, 0.1107834130525589], [-0.030635470524430275, 0.3522801995277405, -1.4161323308944702, 0.1366012841463089, 0.06405212730169296, 0.08688988536596298, -0.1315460503101349, 0.03945760801434517, -2.412252187728882, 0.14744940400123596, -0.008601312525570393, -0.17448297142982483, 0.018335100263357162, 0.6056471467018127, -0.2621188163757324, -0.4991276264190674, 0.023979999125003815, 0.16460028290748596, -0.05908812955021858, 1.0901639461517334, 0.08981094509363174, -0.07640993595123291, 0.047739483416080475, -0.14927102625370026, 0.07497233152389526, -0.648209273815155, -0.7929688692092896, 0.2529982030391693, -0.030435217544436455, 0.5708911418914795, -0.01045649591833353, -0.45082151889801025], [-0.0010114460019394755, 0.056364987045526505, -0.022991765290498734, 0.039870090782642365, -0.021075226366519928, 0.03828682005405426, 0.05196814239025116, -0.0007266161264851689, -0.0216513704508543, 0.05334360525012016, -0.027026237919926643, -0.06953118741512299, 0.0286888275295496, 0.001613609492778778, -0.04711969941854477, 0.10225407034158707, 0.03500286862254143, -0.03835700452327728, -0.09005263447761536, 0.04845356196165085, 0.0006085041677579284, -0.019188042730093002, -0.0034757417161017656, 0.012425492517650127, 0.03675345331430435, 0.007771444506943226, 0.001837083837017417, 0.005678022745996714, 0.04019272327423096, 0.0009769870666787028, 0.08747006207704544, -0.010696044191718102], [-0.05559969320893288, -0.17521339654922485, 0.20303669571876526, 0.371621310710907, 0.10945308953523636, -0.02239595353603363, -0.734204113483429, 0.04629340395331383, 0.8961777687072754, 0.2451656460762024, 0.014607584103941917, -0.6650393605232239, -0.08249157667160034, -0.06108918786048889, -0.577183187007904, -0.16498856246471405, -0.011329290457069874, -0.3391898274421692, 0.424004465341568, 0.556969404220581, -0.14737333357334137, -0.6472283005714417, 0.14833778142929077, -0.005845700856298208, 0.5479178428649902, 0.2859109938144684, -0.19801215827465057, 0.141621932387352, -0.056558914482593536, 0.18582101166248322, -0.11227519065141678, -0.20753785967826843], [-0.03470856323838234, 0.08189091086387634, -0.04540520906448364, 0.038932524621486664, 0.017503101378679276, -0.022269627079367638, 0.05092295631766319, 0.03285497426986694, 0.06165951117873192, 0.06067785620689392, -0.05875541269779205, -0.11648553609848022, 0.029009375721216202, -0.049936044961214066, -0.058637287467718124, 0.20883935689926147, 0.09349595010280609, -0.04051405191421509, -0.14986568689346313, -0.011090259067714214, -0.0011361530050635338, -0.05952496454119682, -0.002679823199287057, 0.017799559980630875, 0.07693061977624893, 0.009749596938490868, 0.007700207177549601, 0.015689808875322342, 0.08376196771860123, 0.03777862712740898, 0.15864770114421844, 0.02283398248255253], [-0.046369682997465134, 0.09694446623325348, -0.13196584582328796, 0.7275352478027344, 0.018968209624290466, 0.08062495291233063, -0.32055291533470154, -0.10646557062864304, 0.08764795958995819, -0.4148973822593689, 0.05278581753373146, 0.13802899420261383, -0.09278719872236252, 0.4357181191444397, -0.2852763533592224, -0.014270177111029625, -0.0356626957654953, 0.059916310012340546, 0.13477815687656403, 0.4770967364311218, -0.1828906536102295, -0.1566353738307953, 0.2704671621322632, -0.04292086884379387, 0.37201276421546936, 0.10596297681331635, -0.05557158961892128, -0.015182992443442345, -0.037573229521512985, -0.5282146334648132, -0.07344726473093033, 0.8428284525871277], [0.018721701577305794, 0.11730554699897766, 0.017361057922244072, 0.0024621349293738604, -0.0699276402592659, -0.0462997667491436, 0.025544099509716034, -0.014628204517066479, 0.0072776321321725845, 0.11326892673969269, 0.006282459013164043, 0.1580103039741516, 0.055272426456213, -0.04232912138104439, -0.08254531025886536, -0.14397835731506348, -0.012115404941141605, -0.03968360647559166, 0.03555617481470108, -0.0198544692248106, 0.07813417911529541, -0.010170587338507175, 0.08618244528770447, 0.00462633091956377, 0.06507212668657303, 0.08524416387081146, -0.03366807475686073, -0.02025151252746582, -0.002308677649125457, 0.05051155760884285, -0.01794489473104477, 0.034095827490091324], [0.12618903815746307, 0.046074170619249344, -0.18131572008132935, -0.0014688620576635003, 0.0527658611536026, -0.021115008741617203, -0.046367347240448, 0.08513934165239334, -0.1672797054052353, 0.14156469702720642, 0.009104158729314804, 0.3054652810096741, -0.005015630275011063, 0.063943050801754, -0.06478425860404968, 0.01615069806575775, -0.029302796348929405, -0.06965790688991547, 0.06537585705518723, -0.011427621357142925, -0.1364239752292633, 0.09391842782497406, 0.10628368705511093, 0.036217451095581055, -0.04437337815761566, -0.08355706185102463, 0.3298746645450592, -0.010106061585247517, -0.009414092637598515, -0.002520591951906681, -0.021629562601447105, -0.3159272372722626], [-0.04743646830320358, 0.03150889649987221, -0.04991929978132248, 0.09572774916887283, 0.06363731622695923, -0.11892878264188766, 0.26653969287872314, -0.083453468978405, -0.13308991491794586, 0.011923654936254025, 0.008520017378032207, 0.03196131810545921, 0.047344569116830826, 0.17265163362026215, 0.10356020927429199, 0.00440895464271307, 0.06107914447784424, 0.1236838549375534, -0.09210240095853806, -0.026645906269550323, -0.019822897389531136, -0.017632102593779564, -0.08028397709131241, 0.07187477499246597, -0.1121988296508789, 0.03216823935508728, 0.04881088063120842, 2.3924883862491697e-05, 0.03267306461930275, -0.17095138132572174, 0.012728727422654629, 0.020327778533101082], [0.04471943899989128, -0.011281660757958889, 0.025311240926384926, -0.010350357741117477, 0.023067114874720573, -0.006829036399722099, -0.062309522181749344, 0.019106006249785423, -0.03470250591635704, 0.07935383915901184, 0.012786517851054668, 0.09951351583003998, 0.0015815447550266981, 0.12336624413728714, -0.038847666233778, -0.1085813120007515, -0.020560968667268753, 0.07989086210727692, 0.18291079998016357, -0.09191515296697617, 0.008784920908510685, -0.09113481640815735, -0.11492521315813065, 0.028958959504961967, -0.18366265296936035, 0.10003889352083206, 0.19028475880622864, -0.05533813312649727, -0.016687698662281036, 0.058473728597164154, -0.06121300905942917, 0.01694037951529026], [0.003193067852407694, 0.016828592866659164, 0.06788650155067444, 0.011277756653726101, 0.040559686720371246, 0.021101174876093864, -0.042762238532304764, -0.03544619306921959, 0.03429590165615082, 0.019532963633537292, -0.005646116565912962, -0.0035572927445173264, 0.031843822449445724, 0.011032218113541603, -0.11467218399047852, 0.07618403434753418, -0.01324790995568037, -0.024353543296456337, 0.034498102962970734, -0.03635894134640694, -0.007876074872910976, 0.015656398609280586, -0.02707737311720848, 0.013191018253564835, -0.01202872022986412, 0.09114138036966324, -0.02511283941566944, 0.039923518896102905, -0.0027899141423404217, 0.05498170480132103, -0.01136418990790844, 0.046103522181510925], [-0.06314867734909058, -0.07628237456083298, -0.02076561562716961, -0.055830709636211395, 0.0740693137049675, 0.019777832552790642, -0.05422602966427803, -0.02283082716166973, 0.05514504015445709, -0.04940938204526901, -0.005034221801906824, -0.04344435781240463, 0.0004556589119601995, 0.06504365056753159, 0.14476162195205688, 0.05211310833692551, 0.021248826757073402, -0.043417707085609436, -0.1179242730140686, 0.09481260925531387, -0.09517942368984222, 0.01216976623982191, -0.012332411482930183, -0.09395325183868408, -0.0015446125762537122, -0.1588079333305359, -0.05024890974164009, 0.07614656537771225, 5.316827446222305e-05, -0.012989403679966927, 0.025166567414999008, 0.06744486838579178], [-0.06680451333522797, -0.0030306708067655563, 0.04960966855287552, 0.23982387781143188, 0.04859878495335579, 0.043047793209552765, 0.12434245645999908, -0.05116160586476326, -0.28403952717781067, 0.19317582249641418, 3.0175553547451273e-05, 0.3426413834095001, 0.14418916404247284, 0.051324088126420975, -0.008472979068756104, 0.006551024504005909, -0.04217451438307762, 0.06809554994106293, -0.07645339518785477, -0.057337019592523575, -0.033654049038887024, -0.0002823685063049197, -0.0910262018442154, 0.21729867160320282, -0.055714480578899384, 0.45672616362571716, 0.07945074141025543, 0.10753335058689117, -0.0020801390055567026, -0.01009469386190176, -0.061922114342451096, -0.33149561285972595], [0.003383760806173086, -0.0538632869720459, 0.03911846876144409, 0.06166582554578781, -0.09880603104829788, 0.03254315257072449, -0.026102546602487564, -0.11077310889959335, 0.023965302854776382, 0.06816992908716202, 0.002084862906485796, 0.017051849514245987, 0.052537087351083755, -0.08793357759714127, -0.09707961231470108, 0.16354548931121826, -0.03898792713880539, 0.051318999379873276, 0.03560434281826019, -0.023262495175004005, -0.024288875982165337, -0.010616080835461617, 0.004577539395540953, 0.0443713553249836, 0.03884453326463699, 0.2497555911540985, 0.019932396709918976, -0.07554913312196732, -0.0069055017083883286, 0.013088507577776909, -0.013768495991826057, -0.019640784710645676], [-0.025459857657551765, -0.19674140214920044, 0.06180309131741524, 0.04558641463518143, 0.005673687439411879, -0.006497207097709179, 0.09158971905708313, -0.02073904685676098, -0.07505932450294495, 0.003954555373638868, 0.005919263232499361, -0.09426095336675644, 0.02110091596841812, -0.0005143388989381492, 0.018092753365635872, 0.10033294558525085, -0.02962307818233967, 0.04492422193288803, -0.08197935670614243, -0.07356630265712738, -0.020020505413413048, 0.023426342755556107, 0.006681936793029308, -0.006534171290695667, -0.029896585270762444, 0.12566758692264557, 0.001028026337735355, 0.0354166179895401, -0.01970137655735016, 0.05426286160945892, -0.048207201063632965, -0.00634261267259717], [0.1089257001876831, -0.013736629858613014, -0.06407612562179565, -0.02948555164039135, 0.06580865383148193, -0.07643284648656845, -0.1268923431634903, 0.07537293434143066, -0.26537612080574036, 0.041047777980566025, -0.09088759124279022, 0.07486354559659958, 0.023728715255856514, 0.22654753923416138, 0.10733895748853683, 0.3908468186855316, 0.07119938731193542, 0.2780202031135559, 0.11063976585865021, -0.13381701707839966, -0.16098204255104065, -0.0729849636554718, -0.023368865251541138, -0.003405859461054206, 0.10431399196386337, 0.38018664717674255, 0.07661598920822144, -0.1122850775718689, 0.11236623674631119, -0.016275938600301743, 0.200222909450531, -0.018547298386693], [-0.0011395418550819159, 0.0035047652199864388, -0.011186795309185982, -0.002820383058860898, -0.0038094911724328995, 0.003486885456368327, 0.009209624491631985, -0.0012375593651086092, -0.0028538506012409925, 0.04896813631057739, 0.0013364895712584257, 0.01561818178743124, -0.0042243595235049725, 0.0013873318675905466, -0.014839154668152332, 0.02160387672483921, -0.005561822559684515, 0.0002692109264899045, 0.012094414792954922, -0.0026590488851070404, 0.012633265927433968, 0.012667321600019932, 0.02799777314066887, -0.004203409422188997, 0.005936606787145138, 0.017680669203400612, 0.03523338958621025, 0.0021882085129618645, -0.003417489817366004, 0.004537458531558514, -0.0070037455298006535, -0.0019006978254765272], [-0.12402810901403427, 0.10834481567144394, -0.08779033273458481, 0.031109819188714027, -0.043206218630075455, -0.06929060816764832, 0.030157960951328278, 0.004383681807667017, -0.004192698281258345, -0.11311522871255875, 0.0017287152586504817, -0.567930281162262, -0.10105857998132706, -0.08986169099807739, -0.14904755353927612, -0.29480740427970886, -0.025065425783395767, 0.06718285381793976, -0.10116701573133469, 0.21527457237243652, 0.08031881600618362, 0.2396339774131775, 0.1442684680223465, -0.04353535175323486, -0.005382307339459658, 0.1379731148481369, 0.3472137749195099, -0.09117384254932404, -0.02977072447538376, -0.33987054228782654, -0.05282215774059296, 0.31865382194519043], [0.10201136767864227, 0.09868555516004562, -0.008830560371279716, 0.07292544841766357, 0.11539880186319351, -0.009255231358110905, -0.026457205414772034, 0.11145325750112534, 0.039372120052576065, -0.002227707067504525, -0.0039972830563783646, 0.060607437044382095, 0.06684987246990204, -0.08476138114929199, -0.013715935871005058, -0.0214580986648798, 0.026139890775084496, -0.027779681608080864, -0.0004284932801965624, 0.012238185852766037, 0.029534175992012024, 0.0012981481850147247, 0.042391855269670486, 0.1291591227054596, 0.02770909108221531, 0.10847321152687073, 0.006461026147007942, -0.06238105520606041, 0.02856210432946682, -0.02102845534682274, 0.06347362697124481, 0.003472712356597185], [-0.001505377353169024, -0.11039804667234421, 0.07004207372665405, -0.007126768119633198, -0.018046380952000618, 0.02448974922299385, 0.07265493273735046, -0.0014690683456137776, -0.1620175838470459, 0.006362660322338343, 0.003332918044179678, 0.02457008697092533, -0.031721942126750946, -0.23889580368995667, -0.10255328565835953, 0.01826607622206211, -0.031193722039461136, -0.08016102015972137, -0.026701539754867554, -0.17900943756103516, 0.019864162430167198, -0.038470759987831116, 0.017661677673459053, 0.01957375928759575, 0.01140928827226162, 0.21470387279987335, 0.23295380175113678, 0.033878106623888016, 0.00390934944152832, -0.08647375553846359, -0.019644908607006073, -0.039238836616277695], [0.09728686511516571, -0.035791944712400436, 0.008856912143528461, 0.041102081537246704, 0.10054961591959, 0.12720435857772827, -0.21753334999084473, 0.019302988424897194, -0.0769871175289154, 0.10882773995399475, 0.027308005839586258, 0.14895574748516083, -0.007391263730823994, 0.11747974157333374, -0.16559581458568573, -0.03700822964310646, -0.02923406846821308, -0.04519055038690567, 0.02838626317679882, -0.14009061455726624, 0.05216542258858681, -0.011060048826038837, 0.0233144611120224, -0.014161297120153904, 0.002118593780323863, 0.06755319982767105, 0.1696426421403885, 0.04380825534462929, -0.02127913571894169, 0.1229974776506424, -0.04886497184634209, 0.013416132889688015], [0.002280305838212371, 0.05715014412999153, -0.09130904078483582, 0.03730391338467598, -0.03938336670398712, 0.0266087856143713, 0.05873292312026024, -0.0404282808303833, -0.058560892939567566, 0.217837855219841, 0.026665914803743362, 0.12580826878547668, 0.03349272161722183, -0.01143090333789587, -0.0456099659204483, 0.03581828624010086, -0.06736233085393906, -0.006761382333934307, 0.1431400328874588, 0.023955916985869408, 0.08462438732385635, 0.12083227187395096, -0.004428124520927668, 0.0428013913333416, -0.022989677265286446, 0.012798615731298923, 0.132460817694664, 0.032891903072595596, -0.04465728625655174, -0.007839112542569637, -0.12113621830940247, -0.15490198135375977], [-0.003661838825792074, 0.051602572202682495, 0.003329701954498887, 0.0073241121135652065, -0.028961308300495148, 0.007943633943796158, 0.026380762457847595, -0.0016979763749986887, -0.013869724236428738, 0.04755387455224991, 0.003501354483887553, 0.022601446136832237, 0.02588607557117939, -0.024073312059044838, -0.025905178859829903, -0.024286320433020592, -0.010913528501987457, -0.014101114124059677, 0.011190471239387989, 0.002010293770581484, 0.05780917778611183, 0.012765424326062202, 0.018425915390253067, -0.005415685474872589, 0.006520207971334457, 0.008380912244319916, -0.021697917953133583, 0.004789897706359625, -0.005947242025285959, 0.01133801881223917, -0.014788011088967323, -0.008982466533780098], [0.04080107808113098, 0.019637316465377808, -0.017598645761609077, 0.013115637004375458, 0.00012677301128860563, 0.009485975839197636, 0.02220415323972702, 0.05707533285021782, 0.010126462206244469, -0.0062744575552642345, -0.033016834408044815, 0.14496208727359772, -0.03453932702541351, 0.11874479800462723, -0.0049637844786047935, 0.045374613255262375, -0.011631155386567116, 0.17214538156986237, -0.03655516728758812, -0.04940798878669739, -0.11935747414827347, 0.049607496708631516, 0.12703342735767365, 0.06302749365568161, -0.06205997243523598, 0.14921338856220245, 0.021515825763344765, -0.014837963506579399, 0.0076499562710523605, 0.043460067361593246, 0.043601542711257935, -0.03729068487882614], [0.21395014226436615, -0.033466849476099014, 0.06888684630393982, -0.10904614627361298, -0.012215604074299335, 0.11999259144067764, -0.2395395040512085, 0.13493505120277405, 0.4218331277370453, 0.35982272028923035, -4.0177154005505145e-05, 0.1616872102022171, 0.22622695565223694, -0.2652668058872223, -0.37046146392822266, 0.29969558119773865, -0.019891435280442238, -0.39967286586761475, 0.5278534889221191, -0.032623421400785446, 0.09434273093938828, 0.38177308440208435, -0.12666134536266327, -0.04552667960524559, 0.2990424633026123, 0.5704711675643921, 0.15837804973125458, -0.5391678810119629, 0.021880369633436203, 0.1721217781305313, 0.04066719487309456, 0.08153251558542252], [0.00990279484540224, -0.07890040427446365, -0.11389391869306564, 0.0150251854211092, -0.040277719497680664, -0.01024289708584547, 0.07947473973035812, 0.0011868354631587863, -0.05034772306680679, 0.04559789597988129, 0.006801311857998371, -0.05092630162835121, 0.0007851055124774575, -0.0893867090344429, 0.010073111392557621, 0.0870666354894638, -0.01954147033393383, 0.043109230697155, -0.04118013381958008, -0.10372556746006012, 0.061637114733457565, 0.025114169344305992, 0.03162461519241333, 0.0723717138171196, -0.014891808852553368, -0.030540870502591133, -0.025052590295672417, 0.06720913201570511, -0.011665569618344307, 0.012075860984623432, -0.029792973771691322, 0.006612478289753199], [0.011902873404324055, 0.06621862202882767, -0.011191378347575665, -0.0023977127857506275, -0.06595313549041748, -0.019225193187594414, 0.07480678707361221, 0.03202402591705322, 0.039148297160863876, 0.10061729699373245, -0.0052648806013166904, 0.0688367560505867, 0.021821219474077225, -0.10716559737920761, -0.011532774195075035, -0.031133068725466728, -0.04612411558628082, 0.00227568787522614, 0.13724838197231293, -0.003470906289294362, 0.07437867671251297, 0.056124549359083176, -0.03381454572081566, 0.09199577569961548, 0.04457438737154007, 0.20650207996368408, 0.008700747974216938, -0.05068789795041084, -0.009486439637839794, 0.03121265210211277, -0.01987193152308464, 0.014870204031467438], [0.08576708287000656, 0.0032190456986427307, -0.05946870520710945, 0.20763900876045227, -0.08115658164024353, 0.0525733083486557, -0.19940118491649628, 0.10026926547288895, -0.27066317200660706, -0.031091099604964256, -0.013044868595898151, 0.09523653984069824, -0.06652679294347763, 0.10727608948945999, -0.008935297839343548, 0.028717974200844765, -0.009755708277225494, 0.15890343487262726, -0.22005558013916016, -0.0755644366145134, -0.12250392884016037, -0.06355877965688705, -0.03280813619494438, 0.07047504186630249, 0.033833447843790054, 0.343911737203598, 0.04130861908197403, 0.04234758019447327, 0.017598630860447884, 0.02129671722650528, 0.04944300279021263, 0.1702239215373993], [0.005333308130502701, -0.027558917179703712, -0.09017964452505112, -0.03374426066875458, -0.049508120864629745, -0.011412452906370163, -0.03198195993900299, 0.04277551919221878, -0.02820112369954586, -0.04799363762140274, -0.0018981846515089273, 0.07308299094438553, 0.005989097524434328, 0.16097484529018402, -0.006254447158426046, 0.04642739146947861, -0.003026727121323347, -0.010350637137889862, 0.011602588929235935, 0.013984068296849728, -0.02160065993666649, 0.016751689836382866, 0.048932451754808426, -0.059268515557050705, 0.014001777395606041, 0.023046694695949554, -0.07060150802135468, 0.018810080364346504, -0.019489645957946777, -0.04532156139612198, -0.04693060740828514, -0.061854783445596695], [0.09781111776828766, -0.10200058668851852, -0.005701940972357988, -0.05827904865145683, 0.06538912653923035, 0.003441431326791644, 0.025112979114055634, 0.033464305102825165, -0.08216049522161484, 0.11318819969892502, 0.01550651341676712, 0.09080000221729279, 0.014562137424945831, -0.04883476346731186, 0.011206701397895813, 0.023892678320407867, -0.05136650800704956, 0.019761770963668823, 0.033285338431596756, 0.06607561558485031, -0.16703708469867706, 0.017208285629749298, 0.06721470504999161, 0.06592085212469101, -0.006910732015967369, 0.09823931008577347, 0.03714140132069588, -0.0013260015984997153, -0.019588837400078773, 0.0351710245013237, -0.016679562628269196, -0.0007573236944153905], [0.10517954081296921, -0.06878261268138885, 0.04964340850710869, 0.06955984979867935, 0.1880078762769699, -0.1050625741481781, -0.040235552936792374, -0.05307963117957115, 0.03196832537651062, 0.10606072843074799, 0.007423715200275183, 0.03281868249177933, 0.03657912090420723, -0.03623146563768387, -0.025147052481770515, -0.07658366858959198, 0.028053810819983482, 0.005006758030503988, -0.02643853984773159, 0.04241848364472389, -0.030261998996138573, 0.10802090167999268, 0.030653342604637146, 0.09002336114645004, 0.014216182753443718, -0.01748468168079853, -0.05640348419547081, 0.11861074715852737, 0.008343787863850594, 0.0032279263250529766, 0.030081750825047493, -0.01144951768219471], [-0.10545865446329117, 0.5179256200790405, 0.06996959447860718, 0.05628342181444168, -0.09184969216585159, -0.03528541699051857, 0.18399176001548767, 0.06915482133626938, 0.4098382592201233, 0.24756401777267456, -0.010421684943139553, -0.004896054044365883, -0.12423767894506454, -0.2934543490409851, 0.02885393425822258, 0.19363082945346832, -0.03199222311377525, 0.06061771512031555, 0.2360130101442337, -0.01738210767507553, 0.07053229957818985, 0.2077408730983734, 0.08755777031183243, -0.1643887311220169, 0.15058556199073792, 0.5006351470947266, -0.043128397315740585, -0.06987851858139038, -0.015893854200839996, -0.10551396757364273, -0.032391633838415146, 0.16663356125354767], [0.2913152575492859, -0.5582646727561951, 0.12788967788219452, 0.009100244380533695, -0.1261821836233139, 0.012842834927141666, -0.5827213525772095, -0.0960053950548172, 0.19542230665683746, -0.11581581085920334, 0.05126918852329254, -0.13831906020641327, 0.07367867976427078, 0.1564110666513443, 0.020161394029855728, 0.24274283647537231, 0.03455572575330734, -0.2130727469921112, -1.0822914838790894, -0.03305188566446304, 0.05636529251933098, 0.4788104295730591, -0.121402807533741, -0.03315134719014168, -0.08382221311330795, -1.004572868347168, -0.3297961354255676, 0.28579726815223694, -0.027086995542049408, -0.14686524868011475, -0.030028726905584335, -0.13007354736328125], [-0.05120021104812622, 0.130651593208313, -0.1353493481874466, -0.024799931794404984, -0.11099252104759216, -0.05014242231845856, 0.06328826397657394, 0.03486970439553261, -0.07641469687223434, -0.14237795770168304, 0.001775817247107625, -0.05826226994395256, -0.012491706758737564, -0.01009868923574686, 0.09597860276699066, -0.20336692035198212, 0.007645942270755768, 0.07213651388883591, -0.03261528164148331, -0.09865004569292068, -0.025697221979498863, -0.0011352234287187457, 0.009860926307737827, -0.020744655281305313, 0.035475414246320724, -0.12277604639530182, -0.1607847809791565, 0.05539719760417938, -0.009969816543161869, -0.042089372873306274, -0.017408080399036407, 0.04915129020810127], [0.004506336525082588, -0.02204185165464878, -0.004936866462230682, -0.0031737626995891333, -0.011657160706818104, 0.0034196367487311363, 0.0014242143370211124, -0.0003356508968863636, -0.0018109631491824985, 0.04696851223707199, 0.0034855608828365803, 0.018971163779497147, -0.0016911294078454375, -0.004952594637870789, -0.003249031025916338, 0.01535692997276783, -0.008334727957844734, -0.004565857350826263, 0.0049021244049072266, -0.008070054464042187, 0.0066666314378380775, 0.02473812736570835, 0.010258408263325691, -0.015252162702381611, 0.00022037744929548353, -0.00586838461458683, 0.020677682012319565, 0.011978286318480968, -0.006806785706430674, 0.003808408509939909, -0.01264183595776558, -0.0075835431925952435], [0.015873342752456665, -0.12292149662971497, 0.06848093867301941, 0.032752688974142075, -0.03784459829330444, -0.010856123641133308, 0.11025844514369965, 0.10111405700445175, -0.11522302776575089, -0.03957400470972061, -0.014500736258924007, 0.09827647358179092, -0.05447863042354584, 0.17007958889007568, 0.10879187285900116, 0.13679909706115723, -0.033406730741262436, 0.05541526526212692, -0.12585581839084625, -0.09402292221784592, -0.06502086669206619, -0.14063483476638794, -0.06133817508816719, -0.028970886021852493, 0.0156335961073637, 0.3805710971355438, 0.18713100254535675, -0.12288737297058105, -0.009775406681001186, -0.00048720926861278713, -0.028047101572155952, 0.21945720911026], [0.009135430678725243, -0.1124013215303421, -0.036268919706344604, -0.023770611733198166, -0.06865342706441879, 0.008864818140864372, 0.002417228417471051, -0.01589301973581314, -0.04582628235220909, 0.11253145337104797, 0.012737760320305824, 0.058580268174409866, -0.008910105563700199, 0.005365729797631502, 0.005355665925890207, -6.0578935517696664e-05, -0.03268064558506012, 0.009225531481206417, 0.030769461765885353, -0.03243057057261467, 0.03264188766479492, 0.08387727290391922, 0.02007627673447132, -0.05384913086891174, -0.0009426504839211702, -0.042555514723062515, 0.06763926893472672, 0.01776672899723053, -0.024170730262994766, 0.009180212393403053, -0.054635241627693176, -0.02144145965576172], [-0.1421651691198349, -0.027027346193790436, 0.012961814180016518, 0.006869206205010414, -0.06185222789645195, 0.01862279325723648, 0.14778247475624084, -0.038178760558366776, -0.03470461443066597, 0.10037288069725037, -0.011740170419216156, 0.1609005182981491, -0.0398566797375679, 0.005241886246949434, 0.2746425271034241, 0.004082693252712488, -0.010027915239334106, 0.050903357565402985, -0.1939879059791565, 0.12810195982456207, -0.0473928339779377, -0.1439541131258011, -0.21236170828342438, 0.0071643623523414135, -0.06371434777975082, 0.030611004680395126, 0.04183454439043999, 0.031782470643520355, 0.026261821389198303, 0.05430297181010246, 0.04480725899338722, -0.10293619334697723]], "rec.bias_ih_l0": [-1.3073357343673706, 0.12881262600421906, -0.6299940347671509, -0.6720889806747437, 0.07803963869810104, 0.05916483327746391, -2.76229190826416, -0.7755246758460999, 0.6957927942276001, -2.2812845706939697, 0.045211661607027054, 0.20261408388614655, -0.9361416101455688, -0.8734203577041626, -0.20396554470062256, 0.4224643111228943, 0.08097425103187561, -0.5935733318328857, -1.8661613464355469, 0.542102575302124, -0.030939185991883278, -1.9327967166900635, -0.8890339732170105, -0.682951033115387, -0.49960291385650635, -0.39588215947151184, 0.6094394326210022, -2.892957925796509, 0.03771832585334778, -0.06089042127132416, 0.0999588742852211, -1.5834523439407349, 1.536064863204956, 0.06780122965574265, 1.0753575563430786, 1.338683009147644, 0.5364704132080078, 0.29129287600517273, 2.300442934036255, 1.066556692123413, 0.03613714501261711, 2.625286817550659, 0.04112310707569122, 0.7636187672615051, 1.1798362731933594, 0.8358481526374817, 0.8742086887359619, 0.03593376651406288, 0.08137164264917374, 0.7554522156715393, 2.938112258911133, -0.057025931775569916, 0.5071971416473389, 1.6283020973205566, 1.2409306764602661, 0.9094467163085938, 0.8833000659942627, 0.29752403497695923, 0.24691757559776306, 2.8120877742767334, 0.03817547857761383, 0.8397225141525269, 0.14390583336353302, 1.9122443199157715, -0.03723987936973572, 0.08442231267690659, -0.02273416519165039, 0.0395781435072422, 0.02109283208847046, 0.015434692613780499, -0.026372969150543213, -0.008654134348034859, -0.1352331042289734, 0.054728779941797256, 0.010537241585552692, -0.007832095958292484, -0.008051468059420586, 0.02265849895775318, -0.012357956729829311, 0.07426918298006058, -0.019554078578948975, 0.018933549523353577, -0.14967121183872223, -0.028044508770108223, -0.009140932001173496, 0.0026864982210099697, -0.001207329798489809, -0.017978934571146965, 0.001549755223095417, -0.0581880547106266, -0.06666208803653717, 0.02100909687578678, -0.02079084701836109, 0.009213890880346298, -0.0332513190805912, 0.04257236421108246, 0.056476619094610214, 0.23756085336208344, -0.2617201507091522, 0.27381497621536255, 0.16315828263759613, 0.06310562789440155, 0.052718739956617355, 0.14177414774894714, 0.9494562745094299, 0.02094936929643154, 0.04589921608567238, -0.3020334243774414, -0.00039032261702232063, -0.23066017031669617, 0.08715908229351044, 0.529452383518219, 0.08030910789966583, 0.03329173102974892, -0.8690548539161682, 0.6296775937080383, 0.1486063003540039, 0.2999410629272461, 0.13825549185276031, 0.10896244645118713, 0.16917701065540314, -0.031068481504917145, -0.7652088403701782, 0.46098244190216064, 0.037643853574991226, 0.36790719628334045, 0.09902679175138474, 0.2570955753326416], "rec.bias_hh_l0": [-1.3073357343673706, 0.12881262600421906, -0.6299940347671509, -0.6720889806747437, 0.07803963869810104, 0.05916483327746391, -2.76229190826416, -0.7755246758460999, 0.6957927942276001, -2.2812845706939697, 0.045211661607027054, 0.20261408388614655, -0.9361416101455688, -0.8734203577041626, -0.20396554470062256, 0.4224643111228943, 0.08097425103187561, -0.5935733318328857, -1.8661613464355469, 0.542102575302124, -0.030939185991883278, -1.9327967166900635, -0.8890339732170105, -0.682951033115387, -0.49960291385650635, -0.39588215947151184, 0.6094394326210022, -2.892957925796509, 0.03771832585334778, -0.06089042127132416, 0.0999588742852211, -1.5834523439407349, 1.536064863204956, 0.06780122965574265, 1.0753575563430786, 1.338683009147644, 0.5364704132080078, 0.29129287600517273, 2.300442934036255, 1.066556692123413, 0.03613714501261711, 2.625286817550659, 0.04112310707569122, 0.7636187672615051, 1.1798362731933594, 0.8358481526374817, 0.8742086887359619, 0.03593376651406288, 0.08137164264917374, 0.7554522156715393, 2.938112258911133, -0.057025931775569916, 0.5071971416473389, 1.6283020973205566, 1.2409306764602661, 0.9094467163085938, 0.8833000659942627, 0.29752403497695923, 0.24691757559776306, 2.8120877742767334, 0.03817547857761383, 0.8397225141525269, 0.14390583336353302, 1.9122443199157715, -0.04911830276250839, 0.08442231267690659, -0.02273416519165039, 0.046566739678382874, 0.02109283208847046, 0.015434692613780499, -0.026372969150543213, -0.008654134348034859, -0.1352331042289734, 0.054728779941797256, 0.010537241585552692, -0.007832095958292484, -0.008051468059420586, 0.02265849895775318, -0.012357956729829311, 0.07426918298006058, -0.019554078578948975, 0.01893514022231102, -0.14967121183872223, -0.028044508770108223, -0.009140932001173496, 0.0026864982210099697, -0.001207337249070406, -0.017978934571146965, 0.001549755223095417, -0.0581880547106266, -0.06666208058595657, 0.02100909687578678, -0.02079084701836109, 0.009213890880346298, -0.0332513190805912, 0.04257236421108246, 0.056476619094610214, 0.23756085336208344, -0.2617201507091522, 0.27381497621536255, 0.16315828263759613, 0.06310562789440155, 0.052718739956617355, 