{"model_data": {"model": "SimpleRNN", "input_size": 2, "skip": 1, "output_size": 1, "unit_type": "LSTM", "num_layers": 1, "hidden_size": 32, "bias_fl": true}, "state_dict": {"rec.weight_ih_l0": [[0.16113150119781494, -0.3226950168609619], [0.15662185847759247, 1.0924687385559082], [-0.0033049576450139284, 0.02507084421813488], [0.02765720896422863, -0.8210664391517639], [-0.09566964209079742, -0.35640209913253784], [-0.05070359632372856, -0.03352336958050728], [-0.1635269671678543, -0.44962361454963684], [0.041930850595235825, -0.0507083423435688], [0.01664278283715248, 0.2270296812057495], [0.40097421407699585, -0.06048872694373131], [-0.0002323371882084757, 0.0020208428613841534], [0.07286214828491211, 0.08549930155277252], [-0.11145347356796265, -0.3231281340122223], [-0.019086681306362152, 0.4921967089176178], [0.11858386546373367, -0.18228347599506378], [0.050924304872751236, 0.6873317956924438], [-0.02048373967409134, 0.17163166403770447], [-0.19389255344867706, -0.11896057426929474], [-0.2081402987241745, -0.5910516381263733], [-0.06295769661664963, -0.19286273419857025], [-0.0715072900056839, -0.11158586293458939], [0.02635401487350464, -0.4225100576877594], [-0.08587845414876938, -0.471664160490036], [0.022573120892047882, -0.09441833198070526], [-0.008116492070257664, -0.2437027394771576], [-0.3780404329299927, -0.10495393723249435], [0.00988627877086401, 0.9600096940994263], [-0.19114044308662415, -0.8674308657646179], [3.460668449406512e-05, 0.003153632627800107], [-0.007332657463848591, -1.1590211391448975], [0.005566262640058994, 0.04795582592487335], [0.05978685989975929, -1.4208531379699707], [0.056787509471178055, 0.5208935737609863], [-0.16784749925136566, 0.5192696452140808], [-0.06788798421621323, -0.30084875226020813], [-0.05154363811016083, -0.5140075087547302], [-0.002125987084582448, 0.0033834015484899282], [-0.08088928461074829, -0.22040586173534393], [-0.20883290469646454, 1.1111016273498535], [0.061613067984580994, 0.5114343762397766], [0.2561955451965332, -0.08139286935329437], [-0.05553970858454704, 0.37773412466049194], [4.7710450417071115e-06, -0.0015833777142688632], [0.13408182561397552, 0.13275733590126038], [0.027128368616104126, 0.3321281969547272], [0.028862982988357544, 0.4667653739452362], [-0.050346311181783676, -0.25520843267440796], [0.20968496799468994, 0.2935258448123932], [-0.01586814783513546, -0.16138459742069244], [-0.058249786496162415, 0.45140597224235535], [0.18527565896511078, 0.5583544373512268], [-0.22525978088378906, -0.12737564742565155], [0.01791863515973091, 0.2991560399532318], [0.024563150480389595, 1.44075608253479], [0.05339687690138817, 0.4063609838485718], [0.09293805062770844, 0.4461858570575714], [-0.08517950028181076, 0.24229680001735687], [-0.35390737652778625, 0.4009806215763092], [0.1807863414287567, 0.5192981362342834], [0.1381479948759079, 0.8750510811805725], [0.00045442720875144005, 0.0013876105658710003], [-0.06436128914356232, -0.43510934710502625], [-0.017967021092772484, -0.0010463828220963478], [-0.12714122235774994, 0.6366825699806213], [-0.10871212184429169, 0.05402490496635437], [-1.1779853105545044, 0.5172563195228577], [-1.0101057291030884, 0.07178914546966553], [0.1210908442735672, -0.017610495910048485], [-0.0022099281195551157, -0.1253669559955597], [0.1714811623096466, -0.02532046101987362], [1.4600571393966675, -0.014661603607237339], [-0.009670084342360497, -0.01758633181452751], [-1.1556181907653809, 0.149968683719635], [0.26515698432922363, 0.11936807632446289], [0.011734246276319027, 0.00657243886962533], [-0.07734785228967667, 0.7382267713546753], [-0.026082519441843033, 0.05547823756933212], [0.4019225537776947, -0.10944884270429611], [0.016664715483784676, 0.019609341397881508], [-1.6007181406021118, 0.1995665282011032], [0.01435022335499525, -0.04169808700680733], [0.04992428421974182, -0.12416830658912659], [-1.0173031091690063, 0.11806075274944305], [0.9385814070701599, -0.07171926647424698], [0.041495341807603836, 0.053604647517204285], [-0.7750316858291626, -0.15571144223213196], [0.02699981816112995, -0.02485404722392559], [-0.09580257534980774, -0.1715134233236313], [0.019746586680412292, 0.003777978243306279], [-0.5456937551498413, -0.0038662361912429333], [0.05063353106379509, -0.016280673444271088], [-2.0213098526000977, -0.1353224217891693], [-0.037242695689201355, -0.026898911222815514], [0.38886532187461853, 0.22443872690200806], [-0.16363093256950378, -0.03718709573149681], [-0.14025092124938965, -0.000714047928340733], [-0.041664380580186844, 0.10882642865180969], [-0.013427087105810642, 1.7160195112228394], [0.011204857379198074, -0.24542059004306793], [0.0014251898974180222, -0.31937846541404724], [-0.07041796296834946, -0.22201812267303467], [-0.042520977556705475, -0.0331798791885376], [0.06497181206941605, 0.24913854897022247], [-0.06430073827505112, 0.2030402272939682], [0.01196200679987669, 0.4214143753051758], [0.1660667210817337, 0.16000224649906158], [-0.00016279156261589378, 0.002010219031944871], [-0.09486356377601624, -1.8189060688018799], [-0.09380696713924408, -0.05913108214735985], [-0.006616003345698118, 0.6703672409057617], [-0.012711980380117893, -0.010324223898351192], [0.04060206189751625, 0.7534086108207703], [-0.013659205287694931, 0.18784399330615997], [-0.16334238648414612, 0.10174047201871872], [1.0016095638275146, -0.01740034483373165], [-0.07906477898359299, -0.024370750412344933], [-0.14941121637821198, 0.12703512609004974], [0.00028371906955726445, 0.23069246113300323], [-0.1518237292766571, 0.06278931349515915], [0.07204203307628632, 0.15290185809135437], [0.008663123473525047, 0.06130516156554222], [-0.5737152099609375, 0.28897979855537415], [-0.09190040826797485, 0.3528982698917389], [0.10121070593595505, 0.41820070147514343], [0.0010632055345922709, 0.0032244997564703226], [-0.019195957109332085, -0.7966801524162292], [0.006274751387536526, 0.07014293968677521], [0.024333788082003593, -0.2716514468193054]], "rec.weight_hh_l0": [[-0.04381464421749115, -0.11655078828334808, -0.1031656563282013, 0.09284429252147675, -0.03150961548089981, -0.027969952672719955, 0.057111047208309174, -0.08675162494182587, -0.13129198551177979, -0.009575477801263332, -0.0013524075038731098, 0.04647747054696083, 0.10639045387506485, 0.1234351098537445, 0.022503871470689774, 0.11583634465932846, -0.039497748017311096, 0.07784390449523926, -0.032570548355579376, 0.019172655418515205, -0.08741971850395203, -0.06594058126211166, -0.0025212843902409077, 0.08876239508390427, -0.03908305615186691, -0.16599822044372559, 0.06109771877527237, -0.019885540008544922, 0.011907090432941914, -0.06980032473802567, -0.034718699753284454, -0.12709666788578033], [0.09881822019815445, 0.06568948179483414, 0.17428018152713776, 0.09323425590991974, -0.09811244904994965, -0.053882256150245667, 0.0045475345104932785, 0.08067567646503448, -0.14020971953868866, 0.30732735991477966, 0.00067426502937451, 0.4407005310058594, 0.01470966450870037, -0.10196395963430405, -0.1052168607711792, -0.06266137212514877, 0.020334912464022636, -0.031848251819610596, -0.3224221467971802, 0.16980428993701935, -0.334529846906662, -0.07457800209522247, 0.1209201067686081, 0.17454512417316437, -0.12861429154872894, -0.1299438774585724, 0.11840967833995819, 0.06939908862113953, 0.0029873282182961702, 0.015705974772572517, -0.042763128876686096, -0.15119607746601105], [-0.020177017897367477, -0.029863853007555008, -0.1431715488433838, -0.2335745245218277, -0.10058748722076416, 0.015936266630887985, -0.03182961046695709, 0.022972190752625465, -0.014844613149762154, -0.18204405903816223, 0.015348386019468307, 0.19238919019699097, -0.019323337823152542, 0.18372219800949097, 0.032761599868535995, -0.2145056277513504, -0.13144145905971527, -0.003866553772240877, -0.10485243797302246, 0.15568093955516815, 0.1314009726047516, -0.08411049097776413, -0.03464217856526375, -0.053621914237737656, 0.031888026744127274, 0.11508681625127792, -0.12575899064540863, 0.21197131276130676, -0.024330878630280495, -0.11915203183889389, -0.01706049032509327, 0.005306031089276075], [0.057491451501846313, 0.06763497740030289, 0.05615701153874397, -0.03794439136981964, -0.27097946405410767, 0.05677505210042, -0.02062639780342579, -0.1771603226661682, -0.017584864050149918, 0.03551493585109711, -0.0023946217261254787, 0.03179588541388512, -0.06308682262897491, 0.04531709849834442, -0.24596944451332092, -0.11878367513418198, 0.010213200934231281, -0.08581604808568954, 0.18137948215007782, -0.014631122350692749, 0.1586637794971466, -0.06646329164505005, 0.22250792384147644, -0.11349305510520935, 0.019096391275525093, 0.09141356498003006, 0.1367773562669754, 0.05819104239344597, 0.0040549892000854015, 0.16702595353126526, 0.005813770927488804, 0.05521818995475769], [-0.14582334458827972, 0.26004767417907715, -0.04552878439426422, -0.16186511516571045, 0.07072760164737701, -0.13967114686965942, -0.15820257365703583, -0.0036171474494040012, 0.06538700312376022, -0.14871203899383545, 0.003703910391777754, 0.029819855466485023, -0.04929065331816673, 0.11886761337518692, -0.14309421181678772, -0.292236328125, 0.03235182911157608, -0.13012850284576416, 0.14218933880329132, 0.006517170462757349, 0.05356048047542572, -0.05688905715942383, 0.11687073111534119, -0.1511690318584442, -0.09126908332109451, 0.1659967452287674, -0.05810431018471718, 0.09480082988739014, -0.03763052821159363, 0.10840068012475967, -0.10137201100587845, 0.1033119186758995], [-0.0015570364193990827, 0.029431205242872238, -0.046338751912117004, -0.04996383562684059, -0.027628159150481224, 0.02107640728354454, -0.016926243901252747, 0.03381994366645813, -0.0029332898557186127, 0.01268390566110611, -0.0038283858448266983, -0.019748397171497345, -0.01668846607208252, 0.013416830450296402, -0.008825697004795074, 0.09353359788656235, 0.03399971127510071, 0.0198808666318655, 0.014673047699034214, 0.060597702860832214, -0.06645675003528595, 0.026431597769260406, 0.08590416610240936, -0.0965517908334732, -0.018057335168123245, 0.0140647878870368, -0.06742636859416962, 0.00857990887016058, 0.007271753158420324, -0.011407844722270966, 0.033733587712049484, 0.007724220398813486], [0.11072976887226105, 0.0802573710680008, 0.4689904451370239, 0.05299482122063637, 0.19076958298683167, -0.016132837161421776, -0.03243951126933098, 0.2047634869813919, -0.07793810218572617, 0.11270657926797867, -0.010109332390129566, 0.15527600049972534, 0.023041924461722374, -0.08458371460437775, -0.2093595713376999, 0.05216435343027115, 0.1607443243265152, 0.3883936405181885, -0.00594785250723362, 0.023052047938108444, -0.3204360902309418, -0.38488563895225525, 0.2802973687648773, 0.48865628242492676, -0.25523704290390015, 0.28348708152770996, -0.7841252088546753, -0.13406431674957275, -0.022942883893847466, -0.18531322479248047, 0.09884583950042725, 0.16234633326530457], [-0.17576543986797333, 0.06445661187171936, -0.2130114883184433, -0.010885922238230705, -0.020363885909318924, -0.1668386459350586, 0.08013027906417847, 0.0391482412815094, -0.13777609169483185, -0.08711811900138855, 0.010286596603691578, 0.05688810721039772, 0.08313140273094177, 0.18346643447875977, 0.1441856026649475, -0.2618032395839691, 0.010362565517425537, 0.20629753172397614, 0.17946016788482666, -0.22930388152599335, 0.06567709892988205, 0.0381929948925972, 0.21299774944782257, 0.02270924299955368, 0.10006935894489288, 0.1353234052658081, 0.20326992869377136, -0.05849883332848549, -0.04754285886883736, 0.04906278848648071, -0.10478590428829193, -0.05146697536110878], [-0.034325212240219116, -0.08695468306541443, 0.11443309485912323, 0.03423178195953369, -0.05946425721049309, 0.015968047082424164, 0.018958736211061478, -0.009207840077579021, -0.050256479531526566, -0.04277924448251724, -0.0014251051470637321, -0.0062401206232607365, -0.037694163620471954, 0.02143748104572296, 0.0857936218380928, -0.032408080995082855, -0.06014294549822807, 0.13698792457580566, -0.011098399758338928, 0.02747085690498352, -0.0755499005317688, 0.025065407156944275, 0.01708979718387127, 0.046172846108675, 0.03775855526328087, 0.22934648394584656, 0.0023517697118222713, 0.026945078745484352, 0.0035473082680255175, -0.015031852759420872, -0.06014148145914078, -0.001262754201889038], [0.011583523824810982, 0.24815240502357483, 0.2983989715576172, -0.12804262340068817, -0.19353742897510529, 0.043768417090177536, 0.17417438328266144, 0.14652134478092194, -0.2817240357398987, -0.03865464776754379, -0.0032203763257712126, 0.6991502046585083, 0.15819567441940308, 0.12826356291770935, -0.02499922178685665, -0.8602194786071777, -0.1578633189201355, 0.06486716121435165, -0.051794689148664474, -0.379121333360672, 0.416663259267807, -0.3589690923690796, 0.19082890450954437, -0.022478600963950157, 0.07363201677799225, 1.513597846031189, 0.2298910766839981, 0.12685292959213257, -0.05066102743148804, 0.13448311388492584, -0.2415781170129776, 0.05736568570137024], [-0.0004687659675255418, 0.0002466835139784962, -0.0007088440470397472, -0.00027608269010670483, 0.0005050429026596248, 0.0006704193074256182, 0.00032718421425670385, -1.1488617928989697e-05, 0.00015220882778521627, 0.0003990322584286332, -0.0002460798714309931, 0.00038736648275516927, -0.0006430831854231656, 0.0007936816546134651, 0.00031102102366276085, 0.0011164587922394276, 0.00036542461020871997, -0.00010337917046854272, -3.209147325833328e-05, -0.0008871563477441669, 0.001424581976607442, -0.0005418094806373119, 0.0003752729098778218, -0.0006711399182677269, 0.0008894427446648479, 0.00033610608079470694, 5.9150828747078776e-05, -0.0004962882958352566, 0.00037093786522746086, 9.544174645270687e-06, 3.642392766778357e-05, 3.539594035828486e-05], [-0.02336406335234642, -0.12137150019407272, 0.06598666310310364, 0.02412487380206585, 0.020354392006993294, 0.0382242277264595, 0.02491479367017746, -0.01066423300653696, -0.047511495649814606, 0.09784810245037079, 0.0009860688587650657, -0.030107349157333374, -0.012069405987858772, -0.08642691373825073, -0.023674918338656425, -0.021815970540046692, -0.033739231526851654, -0.0004210985207464546, 0.03434741497039795, 0.04403061047196388, -0.057929545640945435, -0.009696903638541698, -0.030832495540380478, -0.027911195531487465, 0.04573708400130272, 0.020226383581757545, -0.14044605195522308, 0.026204684749245644, -0.0025166666600853205, 0.041923630982637405, -0.005363875534385443, 0.02440975233912468], [-0.007310586050152779, 0.19408202171325684, 0.03568722680211067, 0.004350350704044104, 0.04385919123888016, -0.017213495448231697, 0.11906832456588745, -0.011147445999085903, 0.04840288311243057, 0.00475794542580843, -0.001840041484683752, 0.04150662198662758, 0.15801504254341125, 0.02295207604765892, 0.0447438508272171, 0.15663960576057434, -0.02205527573823929, 0.12140218913555145, -0.005195650737732649, 0.07945030927658081, -0.018819691613316536, -0.08645182847976685, -0.11419151723384857, 0.16334332525730133, 0.030293110758066177, 0.2520048916339874, 0.06338570266962051, -0.07936763763427734, 0.02149656042456627, -0.10871193557977676, 0.10656524449586868, 0.04406953230500221], [0.036443158984184265, -0.13658340275287628, 0.23364470899105072, -0.03428259119391441, 0.32281070947647095, 0.10780505836009979, -0.004174711182713509, 0.06490159779787064, -0.09695962816476822, -0.25634390115737915, -0.006234290543943644, 0.3548218607902527, -0.07154913991689682, -0.21892039477825165, 0.04495904967188835, -0.06189959496259689, 0.09829174727201462, 0.022864805534482002, -0.013073562644422054, -0.02158804051578045, -0.02754131704568863, -0.4218593239784241, -0.09642302244901657, 0.1250200718641281, -0.02310825139284134, 0.005652331747114658, -0.5748852491378784, 0.06138310953974724, -0.01255724485963583, -0.23050418496131897, -0.17928104102611542, 0.16687755286693573], [0.10965654999017715, -0.0751023143529892, -0.027572927996516228, 0.0762534961104393, 0.06507982313632965, -0.034981511533260345, 0.008382078260183334, 0.01181536540389061, -0.12970146536827087, 0.04400866851210594, 0.0003749279712792486, 0.057113166898489, -0.04962806776165962, 0.18485328555107117, -0.06567393243312836, -0.1333504319190979, -0.013155064545571804, 0.04217882454395294, 0.12304045259952545, -0.10519883036613464, -0.01737753301858902, -0.012913443148136139, 0.056318290531635284, 0.02992761693894863, -0.019847465679049492, 0.02798260562121868, 0.2539171874523163, -0.11358968168497086, 0.00040059947059489787, 0.039044998586177826, -0.05857158079743385, 0.10188430547714233], [-0.0018680725479498506, -0.015423291362822056, 0.0014671022072434425, 0.003225927008315921, 0.008918965235352516, 0.046738576143980026, 0.027685048058629036, -0.02980632521212101, -0.08805399388074875, 0.17845261096954346, 0.00025180078228004277, 0.057268641889095306, -0.039691660553216934, 0.09289747476577759, 0.040514614433050156, -0.08932186663150787, -0.0016638940433040261, 0.01906602457165718, 0.0032550664618611336, -0.04984746500849724, 0.18293656408786774, 0.03846084699034691, 0.07233981043100357, -0.045501213520765305, 0.04278882220387459, 0.05449848622083664, 0.07581887394189835, 0.008290519937872887, -0.005956321954727173, -0.00013510111602954566, -0.053358044475317, 0.012853671796619892], [0.004332749638706446, 0.07182066887617111, 0.05651656538248062, 0.010594364255666733, 0.0908709242939949, 0.01698988676071167, 0.027375774458050728, 0.03516286611557007, 0.0022415968123823404, 0.1364542841911316, -0.0002832834725268185, 0.053212810307741165, 0.0044141304679214954, -0.02539903298020363, -0.017115280032157898, 0.0003643480013124645, -0.029636653140187263, -0.014118851162493229, -0.04072323441505432, -0.03494848683476448, 0.07603210210800171, -0.008936116471886635, -0.021617630496621132, 0.03975400701165199, 0.03343018516898155, 0.08612383902072906, 0.009332656860351562, -0.0223690178245306, -0.0004958153585903347, -0.014814285561442375, -0.002251744270324707, 0.028226668015122414], [0.025056546553969383, -0.03757964447140694, 0.10539469867944717, -0.066911980509758, -0.10028496384620667, 0.03490885719656944, -0.017360804602503777, -0.16675765812397003, 0.04385630413889885, -0.04056511074304581, -0.005869399756193161, 0.008344266563653946, -0.05967773497104645, -0.007985284551978111, -0.14302733540534973, 0.06208120286464691, 0.0008924767607823014, -0.05561920255422592, 0.03904058411717415, -0.07708518952131271, -0.0023330608382821083, 0.04594392701983452, -0.03604107350111008, -0.0680900290608406, -0.1371328979730606, 0.20259451866149902, 0.024216551333665848, 0.01987997256219387, 0.0009865256724879146, 0.08982548862695694, 0.017282534390687943, 0.034731894731521606], [0.140494704246521, 0.011403869837522507, 0.013378944247961044, -0.32961997389793396, -0.10712400823831558, -0.3152903616428375, -0.6484759449958801, 0.07722678780555725, 0.14121617376804352, -0.7559430003166199, 0.009706671349704266, -0.15011683106422424, -0.05016542226076126, 0.06666431576013565, 0.16205008327960968, -0.3686656653881073, -0.0006218148046173155, -0.16313284635543823, -0.1401987224817276, -0.5503458380699158, -0.4074563682079315, 0.08947248011827469, 0.37209174036979675, -0.7856559157371521, -0.17023296654224396, 0.21609649062156677, 0.6440536975860596, -0.08493879437446594, -0.07447870820760727, 0.20961737632751465, -0.14069309830665588, 0.1078428104519844], [0.01867765374481678, -0.1600601226091385, 0.0530756339430809, -0.04940113052725792, 0.14535586535930634, 0.029440630227327347, 0.002102900529280305, 0.108939990401268, 0.007620787713676691, 0.050294436514377594, 0.0005446891882456839, -0.014055288396775723, 0.017411841079592705, -0.12112689763307571, 0.04037943854928017, -0.0036863351706415415, -0.04872633516788483, -0.060264330357313156, -0.15952998399734497, -0.04365326836705208, 0.024824080988764763, -0.04444142431020737, -0.04998689889907837, 0.05530766025185585, 0.0555998720228672, -0.020755009725689888, -0.09923931956291199, 0.0403812900185585, -0.012024672701954842, -0.01927128992974758, -0.03262784332036972, 0.09285588562488556], [-0.0044924477115273476, -0.04175711050629616, 0.16956566274166107, -0.02556905336678028, -0.07637717574834824, 0.0433565117418766, -0.04924546927213669, -0.046697307378053665, 0.03813547268509865, -0.07785443216562271, 0.00378900533542037, 0.09683484584093094, -0.1559232473373413, 0.0924827829003334, 0.005246396642178297, -0.13458402454853058, -0.039456501603126526, -0.009498029947280884, 0.08086960017681122, -0.08616441488265991, 0.05313289910554886, 0.031182389706373215, 0.09890055656433105, -0.10147961229085922, -0.09817081689834595, 0.20411576330661774, 0.21721991896629333, 0.11966920644044876, -0.029347337782382965, -0.03514627367258072, -0.09446439892053604, 0.053439632058143616], [0.4219995141029358, -0.0874711275100708, 0.09048721939325333, 0.11456821113824844, -0.07899409532546997, 0.07374915480613708, -0.02155039831995964, -0.1543383151292801, -0.24393311142921448, -0.17952507734298706, -0.01279989629983902, 0.09624172747135162, -0.0320347398519516, 0.0656626969575882, -0.1665075719356537, -0.22960041463375092, -0.12157586961984634, 0.1703939139842987, 0.24337998032569885, -0.12241188436746597, 0.03479648008942604, -0.24821431934833527, 0.18404898047447205, -0.04153149574995041, 0.025428589433431625, 0.9539236426353455, 0.24976104497909546, -0.09917796403169632, 0.00990462489426136, 0.02961098775267601, -0.010066783055663109, -0.19028662145137787], [0.08775347471237183, 0.4096118211746216, 0.08951601386070251, -0.178833469748497, 0.03126715123653412, -0.06390723586082458, 0.13307635486125946, -0.04060685634613037, 0.041489969938993454, -0.21206870675086975, -0.004323214292526245, -0.03411579132080078, 0.09504985064268112, -0.09906256943941116, -0.030060993507504463, -0.32617706060409546, 0.03515230491757393, 0.07295633107423782, 0.043666936457157135, 0.10063731670379639, 0.16357079148292542, -0.1338983178138733, 0.0017313614953309298, 0.18096810579299927, 0.04323552921414375, 0.3196510672569275, -0.056821390986442566, -0.02553599141538143, 0.015789000317454338, -0.0644284263253212, 0.035618528723716736, 0.1141606941819191], [0.012503441423177719, 0.10357656329870224, 0.044855352491140366, -0.057129867374897, -0.18457981944084167, 0.034068044275045395, 0.06158626079559326, 0.18675777316093445, 0.07604659348726273, 0.012668592855334282, 0.00602753646671772, 0.13281114399433136, 0.009027834981679916, 0.0467255525290966, 0.009976676665246487, 0.002166126389056444, 0.0034610452130436897, -0.09792274981737137, 0.004237378016114235, 0.014013594016432762, 0.16587376594543457, -0.08789373189210892, -0.08164344727993011, -0.04780080169439316, -0.06507063657045364, 0.1597122699022293, -0.020397333428263664, 0.007830454967916012, -0.015960291028022766, 0.018940825015306473, 0.007722604088485241, 0.038081854581832886], [-0.09032366424798965, -0.1549401581287384, -0.07029534131288528, -0.0787317305803299, -0.04506697878241539, 0.1479540914297104, -0.15116439759731293, -0.008681309409439564, -0.10063263028860092, -0.09178242087364197, -0.0021376085933297873, 0.06266031414270401, -0.05447300523519516, 0.23510663211345673, 0.008935529738664627, -0.044388316571712494, 0.007499555591493845, -0.01890673115849495, 0.010765454731881618, -0.04486978054046631, 0.20527243614196777, -0.01872844249010086, -0.07111142575740814, -0.2137807160615921, -0.02467530034482479, 0.06693284213542938, 0.17968174815177917, 0.06299784034490585, 0.0034722862765192986, 0.012792407535016537, -0.014418652281165123, 0.04838539659976959], [0.004776132293045521, 0.5993250608444214, -0.12177985906600952, -0.04332330822944641, -0.21077333390712738, 0.08453655987977982, 0.004011122044175863, -0.0912567526102066, 0.3358216881752014, -0.09628010541200638, -0.01482425257563591, -0.08705879747867584, 0.0155170988291502, -0.05712810903787613, 0.09986452013254166, 0.36063051223754883, 0.02391713485121727, 0.03283534198999405, 0.15444473922252655, 0.1085909903049469, -0.09861767292022705, -0.08592493087053299, 0.03779541701078415, -0.14098964631557465, -0.0014218543656170368, 0.03989485651254654, -0.11739511787891388, -0.04447663575410843, 0.04002292826771736, -0.029034286737442017, 0.24371914565563202, -0.07671835273504257], [0.10946803539991379, 0.10595625638961792, 0.012448631227016449, 0.025740286335349083, -0.05939025804400444, -0.029632648453116417, 0.10696995258331299, 0.1532401591539383, -0.06357904523611069, 0.3267880976200104, 0.002694984432309866, 0.43704190850257874, -0.013626202940940857, -0.025936761870980263, -0.17493224143981934, 0.05050968751311302, 0.07265093922615051, -0.03645923733711243, 0.010162853635847569, -0.050812460482120514, -0.058774467557668686, 0.008238819427788258, 0.08177349716424942, 0.01651713065803051, -0.0718376487493515, 0.03414072096347809, -0.0818408653140068, 0.012146541848778725, -0.006765601225197315, 0.03764734044671059, 0.01607643812894821, -0.1263313591480255], [-0.18153227865695953, -0.47831931710243225, 0.40426358580589294, 0.04510156065225601, 0.03156156465411186, 0.09308380633592606, 0.21704590320587158, -0.005132266320288181, -0.1891631931066513, -0.30485185980796814, 0.0020036594942212105, -0.021674416959285736, -0.08125481754541397, -0.1927976906299591, -0.2627313435077667, -0.10333091020584106, -0.10725490748882294, -0.521294355392456, -0.18616636097431183, -0.36982932686805725, 0.5886289477348328, 0.18180260062217712, -0.05335580185055733, -0.3858046233654022, -0.4638892114162445, 0.9479072690010071, -0.08531617373228073, -0.07343889772891998, -0.000325698871165514, 0.43729862570762634, -0.024974092841148376, -0.15606743097305298], [-0.007827937602996826, 0.0124589204788208, 0.00015256214828696102, 0.004586324095726013, -0.0005376220215111971, -0.00743684358894825, 0.00013151344319339842, -0.01375451311469078, -0.0011454460909590125, -0.002778011839836836, 0.000527245516423136, -0.00827837735414505, 0.004101680126041174, 0.005571750923991203, 0.000797934306319803, -0.013611337170004845, -0.0009523281478323042, -0.004896657541394234, -0.003499580081552267, -0.0033940987195819616, 0.008477079682052135, 0.003408059710636735, -0.008070362731814384, -0.0025682244449853897, -0.004441482480615377, 0.006699205841869116, -0.0029014828614890575, -1.8094176994054578e-05, -0.0004637645906768739, -0.0015717229107394814, -0.0031590857543051243, 0.00014379461936187], [0.009041432291269302, -0.04391663148999214, -0.059111569076776505, 0.0192098431289196, 0.08666100353002548, 0.006537872366607189, -0.1932278871536255, 0.0347745306789875, -0.029106685891747475, -0.03304487094283104, -0.002435233211144805, -0.01650043949484825, -0.07029341161251068, 0.025366349145770073, -0.12009138613939285, -0.06904293596744537, 0.014036907814443111, 0.030258962884545326, 0.03990132361650467, -0.0652967318892479, -0.019714215770363808, 0.059622153639793396, -0.04162673279643059, -0.03072671964764595, -0.02033442258834839, 0.1382802128791809, -0.09672040492296219, 0.04607166722416878, -0.0035778842866420746, 0.05517597123980522, -0.03175122290849686, -0.01657516323029995], [0.02664363756775856, -0.24186675250530243, 0.007907882332801819, 0.0018149878596886992, -0.09828353673219681, 0.00584552763029933, 0.0159414354711771, 0.04226100444793701, -0.05784918740391731, -0.01849602721631527, 0.0031832654494792223, -0.09156772494316101, -0.061307575553655624, 0.008335273712873459, -0.059378836303949356, 0.06656071543693542, 0.013284563086926937, 0.08555042743682861, 0.018319377675652504, -0.10669074207544327, -0.017497196793556213, 0.06703665107488632, 0.07470960915088654, 0.00471172109246254, -0.09251932799816132, 0.017524125054478645, 0.12983575463294983, -0.015673723071813583, -0.008029324002563953, -0.0007162307156249881, 0.008967699483036995, 0.03025243803858757], [0.06941818445920944, -0.03973502293229103, -0.028616514056921005, 0.06707137078046799, 0.22896461188793182, 0.07866542786359787, 0.16846983134746552, 0.06739451736211777, -0.047378718852996826, -0.09309876710176468, -0.002516593784093857, 0.05740802362561226, 0.00957890972495079, -0.1353064328432083, 0.08769487589597702, -0.16519728302955627, -0.031235110014677048, 0.009406505152583122, -0.003835146315395832, -0.006141278892755508, 0.08669924736022949, -0.01838109642267227, -0.07375927269458771, 0.24376802146434784, 0.20593169331550598, 0.02025117352604866, -0.19463558495044708, 0.050481319427490234, 0.0031379919964820147, 0.018574969843029976, -0.010225830599665642, -0.14854823052883148], [-0.04511072114109993, 0.182403102517128, -0.09784859418869019, 0.05750562995672226, 0.08603422343730927, -0.03370702266693115, 0.11597949266433716, 0.08612727373838425, -0.06881934404373169, 0.13883592188358307, 0.0006567769451066852, 0.0751105397939682, 0.024641914293169975, 0.07224911451339722, -0.08074500411748886, -0.0044798958115279675, -0.02634011022746563, 0.05330468714237213, -0.08857790380716324, 0.02382572740316391, 0.0699826180934906, -0.04950553923845291, 0.01044780109077692, 0.14769889414310455, -0.025429844856262207, -0.04115300253033638, -0.0011639059521257877, -0.028965206816792488, 0.01235433854162693, -0.07150242477655411, 0.013548439368605614, -0.10000277310609818], [-0.019070196896791458, 0.2951522767543793, 0.15952403843402863, -0.035352855920791626, 0.15923181176185608, -0.07103351503610611, -0.1333046555519104, 0.08447311818599701, 0.17060905694961548, 0.20265783369541168, 0.0011505753500387073, 0.5155656337738037, 0.0021547044161707163, -0.29543182253837585, 0.06614003330469131, -0.4586092531681061, -0.13187485933303833, -0.14012980461120605, -0.4750598073005676, 0.21428535878658295, -0.062830850481987, 0.09504541754722595, -0.011100300587713718, 0.16295306384563446, -0.11680460721254349, -0.13619275391101837, -0.3696204423904419, 0.19194796681404114, -0.00639070849865675, 0.09469181299209595, -0.10371067374944687, -0.13246668875217438], [-0.04040328413248062, 0.07726902514696121, -0.2959064841270447, -0.3128736913204193, -0.008195496164262295, -0.1414482295513153, -0.07119904458522797, -0.012599801644682884, 0.20444247126579285, 0.01601598784327507, 0.02604040503501892, 0.1293204426765442, 0.030808985233306885, 0.2197064459323883, 0.056371357291936874, 2.22245798795484e-05, -0.2361500859260559, 0.23506227135658264, 0.27658477425575256, 0.20361624658107758, -0.17435337603092194, 0.008963395841419697, 0.07371349632740021, -0.11954925209283829, -0.13918755948543549, 0.1805984377861023, -0.048910196870565414, 0.05033864825963974, -0.03819572180509567, -0.006167495623230934, -0.06180792674422264, 0.09569059312343597], [0.09287029504776001, -0.026019137352705002, 0.06917872279882431, -0.05064385384321213, -0.26484864950180054, 0.0354023240506649, -0.03205149248242378, -0.13498151302337646, 0.03864556923508644, 0.12312917411327362, 0.003380595473572612, 0.0008878028602339327, -0.09454375505447388, 0.02355572208762169, -0.21310077607631683, -0.06740669161081314, -0.004839377012103796, 0.06174137070775032, 0.1289268285036087, -0.0022531128488481045, -0.006037447135895491, 0.04805447906255722, 0.2562299072742462, -0.06553704291582108, -0.03901975229382515, -0.006042861845344305, 0.14129753410816193, 0.06880651414394379, -0.012847254052758217, 0.11596342921257019, 0.04828265309333801, 0.09191159904003143], [-0.1750832200050354, -0.01632094755768776, 0.09130825847387314, -0.2539774477481842, 0.17359954118728638, 0.0354081392288208, -0.15822306275367737, -0.057264186441898346, 0.02883518673479557, 0.024970335885882378, 0.0060831340961158276, 0.09783243387937546, -0.07447373867034912, -0.024901343509554863, -0.15182147920131683, -0.3920012414455414, -0.06277202069759369, -0.1679300218820572, 0.25052446126937866, 0.1277654469013214, 0.23375453054904938, 0.011301334016025066, 0.15517660975456238, -0.18348626792430878, 0.034332092851400375, -0.03909248486161232, -0.25659486651420593, 0.13559235632419586, -0.036557987332344055, 0.21159087121486664, -0.14322061836719513, 0.126678466796875], [-0.0034233261831104755, -0.03762675076723099, 0.020208436995744705, -0.04168691113591194, 0.06919032335281372, 0.030941102653741837, -0.05414474755525589, 0.0330432765185833, 0.04303096607327461, -0.02050345577299595, -1.287119994231034e-05, 0.05659085884690285, -0.049761682748794556, -0.04256253316998482, 0.03702525049448013, -0.010831906460225582, -0.05376570671796799, -0.006158437114208937, 0.028089167550206184, 0.12156595289707184, -0.016419120132923126, -0.022742265835404396, -0.017447711899876595, -0.09821533411741257, -0.005550365429371595, 0.06275762617588043, -0.1232118010520935, -0.025841843336820602, 0.007524739485234022, -0.045435864478349686, 0.013500257395207882, 0.048809222877025604], [-0.22877317667007446, -0.08385450392961502, 0.20492719113826752, 0.12347796559333801, 0.13668927550315857, -0.1068863645195961, -0.047137752175331116, 0.023640697821974754, -0.3140369653701782, 0.2549544870853424, -0.0033904726151376963, 0.35035234689712524, 0.09585613757371902, 0.05025769770145416, -0.00361035973764956, -0.2326657474040985, 0.059899065643548965, 0.3188500702381134, -0.17955732345581055, -0.3389182388782501, 0.08089150488376617, 0.15826468169689178, -0.06564296036958694, 0.3620610535144806, -0.29135382175445557, 0.39873069524765015, -0.12271268665790558, 0.03969338536262512, 0.0009385368903167546, -0.23685315251350403, -0.038327693939208984, -0.25685104727745056], [-0.21328827738761902, 0.10665222257375717, -0.004367102403193712, -0.006904205307364464, 0.01295976247638464, -0.0416354164481163, 0.1294727325439453, -0.10691939294338226, -0.05827144533395767, 0.09680347889661789, -0.0015697806375101209, 0.08978717029094696, 0.05760352686047554, 0.025190025568008423, -0.09685845673084259, -0.11007515341043472, 0.04428848251700401, 0.13162270188331604, 0.10166379809379578, -0.07338257879018784, 0.17289069294929504, -0.1103217601776123, 0.22331610321998596, 0.19441087543964386, 0.13046759366989136, 0.00202096882276237, -0.038217462599277496, -0.20114704966545105, 0.010549825616180897, 0.08095881342887878, -0.008666622452437878, 0.07763118296861649], [0.010563533753156662, -0.18554341793060303, 0.09263701736927032, 0.06893812865018845, 0.19208930432796478, 0.04641140624880791, -0.11077932268381119, -0.0384083017706871, -0.028623851016163826, -0.224855437874794, -0.005023233126848936, -0.0856408029794693, -0.04924068972468376, 0.060779038816690445, 0.13450343906879425, -0.04863317683339119, -0.08295291662216187, 0.10660681873559952, 0.0551038421690464, 0.10640990734100342, -0.15504498779773712, -0.0800727903842926, -0.11065340042114258, -0.016295243054628372, 0.042551975697278976, 0.12688153982162476, -0.07677718251943588, -0.031112581491470337, 0.007532170973718166, -0.060318488627672195, -0.05693795159459114, 0.0432998389005661], [0.11900255084037781, 1.9544024467468262, 0.37390583753585815, -0.06320762634277344, 0.17945833504199982, 0.011300582438707352, 0.09586982429027557, 0.31322717666625977, 0.6818356513977051, -0.12381614744663239, -0.029401356354355812, -0.4073719382286072, -0.09838063269853592, -0.5939878225326538, -0.3161555230617523, -0.22025349736213684, 0.3021273612976074, -0.4852360188961029, -0.7317932844161987, 0.13865192234516144, -0.160431370139122, -0.19243936240673065, -0.12195418030023575, 0.04297075420618057, 0.07940325140953064, 0.0035387095995247364, -0.5254349708557129, 0.4747106432914734, 0.029543597251176834, 0.047026924788951874, 0.2698553800582886, 0.1421896070241928], [-0.0004603318520821631, 0.0007971459999680519, -0.0006182867800816894, -0.0002429605956422165, 0.00020688150834757835, 2.0038152797496878e-05, 0.00028283396386541426, -5.30926845385693e-05, 1.958703069249168e-05, -0.0009777720551937819, -0.0002288193500135094, -7.011715933913365e-05, -0.00021716654009651393, 0.0007882302161306143, 0.0001666995376581326, 0.00034189337748102844, 0.000727969512809068, -0.00011447591532487422, 0.00020043722179252654, -0.00038069026777520776, 0.0008805511752143502, -0.0007626165170222521, 0.00018714365432970226, -0.0003189057460986078, 0.0005926802987232804, 0.0008494705543853343, -9.973291889764369e-05, -0.0005319984629750252, 0.0003699079970829189, -0.00026197635452263057, 0.0004061862709932029, 3.9831003959989175e-05], [-0.034490011632442474, -0.386818528175354, 0.12311326712369919, 0.05409330502152443, -0.009267782792448997, 0.11383236199617386, 0.04789839684963226, -0.07177964597940445, -0.07261888682842255, 0.1953163594007492, 0.001438308390788734, -0.13741862773895264, -0.006823762319982052, -0.1574287861585617, -0.051279861479997635, 0.054480116814374924, -0.07983092963695526, 0.011504042893648148, 0.039699021726846695, 0.09221813082695007, -0.11054672300815582, -0.030946437269449234, -0.051608145236968994, -0.06522338837385178, 0.1730097532272339, -0.04415881261229515, -0.18282847106456757, 0.04826759174466133, -0.0038122243713587523, 0.15087345242500305, -0.03610629588365555, 0.10830742120742798], [-0.0486200712621212, 0.22078996896743774, 0.047138359397649765, 0.047248050570487976, 0.24127943813800812, 0.0028045200742781162, 0.1949232667684555, 0.059453029185533524, -0.08598688989877701, 0.0507662333548069, 0.0008080448023974895, 0.04952704533934593, 0.12367652356624603, -0.05389673262834549, 0.011667560786008835, 0.049742866307497025, -0.004188882187008858, 0.043308697640895844, -0.07769117504358292, 0.07028574496507645, 0.08245937526226044, -0.17568597197532654, -0.15018430352210999, 0.19109958410263062, 0.008597205393016338, 0.2062472403049469, 0.023314878344535828, -0.09556703269481659, 0.012134753167629242, -0.1422692984342575, 0.06951483339071274, 0.046373382210731506], [-0.016016623005270958, -0.33734431862831116, 0.4650249183177948, -0.0005796888726763427, 0.25169724225997925, 0.2006859928369522, 0.10379468649625778, 0.17003387212753296, 0.01702801138162613, 0.1752621829509735, 0.013832205906510353, 0.33379265666007996, -0.06593656539916992, -0.23241010308265686, 0.006378751248121262, 0.009066452272236347, -0.25539878010749817, 0.1049731969833374, 0.10145048797130585, 0.13035976886749268, -0.09739834070205688, -0.09643354266881943, -0.1328788697719574, 0.08899146318435669, 0.00040849208016879857, 0.13439974188804626, -0.38058018684387207, -0.0030707779806107283, -0.01969032734632492, -0.12535442411899567, -0.13653823733329773, 0.08921492844820023], [0.09454017877578735, -0.04979996755719185, 0.01469337660819292, 0.040461018681526184, 0.005831680726259947, -0.06146414950489998, -0.058185454457998276, 0.017280982807278633, -0.003085819771513343, -0.005019989795982838, -0.002617698162794113, 0.03656800463795662, -0.0020775890443474054, 0.20463235676288605, -0.1107579693198204, 0.013851217925548553, 0.05038744956254959, 0.06542635709047318, 0.06564825773239136, -0.08421755582094193, -0.04761749505996704, -0.08354554325342178, 0.05942165479063988, 0.12848827242851257, -0.012249574065208435, -0.01529692206531763, 0.22314922511577606, -0.11315392702817917, 0.0032880203798413277, 0.022611556574702263, -0.04005473852157593, 0.17108985781669617], [0.14196637272834778, 0.23142892122268677, 0.07672862708568573, 0.02551954612135887, -0.06152278184890747, -0.001564383041113615, -0.04896771162748337, -0.21349076926708221, -0.0903543084859848, 0.035860899835824966, -0.0032794682774692774, 0.08831892162561417, -0.032054636627435684, 0.15469403564929962, 0.08059126883745193, -0.08213119953870773, 0.04505293443799019, 0.05119498446583748, 0.0413987934589386, 0.021780289709568024, -0.19849811494350433, -0.1762402057647705, 0.03013356402516365, -0.0592239573597908, -0.0015159700997173786, -0.0434945747256279, -0.12402357906103134, 0.1621333658695221, -0.018519273027777672, 0.0029436107724905014, -0.15957652032375336, 0.0457206629216671], [-0.015840331092476845, 0.046283334493637085, -0.019206834957003593, -0.006602696608752012, 0.1259573996067047, -0.03434983640909195, -0.01945854164659977, -0.004192103166133165, 0.0017358281183987856, -0.023263130336999893, 0.0018019787967205048, 0.0064870454370975494, -0.006355258636176586, 0.0008771640132181346, -0.045194122940301895, -0.04792561009526253, -0.07030708342790604, -0.06459210067987442, -0.011627519503235817, 0.005699025932699442, -0.05318519473075867, -0.0681476891040802, -0.02110060676932335, -0.03070429340004921, -0.05008943751454353, 0.07108206301927567, -0.06362248212099075, -0.040426891297101974, -0.0012625153176486492, 0.010544057935476303, -0.020290669053792953, 0.055881913751363754], [0.08395782858133316, 0.007696021813899279, 0.11699636280536652, -0.04059479013085365, -0.05625863000750542, 0.04103470593690872, 0.028119457885622978, -0.021985141560435295, 0.03623292222619057, 0.12764738500118256, 0.0011036815121769905, 0.06288270652294159, -0.17019549012184143, -0.03532465547323227, -0.137264221906662, -0.06976283341646194, -0.00181459856685251, -0.04200847074389458, -0.08122704178094864, 0.02810807153582573, -0.02395251952111721, 0.03749557211995125, 0.009387902915477753, -0.03740380331873894, -0.17326192557811737, 0.0778883770108223, -0.07785231620073318, 0.04872814193367958, -0.010551062412559986, 0.06636575609445572, -0.018421974033117294, 0.07204049080610275], [-0.10289760679006577, -0.3481878638267517, 0.040347129106521606, 0.13315117359161377, 0.22491540014743805, 0.10719280689954758, 0.06875522434711456, -0.16631528735160828, -0.05129580199718475, 0.276689350605011, -0.0025504138320684433, 0.0618012361228466, 0.3577060103416443, -0.07620424032211304, 0.08982572704553604, 0.33459898829460144, -0.011744967661798, 0.14328449964523315, -0.1941259354352951, 0.08248628675937653, -0.19162969291210175, -0.05129566416144371, -0.16109338402748108, 0.1818799525499344, 0.2768060564994812, 0.03868408873677254, -0.13546115159988403, -0.09513191133737564, 0.016177775338292122, -0.0427042618393898, 0.09523758292198181, -0.015979742631316185], [0.0764545276761055, -0.10261557996273041, 0.11083541065454483, -0.08591412007808685, -0.006126646418124437, 0.08267079293727875, 0.011613845825195312, 0.1155284121632576, 0.056180551648139954, 0.17999239265918732, 0.002130420645698905, 0.029759228229522705, 0.056770384311676025, -0.19384829699993134, 0.0006277956417761743, 0.041591476649045944, -0.0363820418715477, -0.043500758707523346, -0.10616081953048706, 0.0033646051306277514, 0.10809314250946045, 0.03647175803780556, 0.0028168060816824436, 0.06995999813079834, 0.14390146732330322, 0.10796428471803665, -0.03943605720996857, 0.04115244373679161, -0.0016047189710661769, 0.0009246788686141372, -0.0020202563609927893, 0.07637841254472733], [0.003632258391007781, -0.01885402575135231, 0.27884534001350403, 0.01968110352754593, 0.033894483000040054, 0.06957918405532837, 0.0421617329120636, -0.017514364793896675, 0.008708581328392029, 0.13873925805091858, 0.007942844182252884, 0.2301081120967865, -0.16988597810268402, -0.021942704916000366, 0.04438643157482147, -0.234002023935318, -0.010291002690792084, -0.009455316700041294, 0.003670545294880867, -0.013186211697757244, 0.09106234461069107, 0.040872521698474884, 0.03462032601237297, -0.04487072676420212, -0.05046099051833153, 0.05444539338350296, 0.03625182807445526, 0.1962849199771881, -0.02799481898546219, -0.04998241364955902, -0.11404909193515778, 0.042402397841215134], [-0.10365618020296097, -0.06611910462379456, -0.08529525250196457, 0.0995887964963913, 0.01149823796004057, 0.09820187091827393, -0.2857206463813782, 0.11103886365890503, -0.1248246431350708, 0.18430891633033752, -0.012270177714526653, 0.4603232443332672, -0.12174373865127563, 0.2162078619003296, -0.02365601807832718, 0.0230909064412117, -0.0846765860915184, 0.004989881534129381, -0.4986134469509125, 0.09092219918966293, -0.14905814826488495, -0.1246250718832016, -0.1570369154214859, 0.13514170050621033, 0.06948227435350418, -0.04200168326497078, -0.16041778028011322, 0.19870659708976746, 0.012478326447308064, -0.19294799864292145, -0.012888679280877113, 0.0025186361744999886], [0.1448146551847458, 0.06920409202575684, 0.3176477253437042, -0.09055308252573013, 0.022359516471624374, 0.04833996295928955, 0.29049110412597656, -0.00033324057585559785, -0.10528861731290817, 0.09678522497415543, 0.00518296891823411, -0.021886976435780525, -0.18011566996574402, -0.21206504106521606, -0.16243650019168854, -0.37716567516326904, -0.014501665718853474, 0.1728139966726303, -0.07467537373304367, -0.047863543033599854, 0.21268461644649506, 0.01883336715400219, 0.19943445920944214, 0.2864263951778412, -0.09119816869497299, 0.11029570549726486, -0.1011231541633606, -0.024558551609516144, 0.002279674867168069, -0.0510074757039547, -0.08048159629106522, 0.14221027493476868], [0.02393091842532158, 0.06179109960794449, 0.018605202436447144, 0.004857141990214586, -0.1531105488538742, 0.0007112295716069639, 0.10211801528930664, 0.11292935162782669, -0.03450692445039749, 0.09287050366401672, 0.002965581836178899, 0.13311605155467987, 0.00981641560792923, 0.012632554396986961, 0.07557941973209381, 0.010788677260279655, 0.02558983862400055, -0.07011686265468597, -0.08545629680156708, 0.02735053561627865, 0.06349951028823853, -0.07415566593408585, -0.10490518063306808, -0.0352625697851181, -0.06838444620370865, 0.028179535642266273, 0.0023426145780831575, -0.016988040879368782, -0.004736502654850483, -0.039975885301828384, -0.0034610622096806765, 0.038782913237810135], [0.09719211608171463, 0.035855982452631, 0.09143485128879547, -0.15966098010540009, -0.18638961017131805, 0.13349296152591705, -0.08727259188890457, -0.048189807683229446, 0.05598347261548042, 0.04050949215888977, 0.0009986216900870204, 0.18078573048114777, -0.10699286311864853, 0.0760580375790596, -0.03500204533338547, -0.07455354183912277, -0.004018524661660194, 0.1483219414949417, 0.16076472401618958, 0.14814236760139465, 0.11109507828950882, 0.004051819443702698, 0.0001802668411983177, -0.05036623403429985, 0.06840743124485016, 0.19661743938922882, -0.031065208837389946, -0.006839487701654434, -0.003416645573452115, 0.022222867235541344, 0.013930016197264194, 0.1371401846408844], [0.10196194052696228, 0.14477556943893433, -0.045431915670633316, -0.1158064678311348, 0.010976851917803288, -0.027251044288277626, 0.1557675004005432, 0.1233491376042366, 0.08348526060581207, 0.26652371883392334, -0.005765847861766815, 0.11800233274698257, -0.011219707317650318, -0.2790902256965637, -0.0015083367470651865, 0.18182925879955292, -0.03461473435163498, 0.061999499797821045, 0.025330528616905212, 0.02792048268020153, 0.029603932052850723, 0.0995418056845665, 0.21902935206890106, -0.040665920823812485, -0.07762666046619415, 0.34849995374679565, -0.028015566989779472, -0.06646867096424103, -0.011182880960404873, -0.058021362870931625, 0.1489487737417221, -0.038363728672266006], [0.009112843312323093, -0.17435915768146515, -0.008230709470808506, -0.14137284457683563, -0.047632694244384766, 0.07721748948097229, -0.019447429105639458, 0.17133207619190216, -0.1774735450744629, -0.07191861420869827, -0.013597005978226662, 0.5508119463920593, -0.022231124341487885, 0.3518695533275604, 0.03494998440146446, 0.2725999355316162, 0.06318351626396179, -0.0008960372651927173, -0.10380864888429642, 0.15484999120235443, -0.07895707339048386, -0.29729950428009033, 0.08032961189746857, -0.06654690206050873, 0.044732969254255295, -0.09111134707927704, -0.34824055433273315, 0.029054708778858185, -0.01608249358832836, 0.09810550510883331, -0.10102782398462296, 0.004708976950496435], [-0.13165922462940216, 0.04142233356833458, 0.24302566051483154, 0.37277430295944214, 0.19269026815891266, 0.014947059564292431, 0.43217340111732483, 0.1884586066007614, -0.4627300798892975, 0.22573134303092957, 0.00719434954226017, 0.23323215544223785, -0.04026588052511215, -0.1888079196214676, -0.014993122778832912, -0.15060773491859436, -0.043426092714071274, 0.1438906341791153, -0.3670746684074402, 0.0005783294909633696, 0.05287354066967964, 0.09658071398735046, -0.12090132385492325, 0.380052387714386, -0.06930188089609146, 0.10858161747455597, -0.2876465320587158, 0.04102080315351486, -0.017278779298067093, -0.15451785922050476, -0.1438857465982437, -0.0994860976934433], [-0.00761505076661706, 0.02368328534066677, -0.0009364743600599468, 0.003561527468264103, 0.0037982442881911993, -0.007642680313438177, 0.0008609495125710964, -0.010477929376065731, -0.0012958154547959566, -0.005621219053864479, 0.0004937460180372, -0.008009960874915123, 0.006684501189738512, 0.004058368504047394, 0.001295106252655387, -0.013361383229494095, 0.0023305173963308334, -0.006221091374754906, -0.00013672503700945526, -0.0014876809436827898, 0.009829811751842499, 0.0008759310585446656, -0.005883609410375357, -0.0028360686264932156, -0.0020124411676079035, 0.008032617159187794, -0.008135578595101833, -0.0013452875427901745, -0.0002740120398811996, -0.0023984950967133045, -0.0022522660437971354, 0.001318246708251536], [0.042296066880226135, 0.011146392673254013, -0.06590317189693451, 0.036050114780664444, 0.0526752769947052, 0.006139751058071852, -0.202225923538208, 0.05451417341828346, -0.08113503456115723, -0.03823855146765709, -0.006303844042122364, 0.04541158676147461, -0.0607454739511013, 0.03564051166176796, -0.21588195860385895, -0.02293868362903595, 0.05155165493488312, 0.004005930386483669, 0.05654812231659889, -0.08123253285884857, -0.05582480505108833, -0.004269683267921209, -0.012808108702301979, -0.0364796407520771, -0.05882951617240906, 0.09779592603445053, -0.07425834983587265, 0.04600020498037338, 0.005159005522727966, 0.08598944544792175, -0.0001756855344865471, -0.041592150926589966], [0.053638655692338943, -0.10509519279003143, -0.0005863713449798524, 0.0049862368032336235, -0.07008345425128937, -0.008622377179563046, 0.00919369701296091, 0.10348445922136307, -0.049340154975652695, -0.011067687533795834, 0.00372024392709136, -0.0707874670624733, -0.07977425307035446, 0.005838462617248297, -0.08172047138214111, 0.031267352402210236, 0.04119042307138443, 0.08766713738441467, 0.04935761168599129, -0.10277615487575531, -0.03627215325832367, 0.06410329043865204, 0.07570669800043106, 0.01367231272161007, -0.11271438747644424, 0.046651843935251236, 0.12295373529195786, -0.04137266427278519, -0.0074677192606031895, -0.018541447818279266, 0.03653402626514435, 0.05761825665831566], [-0.01611494831740856, -0.09867080301046371, 0.025735946372151375, 0.036121051758527756, 0.036147043108940125, 0.010287855751812458, 0.19084769487380981, 0.07079748809337616, -0.09383045881986618, 0.2329990118741989, 0.0007700372952967882, 0.1655874103307724, 0.05092556029558182, -0.03692924603819847, -0.05603751540184021, 0.06855747848749161, -0.022678589448332787, 0.11977217346429825, -0.1585036665201187, -0.07821910083293915, 0.007835748605430126, 0.17220890522003174, -0.10561608523130417, 0.26970669627189636, -0.012669051997363567, 0.2442798912525177, 0.02216496132314205, 0.053562793880701065, -2.314907942491118e-05, 0.024871621280908585, 0.05766502395272255, -0.13941913843154907], [0.6956097483634949, -0.10693810135126114, -0.019502608105540276, 0.2319227159023285, 0.13594068586826324, 0.11010871082544327, -0.3435133099555969, -0.15462221205234528, 0.17829503118991852, 0.18714767694473267, -0.0022467193193733692, -0.15251711010932922, 0.13690495491027832, -0.22546172142028809, -0.07864975929260254, -0.09867388755083084, -0.05078386887907982, 0.14740337431430817, -0.10128482431173325, -0.04389883577823639, 0.042943213135004044, -0.14875757694244385, 0.42513519525527954, 0.2577097415924072, -0.031911201775074005, -0.040206655859947205, -0.007820472121238708, -0.09451443701982498, 0.050875309854745865, 0.23302748799324036, 0.07465673238039017, 0.3648957312107086], [0.09195104241371155, 0.8850018382072449, -0.10716237872838974, -0.23679456114768982, -0.02334427647292614, 0.0486602745950222, -0.15045039355754852, -0.0710315927863121, 0.6163284182548523, -1.5963629484176636, -0.0073438542895019054, 0.06574398279190063, 0.0062241582199931145, -0.1417052000761032, 0.06112031266093254, 1.2908364534378052, -0.041289232671260834, 0.04765836149454117, -0.09253006428480148, -0.4822142720222473, -0.03044302389025688, -1.5091038942337036, 0.12888017296791077, -0.18380893766880035, 0.09600988775491714, -0.032698605209589005, -0.007035055663436651, -0.4748680889606476, -0.013724434189498425, -0.27149808406829834, -0.09135974198579788, -0.33502665162086487], [0.11218944936990738, -0.15388314425945282, 1.294431447982788, -0.1188049167394638, 0.1645534634590149, 0.15805214643478394, 0.13923612236976624, 0.07065419852733612, -1.134138822555542, -0.33627864718437195, -0.008463588543236256, 0.13401390612125397, -0.02040087804198265, -1.042022943496704, -0.3567749559879303, -0.11482955515384674, 0.4075709879398346, -0.3309149444103241, 0.06908760964870453, -0.34893161058425903, 0.04392686113715172, 0.04043431580066681, 0.09421978890895844, -0.03574578836560249, 0.3698439300060272, -0.20908166468143463, -0.10314031690359116, 0.27909865975379944, -0.10859972983598709, -0.7111119627952576, -0.08243157714605331, 0.27404481172561646], [-0.14954668283462524, -0.06867634505033493, 0.03336215019226074, 0.5326374173164368, 0.2291586697101593, -0.06478626281023026, -0.058588698506355286, 0.09744766354560852, -0.23900389671325684, 0.27935144305229187, -0.009111125953495502, -0.35161644220352173, 0.1767265349626541, -0.38753122091293335, 0.1628662496805191, -0.0041102878749370575, 0.13091708719730377, 0.1960931420326233, 0.2670787572860718, -0.1379542052745819, 0.02258245460689068, -0.2513026297092438, -0.141542449593544, 0.3453507423400879, -0.4270705282688141, -0.18394796550273895, 0.06936769187450409, -0.14720867574214935, -0.05991924926638603, -0.38373449444770813, -0.1741623431444168, -0.5807592272758484], [-0.035418491810560226, 0.17508302628993988, -0.2867697775363922, 0.09811808168888092, 0.6634814739227295, -0.3635905086994171, 0.0774131491780281, 0.016777822747826576, -0.13604736328125, 0.1326008290052414, 0.014975951053202152, 0.06648561358451843, -0.07727417349815369, -0.12795402109622955, 0.11343745142221451, -0.2726958692073822, -0.036221448332071304, -0.058450400829315186, 0.0921761766076088, -0.0034105139784514904, -0.44650572538375854, 0.0006418342818506062, -0.024240175262093544, 0.17613554000854492, -0.03622851148247719, -0.06472578644752502, -0.11530926078557968, -0.011012408882379532, -0.01320712361484766, 0.19859759509563446, 0.009006273932754993, -0.13138239085674286], [0.09545443207025528, -0.17801478505134583, 0.09259308874607086, -0.12677140533924103, 0.3356422483921051, 0.20119035243988037, 0.012523564510047436, 0.10952064394950867, 0.12148886919021606, -0.007932202890515327, 0.029619727283716202, 0.09840038418769836, -0.12919536232948303, 0.020282112061977386, -0.08918178826570511, 0.3620333671569824, -0.5375717878341675, -0.031127383932471275, 0.07791179418563843, 0.06186835095286369, 0.36892539262771606, 0.09067805856466293, 0.07595932483673096, 0.05145559832453728, 0.07079436630010605, -0.09568139910697937, -0.13428129255771637, 0.18734779953956604, -0.008961477316915989, 0.23109611868858337, -0.07234123349189758, 0.0007449551485478878], [-0.12442079186439514, 0.7235506176948547, -0.13704924285411835, -0.08105885982513428, 0.0837751179933548, -0.12280523777008057, 0.4188983738422394, -0.2853076756000519, 0.02097512222826481, 0.08414137363433838, 0.0047135422937572, -0.02624635584652424, -0.03063238225877285, -0.21085375547409058, -0.15120604634284973, -1.2438764572143555, 0.03850213438272476, 0.019656050950288773, -0.403026282787323, -0.12442401051521301, -0.1042862981557846, 0.2621988356113434, 0.2534889876842499, 0.11669666320085526, -0.06089325249195099, 0.17352883517742157, -0.9343429207801819, 0.03888827934861183, 0.028019214048981667, -0.07459977269172668, 0.03154972940683365, 0.35398152470588684], [-0.08355513215065002, 0.09466109424829483, -0.10466066747903824, 0.009671642445027828, 0.3060866892337799, 0.05799751728773117, 0.37058019638061523, 0.6644004583358765, 0.05363934114575386, -0.060005899518728256, -0.01146297063678503, -0.0308470968157053, -0.31198379397392273, -0.08518952131271362, -0.20239654183387756, 0.1762993484735489, -0.09101454168558121, 0.17913071811199188, -0.08169005811214447, 0.061283182352781296, -0.16884465515613556, -0.1572899967432022, 0.23149283230304718, -0.20645202696323395, -0.393097460269928, 0.0030364429112523794, -0.033994898200035095, -0.00013405982463154942, 0.06152717396616936, -6.302758993115276e-05, 0.29626011848449707, -0.003087576013058424], [-0.1050645187497139, -0.014025949873030186, 0.44661208987236023, 0.2592030465602875, -0.023364098742604256, -0.16596198081970215, 0.03285706788301468, -0.02521579898893833, -0.3863964378833771, 0.2618168294429779, -0.0027841744013130665, -0.32533666491508484, -0.13950960338115692, 0.5511437654495239, 0.07130229473114014, -0.11297158151865005, -0.07605832070112228, 0.09779231995344162, -0.11668099462985992, 0.3418843150138855, 0.13877511024475098, -0.5277555584907532, -0.009227216243743896, 0.05174670368432999, -0.0814502164721489, -0.20539842545986176, -0.07146362215280533, 0.5825285911560059, 0.08468189835548401, 0.025627199560403824, 0.1947634220123291, 0.5080177187919617], [0.036821648478507996, 1.2264893054962158, 0.21274079382419586, -0.14448387920856476, -0.08079862594604492, 0.013461547903716564, 0.04829104617238045, -0.06786360591650009, 0.862268328666687, 0.3587019145488739, -0.004907066468149424, 0.029471874237060547, 0.004880509339272976, -0.08911507576704025, 0.18545004725456238, -0.10539103299379349, -0.09153164178133011, -0.09399567544460297, 0.2858075797557831, -0.08269608020782471, 0.05179717391729355, -0.33385002613067627, 0.052791811525821686, -0.05309934914112091, 0.022164227440953255, 0.08293995261192322, 0.1435568630695343, -0.13413837552070618, 0.04689188301563263, -0.18250691890716553, 0.06532647460699081, 0.06744727492332458], [-0.003953028470277786, -0.017401913180947304, -0.000545667833648622, -0.007567961234599352, 0.005009527318179607, -0.046884987503290176, 0.006068435963243246, 0.008944276720285416, 0.004019121173769236, -0.0111655592918396, -0.0015686715487390757, 2.1430143533507362e-05, -0.005045566242188215, -0.028184833005070686, -0.017658963799476624, -0.04195991903543472, 0.04888247698545456, 0.009143148548901081, 0.006965096108615398, 0.04926023259758949, 0.0038349605165421963, 0.0033417402300983667, -0.01675468496978283, 0.010746722109615803, -0.02868870459496975, 0.012708554044365883, 0.02275737375020981, -0.00830911286175251, -0.011322641745209694, -0.01704700104892254, 0.007413883227854967, 0.002588874427601695], [0.14138571918010712, 0.1872241348028183, -0.33895522356033325, -0.12204103171825409, -0.21351554989814758, -0.04283737391233444, 0.17013289034366608, 0.14978688955307007, 0.04023836553096771, 0.11947226524353027, -0.005765225738286972, 0.3663053810596466, 0.10855599492788315, -0.22408083081245422, 0.12301456928253174, 0.04995286837220192, 0.08947065472602844, -0.26660677790641785, 0.07349050045013428, 0.10894162952899933, 0.2142978310585022, -0.08467046916484833, -0.03407677263021469, -0.09796654433012009, 0.0770518109202385, -0.14829067885875702, 0.2715838849544525, -0.03314821794629097, 0.019154401496052742, 0.13377200067043304, -0.016857769340276718, -0.26913174986839294], [-0.35531747341156006, -0.059977151453495026, -0.14017222821712494, -0.2004481703042984, -0.05312406271696091, -0.06158075109124184, -0.22359491884708405, 0.2567330002784729, -8.966695895651355e-05, 0.21312297880649567, -0.0068519096821546555, -0.23656053841114044, 0.5907012820243835, -0.09946241229772568, 0.30969640612602234, 0.08579233288764954, -0.1836850643157959, 0.0980224683880806, 0.005764436442404985, -0.16330042481422424, 0.037762466818094254, -0.3831668198108673, -0.2869618237018585, 0.18802382051944733, 0.012506401166319847, 0.046309370547533035, 0.007025896105915308, -0.3279602825641632, 0.009485181421041489, 0.4723687469959259, 0.1041598841547966, 0.1521657109260559], [0.07929123938083649, 0.196478009223938, 0.20934338867664337, 0.5364698171615601, -0.11645764857530594, -0.0890258252620697, -0.5524633526802063, -9.026130283018574e-05, -0.6282167434692383, 0.09711743891239166, -0.026923496276140213, 0.1570756882429123, -0.03115852177143097, 0.5559098124504089, 0.05245063081383705, 0.27174466848373413, 0.18517740070819855, -0.23523057997226715, 0.229753777384758, -0.6769809722900391, 0.02894950844347477, 0.3814743161201477, 0.14141139388084412, 0.11414151638746262, 0.054070502519607544, -0.18559570610523224, 0.22393889725208282, 0.00042546415352262557, -0.0040751188062131405, 0.485146164894104, -0.08313414454460144, 0.0326424315571785], [-0.20133483409881592, -0.12790563702583313, 0.32181471586227417, -0.01131458394229412, 0.09675084054470062, 0.01847418211400509, 0.11647897213697433, 0.36323273181915283, -0.062214843928813934, -0.18265627324581146, 0.0012279109796509147, 0.19764669239521027, 0.4937334656715393, 0.37546658515930176, 0.7143377661705017, -0.06221359223127365, -0.04737180098891258, -0.24364839494228363, -0.2039475291967392, 0.5300308465957642, -0.05927982181310654, 0.5174297094345093, 0.08838809281587601, -0.07330124080181122, -0.2180587649345398, 0.025776080787181854, -0.05007818713784218, -0.17584067583084106, -0.056735601276159286, -0.22572973370552063, -0.11161287873983383, 0.02909938432276249], [0.035453200340270996, -0.6507355570793152, -0.14691869914531708, 0.06522848457098007, 0.0988403782248497, -0.17071981728076935, 0.7554963827133179, 0.11349766701459885, 0.2543931305408478, -0.35154011845588684, 0.014567098580300808, 0.02444058656692505, 0.05320017412304878, 0.005463635548949242, -0.1140538826584816, -0.2506047487258911, 0.13057708740234375, -0.25211840867996216, 0.2882775068283081, -0.01592942513525486, -0.002381161553785205, -1.1733747720718384, -0.10262619704008102, 0.22379131615161896, 0.06458298861980438, -0.4742390513420105, 0.010890111327171326, -0.3260708749294281, -0.07934870570898056, 0.06757750362157822, -0.117898128926754, -0.1881934553384781], [0.06583116203546524, 0.21305695176124573, -0.11772885173559189, -0.08160728216171265, -0.16933795809745789, 0.4897475838661194, 0.02105196937918663, 0.027251675724983215, -0.14215385913848877, 0.12080856412649155, -0.06818423420190811, -0.058604076504707336, 0.020418545231223106, 0.02254749834537506, 0.1691068559885025, 0.010953173041343689, 0.15641279518604279, 0.0016678281826898456, 0.08316479623317719, -0.7051594257354736, -0.12084320932626724, -0.03737344965338707, -0.0187838152050972, -0.06461693346500397, 0.11432208865880966, -0.23511244356632233, -0.13166025280952454, 0.09298239648342133, 0.09295021742582321, -0.009248153306543827, 0.2050619274377823, 0.1384209841489792], [-0.057280853390693665, -0.16527238488197327, 0.08807092159986496, -0.19577722251415253, -0.03524765744805336, -0.008431092835962772, 0.005424993112683296, 0.1264132261276245, 0.009593432769179344, 0.20097920298576355, 0.02752704732120037, -0.0016443197382614017, -0.20320537686347961, 0.24471747875213623, 0.5400307774543762, 0.17380313575267792, 0.014688104391098022, 0.25766852498054504, 0.10953786224126816, -0.08773143589496613, 0.06958024203777313, 0.09637989848852158, 0.448264479637146, 0.28980565071105957, 0.005181348882615566, 0.10396698117256165, -0.20575477182865143, -0.24361267685890198, -0.05478497967123985, 0.09948153048753738, -0.15433569252490997, -0.303985059261322], [-0.05512435361742973, 1.0467369556427002, -0.4012649357318878, -0.05232620984315872, 0.12214098125696182, -0.07676497846841812, -0.5384440422058105, 0.02993408590555191, -1.0888563394546509, -0.35658732056617737, -0.005677639041095972, 0.5490955114364624, 0.0902915671467781, 0.03906768560409546, -0.10289759188890457, -0.10012371838092804, 0.1063971146941185, 0.11162450164556503, -0.03534283488988876, -0.08407598733901978, 0.11892169713973999, -0.7911863327026367, 0.19357894361019135, 0.054804231971502304, -0.2535337507724762, -0.17976506054401398, 2.135464906692505, -0.5079041123390198, -0.04956333339214325, 0.20363223552703857, -0.04700888320803642, -0.4260569214820862], [0.09612971544265747, -0.03347782790660858, 0.046274490654468536, -0.033523477613925934, 0.0406309999525547, -0.017399923875927925, -0.17424710094928741, -0.033758264034986496, 0.9272444248199463, 0.5745413303375244, -0.017604462802410126, -0.36679643392562866, 0.06271873414516449, 0.6353172063827515, -0.17568260431289673, 0.01987604610621929, 0.5299485325813293, -0.050082411617040634, 0.21040353178977966, 0.057803329080343246, -0.013077879324555397, -0.07826242595911026, -0.04585779830813408, 0.1335434913635254, 0.02503279410302639, 0.26931390166282654, -0.4336346685886383, 0.4836534857749939, -0.06900762021541595, -0.6547888517379761, 0.10632046312093735, -0.048738278448581696], [-0.11024712771177292, 0.05962221324443817, -0.06060083955526352, -0.08741440623998642, 0.5286188125610352, 0.12202205508947372, -0.08843081444501877, 0.07075853645801544, 0.11507095396518707, 0.05741221830248833, 0.007077367976307869, -0.005330037325620651, 0.07217808812856674, -0.02187076024711132, 0.19286730885505676, -0.2983071506023407, 0.12409692257642746, -0.10831428319215775, 0.07008814066648483, -0.2552908658981323, 0.5191934108734131, -0.015593559481203556, -0.12802188098430634, 0.08996237069368362, 0.012100711464881897, -0.01050582155585289, 0.18389327824115753, -0.05112651363015175, -0.029265224933624268, 0.11531377583742142, -0.020457245409488678, 0.1974397748708725], [0.11927963048219681, 0.38279226422309875, -0.11377092450857162, 0.16245774924755096, 0.0620330385863781, 0.04196179285645485, 0.0852423831820488, -0.057840898633003235, 0.07990695536136627, 0.33568164706230164, -0.006668987683951855, -0.4298907220363617, 0.12437993288040161, -0.15230266749858856, -0.11527995020151138, -0.013043095357716084, 0.07613729685544968, 0.02352326177060604, -0.012130126357078552, -0.11771845072507858, -0.005492630880326033, 0.08667909353971481, 0.049452800303697586, -0.128939688205719, 0.03889687359333038, 0.159592866897583, -0.0777885764837265, 0.804629385471344, 0.0036062237340956926, 0.07246903330087662, -0.011503182351589203, -0.10921576619148254], [-0.3580392897129059, -0.07958167046308517, 0.07463061809539795, -0.1242808997631073, -0.06358718127012253, -0.07754804193973541, 0.19581067562103271, -0.04393548518419266, -0.10951534658670425, 0.05948745086789131, 0.004408653825521469, 0.049833301454782486, 0.2396809607744217, -0.16921812295913696, -0.07824453711509705, 0.04356066882610321, -0.05245190113782883, -0.27027377486228943, -0.005574938841164112, -0.17539013922214508, 0.01643155701458454, -0.13423670828342438, 0.7386334538459778, -0.3576810956001282, -0.2647915184497833, 0.061950236558914185, 0.09882082790136337, 0.006657167337834835, -0.007049825508147478, -0.034997086971998215, 0.019231896847486496, 0.11594057083129883], [-0.19224318861961365, 0.10624691098928452, 0.163759246468544, -0.0349983274936676, -0.03274199739098549, 0.057642050087451935, 0.25690630078315735, 0.3654824197292328, -0.28274020552635193, 0.08274665474891663, -0.0024536324199289083, 0.12177243083715439, 0.1369657665491104, 0.07034851610660553, -0.15803351998329163, 0.005216468591243029, -0.05365649238228798, 0.3101000487804413, -0.22802145779132843, -0.006872616708278656, -0.05314195528626442, 0.38073939085006714, 0.28629934787750244, 0.3241517245769501, 0.5819194316864014, -0.22636477649211884, -0.024919399991631508, -0.12783662974834442, 0.023008005693554878, -0.17225278913974762, 0.1114276647567749, -0.3075382113456726], [-0.04775235056877136, 0.009244188666343689, -0.01602526754140854, 0.45011359453201294, 0.0661427453160286, 0.04786890372633934, -0.046453025192022324, 0.3802505433559418, -0.017106346786022186, 0.11223006248474121, 0.00023849985154811293, -0.11758361756801605, 0.29441916942596436, -0.2098633348941803, 0.4835984706878662, -0.15577420592308044, -0.19743052124977112, 0.11452824622392654, 0.2752729654312134, 0.22600561380386353, 0.053290050476789474, -0.3095533549785614, 0.27544504404067993, -0.37088489532470703, 0.5918788313865662, -0.0898364931344986, 0.014426938258111477, 0.19517023861408234, 0.04561014100909233, -0.10816853493452072, 0.023740412667393684, -0.0486157089471817], [0.023241817951202393, 0.43847012519836426, 0.0672287568449974, -0.0690111592411995, 0.10509733110666275, -0.3167426586151123, 0.055878326296806335, -0.02484540268778801, 0.3617280423641205, 0.10731235146522522, -0.0018921846058219671, 0.22137750685214996, 0.08294140547513962, -0.03564413636922836, 0.07400358468294144, 0.5783305764198303, 0.11684132367372513, -0.18535549938678741, 0.23020514845848083, -0.16961434483528137, 0.17712090909481049, -0.11093944311141968, -0.00431659072637558, -0.01848851703107357, 0.04231921583414078, 0.13727158308029175, -0.13732655346393585, -0.14973263442516327, -0.017140906304121017, -0.16692033410072327, 0.04235082492232323, 0.2878478169441223], [-0.013281142339110374, -3.2525343894958496, 0.08831075578927994, 0.09765780717134476, 0.025746801868081093, 0.10440129041671753, 0.39283624291419983, -0.010241514071822166, 0.2741708755493164, 0.5027198195457458, 0.0022085614036768675, -0.051394104957580566, -0.06835973262786865, -0.06288693100214005, 0.11010418087244034, 1.4142744541168213, -0.05396164953708649, 0.3046516478061676, -0.17089799046516418, -0.2860907018184662, -0.25603926181793213, 0.4976797103881836, -0.2399674952030182, -0.00624991487711668, 0.013487981632351875, -0.296774685382843, 1.3795585632324219, 0.3468490540981293, -0.017423231154680252, -0.04053978994488716, -0.09800529479980469, 0.1798189878463745], [0.005931926891207695, 0.4013247787952423, -1.3072905540466309, 0.14018605649471283, 0.0405176505446434, 0.0738106444478035, -0.059659965336322784, -0.06680522859096527, -2.2346930503845215, 0.19860833883285522, 0.02889905497431755, -0.19919639825820923, 0.00016990107542369515, 0.5182120203971863, -0.25273579359054565, -0.459423691034317, -0.07474469393491745, 0.1039547547698021, -0.06646020710468292, 1.2034485340118408, 0.14480721950531006, -0.06137099489569664, -0.02657541260123253, -0.13833682239055634, 0.10910852253437042, -0.6754224896430969, -0.6019384860992432, 0.1893414407968521, -0.044629719108343124, 0.5168429017066956, -0.07405593991279602, -0.45548534393310547], [0.022245192900300026, 0.058890145272016525, 0.0060085393488407135, 0.09761248528957367, 0.03872574120759964, 0.06380067020654678, 0.038328301161527634, -0.060595665127038956, -0.002699494594708085, 0.02892824448645115, 0.001034787273965776, -0.02256210707128048, -0.01836264878511429, 0.01266671996563673, -0.00018969085067510605, 0.1573147475719452, -0.09540242701768875, 0.0011596421245485544, -0.01970437914133072, 0.09798918664455414, 0.07828760892152786, 0.023885034024715424, 0.04914195090532303, -0.06056864932179451, 0.013288683257997036, -0.04074990376830101, 0.0017247054493054748, -0.030524715781211853, 0.018842516466975212, 0.03620433434844017, -0.02405957132577896, -0.07198714464902878], [-0.1400732696056366, -0.20355603098869324, 0.3224312961101532, 0.04948394000530243, -0.13128839433193207, -0.24068887531757355, -0.8114171028137207, -0.031428273767232895, 0.8462787866592407, 0.13409200310707092, 0.020454222336411476, -0.6348056793212891, -0.11366686224937439, -0.01149755623191595, -0.47165241837501526, -0.27083083987236023, 0.11276733130216599, -0.4003869593143463, 0.4844212234020233, 0.14508703351020813, 4.661758430302143e-05, -0.41410180926322937, 0.18173019587993622, -0.05198594555258751, 0.2177070677280426, 0.21374823153018951, 0.06758914142847061, 0.10863535106182098, -0.04497373104095459, 0.09601477533578873, -0.16614781320095062, -0.13588619232177734], [0.04188757762312889, 0.1291612684726715, -0.11023590713739395, 0.06762515008449554, 0.03484395146369934, 0.2082635462284088, 0.135335773229599, -0.0723208412528038, 0.1267644315958023, 0.06695318967103958, -0.007824909873306751, -0.10931845009326935, -0.06403949111700058, -0.010601154528558254, -0.14837737381458282, 0.4742768704891205, -0.12195681780576706, 0.01930985599756241, -0.1459835022687912, 0.004451771266758442, 0.06533066183328629, -0.0057394676841795444, 0.06782012432813644, -0.03820373862981796, 0.024804124608635902, 0.06396138668060303, 0.003591556567698717, 0.016594966873526573, 0.05835060775279999, 0.06482351571321487, 0.12136576324701309, -0.06243788078427315], [0.019044918939471245, 0.21043680608272552, -0.10914212465286255, 0.32228702306747437, -0.06362070143222809, 0.009611777029931545, -0.25816649198532104, -0.025109563022851944, 0.026571588590741158, -0.386393278837204, 0.015555809251964092, 0.1381996124982834, 0.03373287245631218, 0.3943255841732025, -0.3379754424095154, 0.007087579928338528, -0.031045645475387573, 0.0013835831778123975, 0.15538093447685242, 0.38202643394470215, -0.11640841513872147, -0.21172986924648285, 0.2638871669769287, -0.10469318926334381, 0.18948248028755188, 0.19404418766498566, -0.04380050301551819, 0.0011888286098837852, -0.06394806504249573, -0.3850244879722595, -0.09540776163339615, 0.7805399298667908], [-0.019207386299967766, 0.29535070061683655, -0.1096186563372612, 0.03324447199702263, 0.09672021865844727, -0.020061327144503593, 0.062235839664936066, 0.01935531757771969, 0.042868927121162415, 0.003823939012363553, -0.0020479511003941298, 0.03279879689216614, 0.0489998385310173, 0.0219192486256361, -0.03274298831820488, 0.056845128536224365, -0.05809947848320007, -0.0211942121386528, -0.023305464535951614, 0.09669677913188934, 0.03774642199277878, -0.06201400235295296, -0.13456915318965912, 0.06469223648309708, 0.0014081948902457952, 0.10823096334934235, -0.10103368759155273, 0.0010008226381614804, 0.019266316667199135, -0.051152512431144714, 0.05561255291104317, -0.0770048275589943], [0.1278330534696579, -0.0467173233628273, -0.021870218217372894, -0.03227686136960983, -0.020614832639694214, -0.041836872696876526, 0.028957197442650795, 0.05415981262922287, -0.17331548035144806, 0.42857682704925537, 0.007378225680440664, 0.5185972452163696, -0.057837314903736115, 0.02974443882703781, -0.09929326176643372, 0.0954904854297638, -0.04959156736731529, 0.03304288163781166, -0.025448564440011978, -0.08042266964912415, -0.24149134755134583, -0.027346597984433174, 0.2717679440975189, -0.017291849479079247, -0.21060895919799805, -0.04429761692881584, 0.2604576051235199, -0.07418897747993469, -0.012041285634040833, 0.004919854924082756, -0.07846154272556305, -0.0707455426454544], [-0.012021904811263084, -0.06111138314008713, 0.0874420627951622, 0.010167094878852367, -0.035066913813352585, -0.07001563906669617, 0.20685988664627075, -0.047806598246097565, -0.05408081039786339, 0.02671765722334385, 0.01463270653039217, 0.16428570449352264, 0.08687059581279755, 0.09557117521762848, -0.08435046672821045, 0.10037599503993988, 0.351035475730896, 0.14564640820026398, -0.024583395570516586, -0.2553912401199341, 0.07944343984127045, -0.06414300203323364, 0.11426254361867905, 0.03247881680727005, -0.09065888077020645, -0.024859054014086723, 0.008098354563117027, 0.09711799025535583, -0.01814020797610283, -0.1411072164773941, 0.09748595207929611, -0.15255239605903625], [0.060917213559150696, -0.01627560704946518, 0.026796121150255203, -0.024544963613152504, -0.21362318098545074, -0.0075638326816260815, -0.02224678173661232, -0.08657585829496384, 0.007258971221745014, 0.03654652088880539, 0.0010158909717574716, 0.017974158748984337, -0.04787847027182579, 0.038327906280756, -0.18288153409957886, -0.07949669659137726, 0.0076529826037585735, -0.031108934432268143, 0.10884774476289749, -0.0005983790033496916, 0.03264978528022766, -0.01574726775288582, 0.21570593118667603, -0.07661411911249161, -0.02608294039964676, 0.07412945479154587, 0.07658412307500839, 0.056289903819561005, -0.012848853133618832, 0.15207639336585999, -0.00960562378168106, 0.03374168276786804], [-0.12441351264715195, 0.05922919884324074, -0.05312419310212135, -0.1347169131040573, 0.14172086119651794, -0.04777175188064575, -0.13149692118167877, 0.006715475115925074, 0.013978399336338043, -0.07914229482412338, 0.004006114322692156, 0.03292427957057953, -0.052770521491765976, 0.09683085232973099, -0.1016417071223259, -0.19044694304466248, -0.06266190856695175, -0.11225918680429459, 0.10103368759155273, 0.02380944974720478, 0.08765352517366409, -0.03927018865942955, 0.12633007764816284, -0.14270789921283722, -0.05735969915986061, 0.1521504819393158, -0.0345553383231163, 0.10854484140872955, -0.031861625611782074, 0.10165317356586456, -0.10612625628709793, 0.08532445132732391], [-0.0019078438635915518, 0.0021780242677778006, -0.03007880598306656, -0.054799798876047134, -0.046401623636484146, 0.03828542307019234, -0.011925602331757545, 0.046117279678583145, -0.010275819338858128, 0.021822191774845123, -0.0033408922608941793, -0.014763491228222847, -0.021032782271504402, 0.001524570514447987, 0.0018231029389426112, 0.08881715685129166, 0.005050276406109333, 0.03651244565844536, 0.01486351527273655, 0.03288809582591057, -0.04306067153811455, 0.03713707998394966, 0.09626512974500656, -0.08444083482027054, 0.001128078205510974, -0.004296291619539261, 0.05160314962267876, 0.007306980434805155, 0.00786509457975626, -0.010011568665504456, 0.03493550792336464, 0.010086354799568653], [-0.1941685527563095, -0.01089404709637165, 0.10931524634361267, 0.07354871183633804, -0.059251051396131516, -0.037614285945892334, 0.1235908567905426, 0.039916276931762695, -0.13351066410541534, 0.13374722003936768, -0.0037457263097167015, 0.19197618961334229, 0.09177865833044052, 0.012695771642029285, 0.13294942677021027, -0.02174006961286068, -0.04913497716188431, 0.1088428795337677, -0.11562829464673996, -0.07960110902786255, 0.03568661957979202, -0.06857842206954956, -0.00936234649270773, 0.2461261749267578, 0.03827119246125221, 0.27541208267211914, -0.004099162295460701, 0.05328811705112457, 0.009775415994226933, -0.11816687136888504, 0.00028526538517326117, -0.17753545939922333], [-0.09998603165149689, 0.006937483791261911, -0.12546934187412262, -0.0004176821676082909, 0.08740373700857162, 0.0360589362680912, 0.05355929955840111, 0.08667878806591034, -0.0019988396670669317, -0.019791776314377785, -0.0002395398769294843, 0.031002886593341827, 0.008190926164388657, 0.139198899269104, 0.020499160513281822, 0.10824627429246902, 0.024869685992598534, 0.15479232370853424, 0.09624277800321579, -0.11198519170284271, 0.03999289125204086, 0.017442278563976288, 0.15176741778850555, 0.07448169589042664, 0.09157692641019821, 0.09230688214302063, 0.10945600271224976, -0.02391486056149006, 0.001967440824955702, 0.047977935522794724, 0.037049248814582825, -0.02973603829741478], [-0.02281973883509636, -0.10694563388824463, 0.09401373565196991, 0.03927069529891014, -0.06016886606812477, 0.017680753022432327, 0.033206839114427567, -0.017042728140950203, -0.11963463574647903, 0.09567919373512268, -0.000976643175818026, -0.02091633342206478, -0.03012273460626602, 0.016928263008594513, 0.05742524564266205, -0.07737388461828232, -0.030565477907657623, 0.11727014183998108, -0.06058994308114052, -0.0009514339617453516, -0.01471965666860342, 0.08418852835893631, 0.01287464052438736, 0.0442616268992424, 0.009998872876167297, 0.19897258281707764, 0.06141234561800957, 0.01590682566165924, 0.0010461992351338267, -0.02444843016564846, -0.04555384814739227, 0.00526032317429781], [0.0700661763548851, -0.11028066277503967, -0.07156477123498917, 0.013393666595220566, 0.06129337102174759, -0.08225688338279724, -0.06299684196710587, 0.09456337988376617, -0.25621795654296875, 0.023168640211224556, 0.013631684705615044, 0.017264189198613167, -0.06834743171930313, 0.21160197257995605, 0.15864644944667816, 0.37508371472358704, -0.019556621089577675, 0.2656368017196655, 0.1545703411102295, -0.1625714898109436, -0.16868282854557037, -0.06595145910978317, -0.0006581328343600035, 0.050107307732105255, -0.044326625764369965, 0.3720046281814575, 0.16062094271183014, -0.19046685099601746, -0.024363700300455093, -0.16549117863178253, 0.1110629141330719, -0.012719270773231983], [-0.00047803291818127036, 0.00039739851490594447, -0.0006863920134492218, -0.00038993777707219124, 0.00040037024882622063, 0.0006443980382755399, 0.0003145169757772237, 2.710674198169727e-05, 8.606457413407043e-05, 0.00040558588807471097, -0.00026102468837052584, 0.0003985518414992839, -0.0006010259385220706, 0.0008076237281784415, 0.00020824995590373874, 0.0009792078053578734, 0.0004299322608858347, -0.00013469820260070264, -2.4653771106386557e-05, -0.000815942941699177, 0.0013779272558167577, -0.0005403276882134378, 0.00037538071046583354, -0.0006655487813986838, 0.0008687693625688553, 0.0007181790424510837, 2.0441782908164896e-05, -0.00048496664385311306, 0.00039904966251924634, 8.265465112344828e-06, 0.00017147396283689886, 4.806530341738835e-05], [-0.010753517039120197, 0.08591906726360321, 0.03669752925634384, -0.037854768335819244, 0.10709629952907562, 0.1482955366373062, 0.0655202865600586, -0.05374547466635704, -0.03696765750646591, -0.06035672128200531, -0.009395288303494453, -0.36709433794021606, 0.037667397409677505, -0.27481117844581604, -0.06907561421394348, -0.11051499098539352, -0.03567292541265488, 0.13729959726333618, 0.08927395194768906, 0.08716340363025665, -0.06630659103393555, 0.04945530369877815, -0.05342820659279823, -0.03744100034236908, 0.2730376422405243, 0.14439134299755096, 0.16568821668624878, -0.061501387506723404, 0.020431429147720337, 0.03592804819345474, 0.06900257617235184, 0.11059693247079849], [-0.015235032886266708, 0.17734776437282562, 0.05640522763133049, -0.0159292109310627, 0.06670040637254715, -0.020773351192474365, 0.07652788609266281, -0.027855876833200455, 0.007187045644968748, 0.06453744322061539, -0.0008080702973529696, 0.033633582293987274, 0.17627015709877014, -0.02774687670171261, 0.053815532475709915, 0.008435231633484364, -0.027087710797786713, 0.012003743089735508, -9.352889173896983e-05, -0.00022271586931310594, 0.03450201451778412, -0.019794413819909096, -0.09510516375303268, 0.06424324959516525, 0.01622539944946766, 0.24808916449546814, 0.06981073319911957, -0.026538372039794922, 0.0020917344372719526, -0.05153818801045418, 0.03973029926419258, 0.03452277556061745], [0.0017110953340306878, -0.1609267294406891, 0.34444499015808105, 0.036236077547073364, 0.02083970047533512, 0.06082497537136078, 0.10969618707895279, -0.004105046391487122, -0.09347215294837952, 0.00793607160449028, -0.003730586264282465, 0.3114056885242462, -0.042039655148983, -0.09594742953777313, 0.11709173768758774, 0.05686168745160103, -0.07377669960260391, -0.02378053590655327, -0.01812847889959812, -0.1427164524793625, 0.038956593722105026, -0.15433117747306824, -0.05926554650068283, 0.08112919330596924, 0.07610023021697998, 0.18107397854328156, 0.3255421817302704, 0.052186205983161926, 0.009172167629003525, -0.16811928153038025, -0.1399671882390976, 0.03918295353651047], [0.10862895846366882, -0.007088152226060629, -0.058280207216739655, 0.027768772095441818, 0.056326333433389664, -0.018213629722595215, 0.02703014761209488, 0.007728534284979105, -0.04252338036894798, 0.06928445398807526, -0.002965579740703106, 0.08047064393758774, -0.07705147564411163, 0.2020704448223114, -0.016817258670926094, -0.039585527032613754, 0.007695192936807871, 0.06793247908353806, 0.1086864098906517, -0.016716813668608665, 0.010115878656506538, 0.019962208345532417, 0.06187928467988968, 0.03042786195874214, -0.012362737208604813, 0.09715410321950912, 0.09821727871894836, -0.09762106090784073, 0.005701717454940081, -0.004957970697432756, -0.04610224440693855, 0.08688574284315109], [-0.0053992001339793205, 0.0628904178738594, 0.004810928832739592, 0.015301240608096123, 0.012789049185812473, 0.031472258269786835, 0.037690967321395874, -0.02441375143826008, -0.05285286903381348, 0.208769291639328, -0.0005534513620659709, 0.05383016914129257, -0.03367039933800697, 0.09131616353988647, 0.03742145374417305, -0.0737067237496376, 0.010423554107546806, 0.0164045300334692, -0.014020590111613274, -0.024830855429172516, 0.1726987212896347, 0.0457487553358078, 0.07344968616962433, -0.03220831975340843, 0.04450935125350952, 0.06466911733150482, 0.06996841728687286, 0.008978785946965218, -0.004919967148452997, -0.0020017612259835005, -0.04831792786717415, 0.002221106318756938], [0.0072207460179924965, 0.05805067718029022, 0.05930201709270477, 0.00970547366887331, 0.10373486578464508, 0.029184803366661072, 0.03173677623271942, 0.04059768095612526, 6.509600643767044e-05, 0.14780545234680176, -0.001203165273182094, 0.05500231310725212, 0.006343093700706959, -0.026167508214712143, -0.012618578970432281, 0.03362263739109039, -0.03132782503962517, -0.01232515461742878, -0.04369314759969711, -0.06124407425522804, 0.08565863221883774, -0.004686901345849037, -0.020877938717603683, 0.039264529943466187, 0.03641291335225105, 0.08565777540206909, 0.014846558682620525, -0.02345195971429348, -0.00030697169131599367, -0.015848426148295403, 6.23704690951854e-05, 0.02951798401772976], [0.009610130451619625, 0.16829605400562286, 0.037965189665555954, -0.07474054396152496, -0.04215719550848007, -0.04049046337604523, -0.012006140314042568, -0.12016436457633972, 0.08058436214923859, 0.01924836076796055, -0.0055623180232942104, 0.026153817772865295, -0.017542574554681778, 0.0022908751852810383, -0.07168401032686234, 0.040742721408605576, 0.042918991297483444, -0.018006611615419388, 0.015770867466926575, -0.06265286356210709, -0.10885951668024063, 0.06637518852949142, -0.01434264425188303, -0.11641927808523178, -0.11732561886310577, 0.16776318848133087, -0.02207840047776699, 0.022276325151324272, -0.0025220157112926245, 0.05658037215471268, 0.04352356120944023, 0.024670541286468506], [0.032832350581884384, 0.032945480197668076, 0.11586052179336548, 0.0705798864364624, 0.03962244093418121, 0.033489618450403214, -0.04077260196208954, -0.05768124759197235, 0.47255751490592957, 0.3474511206150055, -0.009346476756036282, 0.20099449157714844, 0.30021944642066956, -0.2277783453464508, -0.060200054198503494, 0.29819440841674805, 0.1395445317029953, -0.2172793298959732, 0.48639699816703796, -0.16669969260692596, 0.050702791661024094, 0.3794482350349426, -0.25329986214637756, 0.06588370352983475, 0.17957133054733276, 0.5734774470329285, 0.05515541508793831, -0.45618340373039246, 0.009717388078570366, 0.09746991097927094, 0.13071568310260773, 0.011770982295274734], [0.018115464597940445, -0.14847256243228912, 0.07055044919252396, -0.024109825491905212, 0.11571624130010605, 0.027500750496983528, 0.01965275965631008, 0.07972623407840729, 0.0002959890407510102, 0.1256379336118698, -0.0010222913697361946, -0.010095599107444286, 0.008082612417638302, -0.09200064837932587, 0.029995903372764587, 0.03822006285190582, -0.0323101170361042, -0.028448989614844322, -0.15013457834720612, -0.10216176509857178, 0.019448013976216316, 0.00732040498405695, -0.03519845008850098, 0.04928773269057274, 0.03884392976760864, -0.0036183572374284267, -0.03477780148386955, 0.028199555352330208, -0.010393056087195873, -0.018153268843889236, -0.03188697621226311, 0.07150980830192566], [-0.016636863350868225, 0.08340167999267578, 0.11025954782962799, 0.0028900050092488527, -0.015351032838225365, 0.03806668892502785, -0.02267323061823845, -0.04507165774703026, 0.10624343156814575, 0.040432509034872055, -0.0008462691912427545, 0.10669656097888947, -0.14300042390823364, 0.05113879591226578, 0.024443455040454865, -0.04852018132805824, -0.0004835475410800427, -0.03497489541769028, 0.046406712383031845, -0.03263204172253609, 0.018500832840800285, 0.08285979181528091, 0.05576486885547638, -0.12213601171970367, -0.025655226781964302, 0.13638198375701904, 0.06012854352593422, 0.12290792167186737, -0.009834453463554382, -0.02945846877992153, -0.0426454059779644, 0.016918562352657318], [0.1602323055267334, 0.005354663357138634, -0.06063392758369446, -0.015571117401123047, -0.032908596098423004, 0.024090582504868507, -0.07249648123979568, 0.016187544912099838, -0.1916140466928482, 0.08202680200338364, -0.002843878697603941, 0.14510539174079895, -0.027368661016225815, 0.0009474731050431728, -0.15207093954086304, 0.07031010836362839, -0.033549532294273376, 0.09379788488149643, -0.19092361629009247, -0.061806462705135345, -0.07277951389551163, -0.01991540752351284, 0.07275411486625671, 0.022520044818520546, -0.06731729954481125, 0.3830048441886902, 0.07148990035057068, 0.00041000591591000557, -0.005689886398613453, 0.01058708131313324, 0.010648326016962528, 0.13720043003559113], [0.06531680375337601, 0.08092062175273895, 0.11242736130952835, -0.16381849348545074, -0.02403102070093155, -0.08023577928543091, 0.11654987186193466, -0.030995478853583336, 0.05428127571940422, 0.04862218350172043, 0.0017179683782160282, -0.006314564496278763, -0.08409253507852554, -0.06634800881147385, -0.06892528384923935, -0.17869260907173157, -0.013138512149453163, 0.007653038948774338, 0.016329027712345123, -0.0816478580236435, 0.15604031085968018, 0.0697210431098938, 0.05845724418759346, -0.044935066252946854, -0.16658632457256317, 0.22210144996643066, 0.014522847719490528, -0.007789646741002798, -0.0052056643180549145, -0.0077119022607803345, -0.01348959282040596, 0.08285880088806152], [-0.01567176729440689, 0.07005246728658676, -0.007368643302470446, -0.05888397991657257, -0.13213007152080536, -0.008584929630160332, 0.04976166784763336, 0.11205942183732986, -0.04847690835595131, 0.04740019887685776, 0.0005248553352430463, 0.1072537899017334, 0.04326063394546509, -0.004386679735034704, 0.054780054837465286, -0.1350645124912262, 0.0613926537334919, -0.07406817376613617, -0.03678938001394272, 0.060205306857824326, 0.12406132370233536, -0.04476556181907654, -0.021539228036999702, -0.06894200295209885, -0.0017828764393925667, 0.09047394245862961, -0.15713511407375336, 0.021007711067795753, -0.013957003131508827, 0.004251174628734589, -0.03069016896188259, 0.0029906928539276123], [-0.04405377805233002, 0.019905559718608856, -0.05516040325164795, -0.10591943562030792, -0.13660474121570587, -0.023770015686750412, -0.09304596483707428, -0.06841875612735748, -0.020199574530124664, -0.020633496344089508, 0.005756842438131571, 0.05565148591995239, -0.02381983771920204, 0.12865488231182098, -0.04632249101996422, -0.17091242969036102, -0.07015177607536316, -0.01569356769323349, -0.003920597489923239, 0.021767448633909225, 0.05796623229980469, 0.003951299469918013, -0.02996472828090191, -0.1362769901752472, -0.06610552966594696, 0.06576304882764816, 0.10654330998659134, 0.052233729511499405, -0.022186072543263435, 0.05629798024892807, -0.06979895383119583, 0.03315509483218193], [0.05611208453774452, 0.5147324204444885, 0.03944942355155945, -0.059975046664476395, -0.010219436138868332, -0.1016138568520546, 0.07252828031778336, 0.009041542187333107, 0.2880120575428009, 0.19904004037380219, -0.007885443046689034, 0.030413135886192322, -0.02637469209730625, -0.2373262643814087, 0.06370818614959717, 0.19354982674121857, 0.06871593743562698, 0.06041300669312477, 0.12404387444257736, -0.04903296008706093, -0.04960118606686592, 0.18167349696159363, 0.17240941524505615, -0.14518846571445465, -0.12362612038850784, 0.474149227142334, -0.1332262009382248, -0.0719219520688057, 0.017362335696816444, -0.09465207904577255, 0.18345043063163757, -0.04567035287618637], [0.17734192311763763, -0.5266265273094177, 0.23298794031143188, -0.26997554302215576, -0.2560213804244995, 0.1309908777475357, -0.354770302772522, -0.16984805464744568, 0.18525944650173187, -0.0016616658540442586, -0.018321866169571877, 0.3026968240737915, 0.056687235832214355, 0.13958531618118286, -0.1265956461429596, 0.2625183165073395, 0.057830069214105606, -0.1768852174282074, -0.656807005405426, -0.01554972492158413, 0.08551645278930664, 0.36474090814590454, -0.16007398068904877, -0.05137433484196663, -0.09619534015655518, -0.9196090698242188, -0.34727030992507935, 0.20482288300991058, 0.01786992885172367, -0.014206874184310436, 0.02643885836005211, 0.08974315226078033], [-0.046709682792425156, 0.16599930822849274, -0.03015761822462082, 0.1269528716802597, 0.13929177820682526, 0.0908590629696846, 0.14332732558250427, 0.017805343493819237, -0.3244209587574005, -0.17370693385601044, -0.003898095106706023, -0.05022416263818741, -0.10410378873348236, -0.04153522476553917, 0.031060120090842247, 0.021591613069176674, 0.017885519191622734, 0.025525454431772232, -0.03607083857059479, 0.014225742779672146, -0.052539750933647156, -0.13841821253299713, -0.08640158176422119, 0.05464477464556694, 0.16069810092449188, -0.13673608005046844, -0.14675043523311615, 0.03614436089992523, 0.004085385240614414, -0.07848694920539856, -0.07678905129432678, -0.0960908830165863], [-0.00786948949098587, 0.010378067381680012, 8.253617124864832e-05, 0.004664852283895016, -0.00042908795876428485, -0.007828149013221264, 0.00012713017349597067, -0.01402603555470705, -0.001090102712623775, -0.002852801000699401, 0.0005872089532203972, -0.00827869027853012, 0.004010170232504606, 0.005942346528172493, 0.0007586025167256594, -0.016894254833459854, -0.001130534685216844, -0.0054095033556222916, -0.0036016625817865133, -4.6995937736937776e-05, 0.010426758788526058, 0.003473343327641487, -0.007199238054454327, -0.0030086173210293055, -0.0045720371417701244, 0.009182545356452465, -0.007499874569475651, 4.033212007925613e-06, -0.0005681354086846113, -0.0012085710186511278, -0.0038825746160000563, 0.00018733181059360504], [0.0005906174192205071, -0.12481171637773514, -0.017543084919452667, 0.024712810292840004, 0.06626970320940018, -0.010725384578108788, -0.1619681864976883, 0.03662579506635666, -0.05677793547511101, -0.018715064972639084, -0.0012533791596069932, -0.03289240598678589, -0.06145209074020386, 0.0005775071331299841, -0.14658252894878387, -0.12550820410251617, 0.020876390859484673, 0.0017849894938990474, 0.019585981965065002, -0.0026316912844777107, -0.0024148363154381514, 0.058230455964803696, -0.0631590336561203, -0.01077764667570591, -0.04741598665714264, 0.10231828689575195, -0.15553222596645355, 0.04162999242544174, 1.1450337296992075e-05, 0.07049635797739029, -0.02383645437657833, -0.014723827131092548], [0.028274495154619217, -0.23584063351154327, 0.010042623616755009, 0.009495441801846027, -0.10191088914871216, -0.0035595425870269537, 0.019825955852866173, 0.04556829854846001, -0.07214752584695816, -0.00474290456622839, 0.002392375376075506, -0.08879910409450531, -0.05479417368769646, 0.008546535857021809, -0.06535252183675766, 0.04631504416465759, 0.029491722583770752, 0.08701249212026596, 0.0142208905890584, -0.10736657679080963, -0.02667558193206787, 0.07262194901704788, 0.07886158674955368, 0.00598521251231432, -0.09840518981218338, 0.04121556505560875, 0.1198548823595047, -0.017895730212330818, -0.006639227736741304, -0.004120153840631247, 0.01582948863506317, 0.0314924381673336], [-0.08376745879650116, -0.04821985587477684, 0.016643792390823364, 0.04639168083667755, -0.044557880610227585, -0.08307301253080368, 0.14897504448890686, 0.07465643435716629, 0.06729181855916977, 0.08711322396993637, 0.006143596023321152, -0.01354099903255701, -0.06547054648399353, 0.04724131524562836, -0.005959273781627417, -0.22815798223018646, -0.03719855472445488, -0.03371231630444527, -0.11083387583494186, 0.15322895348072052, -0.02391429804265499, 0.03681616485118866, -0.006135962903499603, -0.029573509469628334, -0.10745149850845337, -0.0288340263068676, -0.02102826163172722, 0.045738037675619125, -0.0064156269654631615, 0.166780486702919, 0.029562991112470627, -0.17475342750549316]], "rec.bias_ih_l0": [-1.014379620552063, 0.11155711859464645, -0.6341258883476257, -0.5164682865142822, 0.08898276090621948, 0.1105760857462883, -2.6131067276000977, -0.6015372276306152, 0.6213198900222778, -2.2347655296325684, 0.0021029526833444834, 0.242033451795578, -0.5277668833732605, -0.874792218208313, -0.1331937611103058, 0.641758143901825, 0.3958996832370758, -0.49734804034233093, -1.8459604978561401, 0.5406248569488525, -0.07524938136339188, -1.8718920946121216, -0.7946733832359314, -0.5258967876434326, -0.2866065502166748, -0.43167203664779663, 0.32740524411201477, -2.7889420986175537, 0.027593297883868217, -0.05717705190181732, 0.11761624366044998, -1.5998892784118652, 1.2096774578094482, 0.07410131394863129, 1.006487250328064, 0.9860000610351562, 0.4323503077030182, 0.15611660480499268, 2.205216407775879, 0.8231162428855896, 0.0035523248370736837, 2.6244986057281494, -0.0015656143659725785, 0.7934011816978455, 0.8342695832252502, 0.7921006679534912, 0.6738883852958679, 0.1446511447429657, 0.14131680130958557, 0.6707644462585449, 2.7944447994232178, 0.06715601682662964, 0.5262096524238586, 1.7215523719787598, 1.0097484588623047, 0.7111725807189941, 0.694884717464447, 0.2981056571006775, 0.18630138039588928, 2.7242352962493896, 0.01739758998155594, 0.5641143321990967, 0.10364987701177597, 1.8467092514038086, -0.02642878331243992, 0.08927280455827713, 0.023622240871191025, -0.0007925380486994982, 0.01796187460422516, 0.011695276945829391, -0.06699571758508682, 0.008906782604753971, -0.0809406265616417, 0.04587099328637123, -0.0015561669133603573, -0.0499519407749176, -0.023189546540379524, 0.03882191330194473, -0.012599797919392586, 0.032654546201229095, 0.0007286873296834528, 0.032562706619501114, -0.14620435237884521, -0.032490428537130356, -0.019638963043689728, 0.04501998797059059, 0.0073527079075574875, 0.021488985046744347, 0.018104523420333862, -0.0616249144077301, -0.07691287994384766, 0.03138498216867447, 0.0022623748518526554, -0.03531371429562569, 0.002833100501447916, 0.05536901578307152, -0.0338858887553215, 0.3254242539405823, -0.26832401752471924, 0.12864358723163605, 0.22480273246765137, 0.12213864177465439, 0.10959181934595108, 0.03165610134601593, 0.9024336338043213, -0.03812069818377495, 0.0020935533102601767, -0.37685322761535645, 0.05180787295103073, -0.18444067239761353, 0.06910000741481781, 0.7552504539489746, 0.41732868552207947, 0.04531603306531906, -0.8775943517684937, 0.6829090118408203, 0.14776743948459625, 0.3405973017215729, 0.1399235725402832, 0.07420861721038818, 0.1875135749578476, 0.013098656199872494, -0.5998129844665527, 0.3927752673625946, 0.02787199802696705, 0.2567380964756012, 0.14831368625164032, 0.1366407722234726], "rec.bias_hh_l0": [-1.014379620552063, 0.11155711859464645, -0.6341258883476257, -0.5164682865142822, 0.08898276090621948, 0.1105760857462883, -2.6131067276000977, -0.6015372276306152, 0.6213198900222778, -2.2347655296325684, 0.0021029526833444834, 0.242033451795578, -0.5277668833732605, -0.874792218208313, -0.1331937611103058, 0.641758143901825, 0.3958996832370758, -0.49734804034233093, -1.8459604978561401, 0.5406248569488525, -0.07524938136339188, -1.8718920946121216, -0.7946733832359314, -0.5258967876434326, -0.2866065502166748, -0.43167203664779663, 0.32740524411201477, -2.7889420986175537, 0.027593297883868217, -0.05717705190181732, 0.11761624366044998, -1.5998892784118652, 1.2096774578094482, 0.07410131394863129, 1.006487250328064, 0.9860000610351562, 0.4323503077030182, 0.15611660480499268, 2.205216407775879, 0.8231162428855896, 0.0035523248370736837, 2.6244986057281494, -0.0015656143659725785, 0.7934011816978455, 0.8342695832252502, 0.7921006679534912, 0.6738883852958679, 0.1446511447429657, 0.14131680130958557, 0.6707644462585449, 2.7944447994232178, 0.06715601682662964, 0.5262096524238586, 1.7215523719787598, 1.0097484588623047, 0.7111725807189941, 0.694884717464447, 0.2981056571006775, 0.18630138039588928, 2.7242352962493896, 0.01739758998155594, 0.5641143321990967, 0.10364987701177597, 1.8467092514038086, -0.03801700845360756, 0.08927280455827713, 0.023622240871191025, 0.005931631196290255, 0.01796187460422516, 0.011695276945829391, -0.06699571758508682, 0.008906782604753971, -0.0809406265616417, 0.04587099328637123, -0.0015561669133603573, -0.0499519407749176, -0.023189546540379524, 0.03882191330194473, -0.012599797919392586, 0.032654546201229095, 0.0007286873296834528, 0.03256422281265259, -0.14620435237884521, -0.032490428537130356, -0.019638963043689728, 0.04501998797059059, 0.00735270231962204, 0.021488985046744347, 0.018104523420333862, -0.0616249144077301, -0.07691287249326706, 0.03138498216867447, 0.0022623748518526554, -0.03531371429562569, 0.002833100501447916, 0.05536901578307152, -0.0338858887553215, 