{"model_data": {"model": "SimpleRNN", "input_size": 1, "skip": 1, "output_size": 1, "unit_type": "LSTM", "num_layers": 1, "hidden_size": 20, "bias_fl": true}, "state_dict": {"rec.weight_ih_l0": [[-0.20170187950134277], [0.007062411867082119], [0.002054545097053051], [-0.08867376297712326], [0.013272366486489773], [0.0003627266560215503], [0.026016240939497948], [0.051547568291425705], [0.000814879487734288], [0.04841706529259682], [-0.00026979719405062497], [-0.004201875068247318], [0.0007254504016600549], [0.002244501607492566], [-0.03162665665149689], [0.037774864584207535], [0.0006366659654304385], [-0.0005531977512873709], [0.015201393514871597], [-0.00397548358887434], [0.02141560986638069], [0.005747870542109013], [-0.0005860100500285625], [-0.05252028629183769], [0.00681730080395937], [0.0013870919356122613], [0.03399471938610077], [0.08257295191287994], [0.0009522023610770702], [0.024478495121002197], [0.00010307809134246781], [-0.0006333104684017599], [0.0009833285585045815], [0.00155172951053828], [0.22292174398899078], [0.022288724780082703], [0.0011963373981416225], [-0.00044741391320712864], [0.008602122776210308], [-0.0046177394688129425], [2.338771104812622], [-0.09669145941734314], [-0.010797039605677128], [2.115119695663452], [0.04321639612317085], [0.06453447043895721], [0.06579838693141937], [1.3132984638214111], [-0.09486524760723114], [0.17987124621868134], [0.0023751123808324337], [-0.0643482357263565], [0.055229175835847855], [0.062011443078517914], [2.319789171218872], [-0.35396426916122437], [-0.053129374980926514], [-0.07190055400133133], [0.0857345312833786], [0.004128806293010712], [-0.15225036442279816], [0.006207280792295933], [0.0016119430074468255], [-0.06505585461854935], [0.012039944529533386], [4.534041727310978e-05], [0.02631356380879879], [0.07905933260917664], [0.00039050859049893916], [0.04770053178071976], [-0.00028799602296203375], [-0.00437800120562315], [0.0006092619150876999], [0.0021405646111816168], [0.034507498145103455], [0.03659406304359436], [0.0006450214423239231], [-0.0006874969694763422], [0.013599355705082417], [-0.005870588589459658]], "rec.weight_hh_l0": [[0.03177080675959587, -0.05516451597213745, 0.025133000686764717, 0.0334918349981308, 0.03700176253914833, 0.01409072894603014, 0.018925132229924202, 0.15708859264850616, -0.019311096519231796, 0.04013117775321007, -4.738327697850764e-05, 0.053808119148015976, -0.005995910614728928, 0.016367752104997635, 0.14666536450386047, -0.032362550497055054, -0.002992481691762805, -0.02144908346235752, 0.025095442309975624, -0.03290620446205139], [0.01431948971003294, -0.0014524770667776465, -0.0016154707409441471, 0.011881290003657341, -0.0008852110477164388, 0.0004631062038242817, 0.004894520156085491, 0.005979113280773163, -0.0005416732747107744, 0.001265594270080328, 0.00019000777683686465, -0.00041591792250983417, -0.00036076834658160806, -0.0001926151744555682, 0.007899719290435314, -0.001185582485049963, -0.0006721236859448254, 0.0011782476212829351, -1.926812001329381e-05, 0.003044405486434698], [0.0007200816180557013, 0.001819693366996944, -0.0005382401286624372, 0.00020899968512821943, -0.0016884527867659926, -0.0009368305909447372, 0.006224683951586485, 0.0002072079514618963, -0.0001682079746387899, -0.0006779104587621987, 0.00023105119180399925, -0.0029648058116436005, -5.029130261391401e-05, -9.22566105145961e-05, 0.0008602577727288008, 0.0007702460279688239, -0.0005865637795068324, 0.00047561019891873, -0.0017322537023574114, 0.005968912038952112], [0.01174116600304842, -0.04874441772699356, 0.029566720128059387, 0.014134645462036133, 0.04613827168941498, 0.01792910322546959, 0.008578604087233543, 0.07481694966554642, -0.009546946734189987, 0.04812443256378174, -0.00026320398319512606, 0.03658963367342949, 0.0023301332257688046, 0.015450403094291687, 0.07335742563009262, -0.019228830933570862, -0.0021542715840041637, -0.018019992858171463, 0.022032462060451508, -0.03808493912220001], [0.01479311939328909, 0.0026195773389190435, -0.0017247094074264169, 0.010586557909846306, -0.0015891131479293108, -0.001136088278144598, 0.01851910538971424, 0.006579372100532055, -0.000575540354475379, -0.00020432262681424618, 0.0005260219913907349, -0.0055519877932965755, -0.000667377607896924, -0.0028440020978450775, 0.010885100811719894, 0.001709064352326095, -0.004454151261597872, 0.001051608589477837, -0.007391765248030424, 0.01875298283994198], [0.0021481539588421583, -0.0003177759062964469, -1.5748599253129214e-05, 0.0021155637223273516, 0.00032417947659268975, 3.401998765184544e-05, 0.00032957576331682503, 0.001821356825530529, -3.1755214877193794e-05, 0.0003862020676024258, 1.6696703823981807e-05, 0.00014460888633038849, 4.706773324869573e-05, 2.032373004112742e-06, 0.0018095305422320962, -0.00038137295632623136, -0.00014465015556197613, 5.932219664828153e-06, 5.044447971158661e-05, -0.00015236204490065575], [0.02037457935512066, -0.005841913167387247, 0.007592960260808468, 0.017923543229699135, 0.005709162447601557, 0.0012389961630105972, -0.011165368370711803, 0.01676485873758793, 0.002170794876292348, 0.003966495394706726, -0.00018105302297044545, 0.0042727431282401085, -0.0007600742974318564, 0.0003663432435132563, 0.021659186109900475, -0.0038619160186499357, 0.001958136446774006, -0.0016395046841353178, 0.0015550751704722643, 0.0023835040628910065], [0.028494270518422127, -0.02346188761293888, 0.019672121852636337, 0.02921336330473423, 0.029905294999480247, 0.009963154792785645, 0.02748524583876133, 0.05317853391170502, -0.000911206123419106, 0.03187371417880058, 0.0004329438670538366, 0.013802935369312763, 0.002197232795879245, 0.007185882423073053, 0.05387955531477928, -0.022431211546063423, -0.0042092930525541306, -0.008228933438658714, 0.013349785469472408, -0.02346814051270485], [0.0010248853359371424, -0.00012753362534567714, 6.818945985287428e-05, 0.0012735382188111544, 0.00018819497199729085, 5.0490416469983757e-05, 0.0004991209134459496, 0.0016184390988200903, -5.0159556849393994e-05, 0.00033017777604982257, 7.604604616062716e-05, -5.71787022636272e-05, 4.900212661596015e-05, 8.219615847337991e-05, 0.0014749692054465413, -0.000827757001388818, -0.0004660866688936949, -8.071085903793573e-05, 0.0007745642797090113, -0.00015843754226807505], [0.026291431859135628, -0.005059936083853245, 0.001094743376597762, 0.023223578929901123, 0.004670715890824795, 0.0013044025981798768, 0.004486910067498684, 0.020102104172110558, -0.0006315835635177791, 0.005485345143824816, 0.00021731702145189047, -0.00034765058080665767, 0.00013767281780019403, 0.000913110445253551, 0.034385066479444504, -0.005006624851375818, -0.0002881013206206262, 0.0009421627037227154, 0.0019679153338074684, -0.00033833892666734755], [0.00014536763774231076, -2.7233665605308488e-05, 7.160651421145303e-06, 0.0001384125935146585, -1.4397294762602542e-05, 1.0124708751391154e-05, 7.620122687512776e-06, 0.00014336845197249204, -1.4826176993665285e-05, 3.321121403132565e-05, 2.417530993170658e-07, -5.426849156719982e-07, 4.130293291382259e-06, 5.959103418717859e-06, 0.0001559911761432886, -4.541656016954221e-05, -5.833054729009746e-06, -7.938496082715574e-07, 2.5997209377237596e-05, -2.6540736143942922e-05], [0.0008007439901120961, 0.00016442003834526986, -0.0020505974534898996, 5.429107113741338e-05, -0.0022055075969547033, -0.00020311672415118665, 0.0016943099908530712, -0.0020596899557858706, -0.00013415631838142872, -0.0020320292096585035, 7.879817712819204e-05, -0.00010305905743734911, -0.0005134597886353731, -0.0005855862400494516, -0.0015296994242817163, 0.0008704931824468076, -0.00011723175703082234, 0.0014319909969344735, -0.0012338999658823013, 0.0019467691890895367], [0.001429552212357521, -0.00022605752747040242, 0.00013244972797110677, 0.0011453444603830576, 1.967627576959785e-05, 5.737457104260102e-05, 0.00029737938893958926, 0.0011698623420670629, -3.982089401688427e-05, 5.1023551350226626e-05, -7.656411980860867e-06, 0.0001371488906443119, 9.499430598225445e-05, 5.741613222198794e-06, 0.0015597270103171468, -0.0002026462316280231, 6.46035696263425e-05, 1.5113805602595676e-05, 7.570553862024099e-05, 4.257052933098748e-05], [0.0018838203977793455, -0.00025592203019186854, 0.00012438652629498392, 0.001693177386187017, 0.00022759292914997786, 0.00011259222810622305, 0.0002138891868526116, 0.0018734770128503442, -4.543629620457068e-05, 0.00028703350108116865, 5.999238965159748e-06, 1.7326638044323772e-05, 1.4151587492960971e-05, 3.364971780683845e-05, 0.002259060274809599, -0.00042931712232530117, -4.833802813664079e-05, -9.49578097788617e-05, 0.0002287491224706173, -0.0002429000596748665], [-0.010200833901762962, -0.050557252019643784, 0.026996610686182976, -0.009470961056649685, 0.0248771533370018, 0.003654555883258581, 0.033845897763967514, 0.1246221512556076, -0.027817318215966225, 0.03620397299528122, 0.0008613808895461261, 0.04757755994796753, -0.021441757678985596, 0.008091993629932404, 0.14358630776405334, -0.040038250386714935, -0.005399842746555805, -0.015214013867080212, 0.022346630692481995, -0.012818444520235062], [0.014245167374610901, -0.0027972874231636524, 0.003058907575905323, 0.011528385803103447, 0.0059838732704520226, 0.0013862269697710872, 0.004155777860432863, 0.01885034330189228, -0.0007860115147195756, 0.0051232012920081615, 0.00024110214144457132, 0.0019121156074106693, 0.0003954409039579332, 0.0010588787263259292, 0.0277960654348135, -0.0014150649076327682, -0.0008568701450712979, -0.0012837997637689114, 0.0014807289699092507, -0.0044813016429543495], [0.0007646384183317423, 4.983318649465218e-05, -0.00014431431191042066, 0.0006852171500213444, -0.00041794453863985837, -2.674511051736772e-05, 0.0014271087711676955, 0.0009626675164327025, -0.0001662209688220173, -1.127076757256873e-05, 4.134535265620798e-05, -0.0001236783864442259, -2.1855526938452385e-05, 1.596182119101286e-05, 0.0009487985516898334, -0.00020617575501091778, -5.371982479118742e-05, 0.0003026961348950863, 1.556719325890299e-05, 0.0005897214869037271], [0.0006605791859328747, 8.691162656759843e-05, -0.00011861159873660654, 0.0004901426727883518, -0.0002809920406434685, -4.0312173950951546e-05, 0.0011220278684049845, -0.000185408687684685, -6.415686948457733e-05, -8.666323265060782e-05, 2.690394285309594e-05, -0.0005816014599986374, 1.6838897863635793e-05, -5.683442213921808e-05, 5.123993832967244e-05, -9.210595453623682e-05, -0.0004334836849011481, 5.100472117192112e-05, 1.7996204405790195e-05, 0.0010679790284484625], [0.007837830111384392, -0.0010268945479765534, 0.0005107094766572118, 0.006703254766762257, 0.0015104609774425626, 0.00040722257108427584, 0.0013646770967170596, 0.009165776893496513, -0.00020393184968270361, 0.0019004892092198133, 7.567813554487657e-06, 0.0006268411525525153, 0.00013567852147389203, 0.00028015481075271964, 0.011415894143283367, -0.0013302020961418748, -0.00019412953406572342, -0.0003693548496812582, 0.00055814313236624, -0.0013375341659411788], [0.0022261247504502535, 0.008433112874627113, -0.012936617247760296, -0.000602798827458173, -0.03049485571682453, -0.0037293778732419014, 0.007549436297267675, -0.002215702785179019, -0.0024044341407716274, -0.01036863587796688, 0.0005619353614747524, -0.009005761705338955, 4.668308247346431e-05, -0.00032181909773498774, 0.0009090064559131861, 0.0024408595636487007, -0.005302853882312775, 0.010205608792603016, -0.0038927062414586544, 0.005959635134786367], [-0.14821387827396393, -0.043026119470596313, 0.029261568561196327, -0.13192635774612427, 0.033548835664987564, 0.0021599072497338057, 0.005155353806912899, -0.06976128369569778, -0.018001513555645943, 0.029155680909752846, 0.0010814436245709658, 0.04712061211466789, -0.014871506951749325, 0.012604705058038235, -0.11226505041122437, 0.008170010522007942, 0.0009083557524718344, -0.0174019243568182, 0.011984146200120449, -0.024438265711069107], [0.008526979945600033, -0.0006402354338206351, -0.0010055677266791463, 0.005938301328569651, -0.0021048635244369507, 9.820947889238596e-05, 0.0034341607242822647, 0.0072775608859956264, -0.0002453875495120883, 0.0003675537009257823, 8.075738151092082e-05, -0.000711547676473856, -0.00015451003855559975, -0.00021959915466140956, 0.008440420962870121, -0.0006242804229259491, -0.0005796548794023693, 0.0008395778713747859, -1.6667027011862956e-05, 0.0023178011178970337], [-0.0015095724957063794, 0.0018057990819215775, -0.00038841000059619546, -0.0017761366907507181, -0.002229004632681608, -0.0008442130056209862, 0.0059643699787557125, -0.0007341159507632256, -0.00021423466387204826, -0.0013758362038061023, 0.00023283634800463915, -0.0029107301961630583, -4.3537183955777436e-05, -0.00012580535258166492, -0.0001121696550399065, 0.0010511712171137333, -0.0005625961348414421, 0.0005250201211310923, -0.0010817882139235735, 0.005507799796760082], [-0.06663336604833603, -0.04564214497804642, 0.03291511908173561, -0.056412745267152786, 0.053321123123168945, 0.018383946269750595, 0.0034482835326343775, -0.0460071787238121, -0.007651309948414564, 0.04913774132728577, -0.00020541157573461533, 0.031304020434617996, 0.004918432328850031, 0.016060246154665947, -0.06876615434885025, -0.0031956052407622337, -0.0009226233814842999, -0.019730011001229286, 0.018925536423921585, -0.04448319971561432], [0.004227741155773401, 0.005039791576564312, -0.0028231358155608177, -4.5686007069889456e-05, -0.0032424619421362877, -0.001788201043382287, 0.014369884505867958, 0.004176285583525896, -6.771171319996938e-05, -0.0025401439052075148, 0.0004787231155205518, -0.0054784961976110935, -0.00023653614334762096, -0.0011944649741053581, 0.007440223358571529, 0.004541965667158365, -0.003591048065572977, 0.0018679032800719142, -0.005903547164052725, 0.015723317861557007], [0.0017239560838788748, -0.00020521135593298823, -0.00010573930921964347, 0.001459047314710915, 0.00013377600407693535, 5.1540235290303826e-05, 0.0002500730915926397, 0.001778629026375711, -3.44747313647531e-05, 0.00018467842892277986, 1.5399213225464337e-05, 7.237688259920105e-05, 3.099757304880768e-05, -2.1806596123497002e-05, 0.0019215188222005963, -0.0002277419698657468, -8.809548307908699e-05, 1.0086780093843117e-05, 2.3818853151169606e-05, -2.6648995117284358e-05], [0.01718071848154068, -0.002148524159565568, 0.007217897567898035, 0.01395377330482006, 0.003140263492241502, 0.0004062276566401124, -0.008648344315588474, 0.020521478727459908, 0.0034263860434293747, 0.0003150399716105312, -0.0001334622356807813, 0.001499190810136497, 8.728666216484271e-06, 0.0003203275555279106, 0.02330641821026802, -0.002914841054007411, 0.00016968314594123513, -0.0017742348136380315, 0.0008062715642154217, 0.0014317106688395143], [0.029652176424860954, -0.028293544426560402, 0.02253284677863121, 0.029077652841806412, 0.03284892812371254, 0.01119005586951971, 0.025594094768166542, 0.022245079278945923, -0.0016968428390100598, 0.036250192672014236, 0.0002518753753975034, 0.015613446943461895, 0.0023801447823643684, 0.008161884732544422, 0.030331524088978767, -0.02215644344687462, -0.004085786174982786, -0.011194123886525631, 0.013123750686645508, -0.02622503973543644], [0.0015216852771118283, -0.00020978465909138322, -6.50282236165367e-05, 0.001821249956265092, 0.00021289389405865222, 6.644297536695376e-05, 0.00032509578159078956, 0.002527469303458929, -0.0001146122594946064, 0.00039739636122249067, 6.651366857113317e-05, -2.0645007680286653e-05, 5.1303028158145025e-05, 0.00011671584798023105, 0.002456295769661665, -0.0011470146710053086, -0.0006742929108440876, -8.343662921106443e-05, 0.0005995501414872706, 5.664942364091985e-05], [0.01780201680958271, -0.0020445981062948704, 0.0008787766564637423, 0.0158431027084589, 0.0021321922540664673, 2.248537839477649e-06, 0.0005385963013395667, 0.01488820742815733, -0.00041870115092024207, 0.003108371514827013, 3.080020542256534e-05, -0.001679593580774963, 3.4210243029519916e-05, 0.0004876234452240169, 0.01705305278301239, -0.0023290845565497875, -0.00038951318128965795, 0.0007818356389179826, 0.00023963219427969307, 0.0017124166479334235], [6.920369924046099e-05, -1.3704033335670829e-05, -6.63393211652874e-06, 6.320492684608325e-05, -3.411043144296855e-05, 6.480795036623022e-06, 5.763584795204224e-06, 0.00010920956992777064, -8.160078323271591e-06, 1.3270768249640241e-05, 3.832808488368755e-07, -9.780051186680794e-06, 6.932039582352445e-07, 4.70354007120477e-06, 0.00011367052502464503, -2.1654264855897054e-05, -3.959340574510861e-06, 4.342605848250969e-07, 1.2553385204228107e-05, -8.943732609623112e-06], [-0.00045301899081096053, 0.00028951713466085494, -0.00158490682952106, -0.0009804279543459415, -0.00212392071262002, -0.00019310263451188803, 0.0027751284651458263, -0.0012021056609228253, -7.348336657742038e-05, -0.001813662238419056, 7.453822763636708e-05, -0.00014427767018787563, -0.0002794443571474403, -0.0004447053943295032, -0.0007820380269549787, 0.0008663861663080752, -0.0001864822261268273, 0.001101272297091782, -0.0009775483049452305, 0.0016036947490647435], [0.001068266574293375, -0.00016037360182963312, 0.00014115683734416962, 0.0008411985472775996, 6.497686626971699e-06, 4.4144671846879646e-05, 0.0001749044458847493, 0.0009458436397835612, -3.3444681321270764e-05, 0.00012596407032106072, -5.928076006966876e-06, 7.544975960627198e-05, 2.157504604838323e-05, 1.1961439668084495e-05, 0.0011515918886289, -0.00014508461754303426, 5.041038821218535e-05, -1.0308127457392402e-05, 5.755695383413695e-05, -3.143916046610684e-06], [0.0012636135797947645, -0.0001335782726528123, 6.11739233136177e-05, 0.0011285010259598494, 1.6782114471425302e-05, 7.001026096986607e-05, 8.341032662428916e-05, 0.0015580783365294337, -3.822615326498635e-05, 0.00017876400670502335, 7.936682777653914e-06, 2.597365528345108e-05, 1.1372492735972628e-05, 2.6207488190266304e-05, 0.00183492514770478, -0.0002765542012639344, -3.578107862267643e-05, -3.9646685763727874e-05, 0.00013801692693959922, -0.00012922963651362807], [-0.05318645015358925, -0.04760069027543068, 0.03505963087081909, -0.05903894826769829, 0.022100692614912987, -0.006788705475628376, 0.025768306106328964, 0.02025459334254265, -0.029831191524863243, 0.032140493392944336, 0.0030735533218830824, 0.0438593365252018, -0.031568534672260284, 0.006307956762611866, 0.0508987195789814, -0.011783745139837265, -0.003307292703539133, -0.01359900739043951, 0.011956512928009033, -0.0049965414218604565], [0.010939911007881165, -0.0016314827371388674, 0.0022933543659746647, 0.00919045228511095, 0.004642777610570192, 0.0008853129693306983, 0.002740459982305765, 0.01263771764934063, -0.0007041348144412041, 0.0036809989251196384, 0.0001381236215820536, 0.001399512984789908, 0.0002572017547208816, 0.0007243755972012877, 0.018420454114675522, -0.0011072861962020397, -0.000594400626141578, -0.0009690921870060265, 0.0009121536859311163, -0.0029021878726780415], [0.000466798257548362, 9.135092841461301e-05, -0.0001749864313751459, 0.0003899395524058491, -0.0006138524040579796, -3.4469954698579386e-05, 0.0014097151579335332, 0.0010503993835300207, -0.00015193222498055547, -7.047382678138092e-05, 4.001879278803244e-05, -0.0001952859020093456, 5.962751856714021e-06, 9.915577720676083e-06, 0.0011200717417523265, -0.00016203944687731564, -6.005613977322355e-05, 0.00031479899189434946, 1.1117567737528589e-05, 0.0006464075413532555], [0.0005671847029589117, 1.0819522685778793e-05, -0.00014190345245879143, 0.0004262368893250823, -0.0004111916059628129, -5.677153239957988e-06, 0.0006490457453764975, 0.00017720791220199317, -4.2422481783432886e-05, -0.00017478691006544977, 1.2959421837877017e-05, -0.0004396973818074912, 1.574015368532855e-05, -2.2402475224225782e-05, 0.00029184954473748803, -4.9486970965517685e-05, -0.00026708870427682996, 4.78995316370856e-05, 6.293133083090652e-06, 0.0005227167275734246], [0.00578498188406229, -0.0006465992773883045, 2.992613553942647e-05, 0.004910381510853767, 0.0006529025849886239, 0.0002677321317605674, 0.0008977199904620647, 0.005767861846834421, -0.00021705348626710474, 0.001170098315924406, 1.3943568774266168e-05, 0.00030645757215097547, 7.946768891997635e-05, 0.00018908781930804253, 0.006996100302785635, -0.0007753569516353309, -0.0001630495535209775, -0.00023475999478250742, 0.00037257271469570696, -0.0008341080974787474], [-0.0042013488709926605, 0.008081880398094654, -0.01221973355859518, -0.007160315755754709, -0.02728400006890297, -0.0033078487031161785, 0.007130783051252365, -0.004636353347450495, -0.002921063918620348, -0.009688928723335266, 0.0005521217826753855, -0.00873917993158102, -6.465258775278926e-05, -0.00045387240243144333, -0.0015164755750447512, 0.0028776435647159815, -0.004823168274015188, 0.008994700387120247, -0.0035706516355276108, 0.0059254365041852], [-0.49373313784599304, 0.18464182317256927, -0.09359457343816757, -0.3917500674724579, -0.20630064606666565, -0.1981877088546753, 0.0034346370957791805, -0.876310408115387, 0.14185352623462677, -0.2313777357339859, -0.07672196626663208, 0.13824690878391266, -0.20484741032123566, -0.15878230333328247, -0.8775596022605896, 0.5575464963912964, 0.04945821315050125, 0.08975188434123993, -0.400784432888031, 0.22123907506465912], [-0.06318442523479462, -0.14040341973304749, 0.08103974163532257, -0.01967526413500309, 0.1176827996969223, 0.01741582714021206, -0.050324004143476486, 0.025323068723082542, -0.049670688807964325, 0.161700040102005, 0.00016607443103566766, -0.0017915850039571524, -0.030811751261353493, 0.0015661795623600483, -0.09270667284727097, -0.07920233905315399, -0.004699531476944685, -0.021092310547828674, 0.01397879421710968, -0.05355947092175484], [-0.007806137204170227, 0.045912452042102814, -0.09595727920532227, -0.02163694053888321, -0.04670954868197441, -0.0134063009172678, 0.04951342195272446, -0.03978892043232918, 0.023926332592964172, -0.0610719658434391, 0.000546600145753473, 0.012802607379853725, 0.011285634711384773, -0.0013456245651468635, -0.007944803684949875, 0.025350483134388924, -0.00969814881682396, 0.011270670220255852, -0.013696772046387196, 0.028897998854517937], [-0.3385765254497528, 0.1333305984735489, -0.0350504070520401, -0.8335170745849609, -0.11250057816505432, -0.04531256482005119, -0.004492561798542738, -0.7737566828727722, 0.0628826692700386, -0.12231941521167755, -0.012168443761765957, 0.06078696250915527, -0.0654766857624054, -0.060013461858034134, -0.5429041385650635, 0.19928814470767975, 0.03175046667456627, 0.05139881744980812, -0.12064429372549057, 0.09210196882486343], [-0.01586059108376503, 0.09860175848007202, -0.07633566856384277, -0.04188810661435127, -0.11614172160625458, -0.005800075829029083, 0.11856692284345627, -0.06331038475036621, 0.03047754615545273, -0.13848114013671875, 0.0005765048554167151, 0.017843862995505333, 0.030281243845820427, -0.011054694652557373, 0.00986956711858511, 0.06138330325484276, -0.009897302836179733, 0.009578385390341282, -0.02843557298183441, 0.058297477662563324], [0.026804843917489052, 0.030952563509345055, -0.005797902122139931, -0.008369660004973412, -0.0093750124797225, -0.10770528018474579, 0.00551404245197773, 0.005057444795966148, 0.01301752869039774, -0.01133726630359888, 0.011245707049965858, 0.01888093166053295, -0.024097546935081482, 0.007796719670295715, 0.0339176245033741, 0.023455018177628517, 0.00011613738024607301, 0.004114116076380014, -0.007853159680962563, 0.028432903811335564], [0.0551883727312088, 0.01277011726051569, -0.02998313680291176, 0.044291406869888306, -0.03806718438863754, 0.004936764948070049, -0.12514260411262512, 0.0290512777864933, -0.007703751791268587, -0.023278864100575447, -0.001892751781269908, -0.0037605140823870897, -0.03069346584379673, -0.0045887380838394165, 0.07371962815523148, -0.0052988226525485516, 0.018825754523277283, 0.029371581971645355, -0.005445602349936962, 0.04867502301931381], [-0.11310094594955444, 0.04066744074225426, -0.059779152274131775, -0.0808708667755127, -0.07426876574754715, -0.004584138281643391, -0.006725319195538759, -0.17341332137584686, 0.023067813366651535, -0.05692658945918083, 0.009761029854416847, 0.03317195177078247, -0.02970672957599163, 0.025968901813030243, -0.09707067161798477, 0.06263387203216553, 0.003980534616857767, 0.015257391147315502, -0.058631498366594315, 0.06092517077922821], [-0.050191741436719894, -0.03422090783715248, 0.033935900777578354, -0.033999666571617126, 0.029001161456108093, 0.011157684028148651, 0.026029378175735474, -0.01302417553961277, -0.05758941173553467, 0.041682206094264984, -1.5436538092217233e-07, -0.015304245054721832, -0.015341904945671558, -0.0042533292435109615, -0.07378484308719635, -0.010824117809534073, -0.0034781787544488907, -0.0042059109546244144, -0.00835229642689228, -0.0009685701807029545], [0.07736803591251373, 0.15256927907466888, -0.1363852471113205, 0.039353933185338974, -0.15876854956150055, 0.00317930500023067, 0.03660302981734276, 0.0004917036858387291, 0.04864588752388954, -0.19798658788204193, -0.0004030435811728239, 0.03473711013793945, 0.03528393805027008, 0.001379084656946361, 0.10554913431406021, 0.06604700535535812, 0.0012574916472658515, 0.02850789949297905, -0.007540917489677668, 0.0788651779294014], [0.01380128599703312, -0.011227751150727272, -0.00042131199734285474, -0.0007509286515414715, 0.0036944719031453133, 0.03612211346626282, -0.0056780241429805756, 0.01946857012808323, -0.004856151528656483, 0.002940320409834385, -0.10639443248510361, 0.005707330070436001, -0.00849542673677206, -0.046131595969200134, 0.026684770360589027, 0.011297406628727913, -0.0007597074145451188, -0.0016769837820902467, -0.016879426315426826, -0.0093272989615798], [-0.021024467423558235, 0.03934118524193764, 0.013526283204555511, -0.005078619811683893, -0.0218000877648592, 0.04084620997309685, 0.05026154965162277, -0.010492099449038506, 0.01719546690583229, -0.043023522943258286, -0.0004417293530423194, -0.1240975633263588, 0.015273502096533775, -0.009514829143881798, -0.0004379969323053956, 0.03939768671989441, 0.006991994101554155, 0.008134067989885807, -0.01821376569569111, -0.007127095945179462], [0.00011828749120468274, -0.006778711918741465, 0.0014004939002916217, -0.022808624431490898, 0.002087234752252698, -0.036331430077552795, -0.012358240783214569, -0.0018873789813369513, -0.020317360758781433, 0.019716612994670868, 0.0006977231823839247, -0.008045555092394352, -0.0967935174703598, -0.00403829850256443, -0.0015151324914768338, 0.019066989421844482, -0.00254079164005816, 0.0029694377444684505, -0.02482098713517189, 0.02441776543855667], [0.013075047172605991, 4.601593900588341e-05, -0.002468402963131666, 0.0031332075595855713, -0.003876994363963604, 0.008837265893816948, -0.001010924344882369, 0.05207626894116402, -0.0025411031674593687, -0.005469056777656078, -0.04557690769433975, 0.0006879937718622386, -0.011653960682451725, -0.11929447948932648, 0.021975398063659668, -0.00321001373231411, -0.0007635513902641833, 0.0009409733465872705, 0.00014546315651386976, 0.0010514316381886601], [-0.09509661048650742, 0.1780059039592743, 0.006632696371525526, -0.28126952052116394, -0.17541417479515076, -0.07231312245130539, -0.035115621984004974, -0.7206848859786987, 0.16806957125663757, -0.21308287978172302, -0.037214554846286774, 0.022128641605377197, -0.058587461709976196, -0.0691877007484436, -0.675247311592102, 0.4453182816505432, 0.0003311865439172834, 0.02339455671608448, -0.38410964608192444, 0.1620268076658249], [-0.059008531272411346, -0.07713989913463593, 0.05321639031171799, -0.0030058424454182386, 0.07026070356369019, 0.001658625085838139, 0.02416309155523777, -0.046057555824518204, -0.02811880223453045, 0.10418372601270676, 0.000666246167384088, -0.02246982790529728, -0.007809365633875132, -0.0033179090823978186, -0.09670055657625198, -0.10916712880134583, -0.003994440194219351, -0.01600620336830616, 0.05519041791558266, -0.04457457363605499], [-0.030753474682569504, -0.007425764109939337, 0.0038970988243818283, -0.027324585244059563, -0.0010254103690385818, -0.003790110582485795, 0.050205573439598083, -0.026345228776335716, 0.001584312878549099, 0.007863536477088928, 0.0001538098294986412, 0.0029758489690721035, 0.005062395706772804, -0.0018771863542497158, -0.026939142495393753, 0.001084418036043644, -0.03722403943538666, -0.001210482674650848, -0.003492416348308325, -0.007126876153051853], [0.02472388558089733, -0.0232277549803257, 0.03325548768043518, 0.0252089723944664, -0.01668829657137394, 0.007172151934355497, 0.005494070239365101, 0.03643637150526047, 0.016708893701434135, 0.03517623618245125, -0.00011006392742274329, -0.0004997465875931084, -0.004302965011447668, 0.001837110030464828, 0.04865008592605591, -0.02146807126700878, -0.0005987882032059133, -0.04984419047832489, -0.0004866231174673885, -0.02477138116955757], [0.0678161233663559, 0.01867705024778843, -0.013739539310336113, 0.018399754539132118, -0.015076085925102234, -0.0017250711098313332, 0.008563938550651073, 0.06992099434137344, 0.004465344827622175, -0.009557670913636684, -0.0011968888575211167, -0.00035721584572456777, -0.022576769813895226, 1.49698985296709e-06, 0.1347172111272812, 0.09032709151506424, -0.003035614499822259, 0.0017839963547885418, -0.09699392318725586, 0.015311824157834053], [0.034740567207336426, -0.08517064899206161, 0.04412573575973511, 0.071260966360569, 0.10670845955610275, 0.030293522402644157, -0.02266400121152401, 0.08799222856760025, -0.016152681782841682, 0.10788167268037796, -0.00154101790394634, 0.005236777942627668, 0.005223860032856464, 0.002601439133286476, 0.028233110904693604, -0.06267312169075012, 0.008561401627957821, -0.02887216955423355, 0.027819903567433357, -0.0784590095281601], [-0.04412861168384552, -0.05105190724134445, 0.024505069479346275, -0.03472950682044029, 0.03325000777840614, 0.00951107032597065, 0.0206737257540226, 0.06800594180822372, -0.0194061528891325, 0.03730975463986397, 0.00016325997421517968, 0.052260249853134155, -0.009678918868303299, 0.01353523787111044, 0.06035449355840683, -0.021793954074382782, -0.002965159947052598, -0.018848275765776634, 0.02128024399280548, -0.02700289711356163], [0.014362809248268604, -0.0015574536519125104, -0.001588979852385819, 0.011937178671360016, -0.0008011299069039524, 0.000494801439344883, 0.00463617779314518, 0.005766862537711859, -0.0005529272020794451, 0.0013032760471105576, 0.00018883970915339887, -0.0003637436602730304, -0.0003175279125571251, -0.00014492240734398365, 0.007989663630723953, -0.001343287294730544, -0.0006610251148231328, 0.001054774154908955, 0.00024190105614252388, 0.002761737210676074], [0.0006124330684542656, 0.0018477545818313956, -0.0005345946992747486, 6.178498006192967e-05, -0.0016895461594685912, -0.000944522034842521, 0.006155863869935274, 0.00015181914204731584, -0.00016479133046232164, -0.0006857463158667088, 0.0002317719190614298, -0.00298022641800344, -4.801122850039974e-05, -9.374979708809406e-05, 0.0007802709587849677, 0.0008056664373725653, -0.0005840293015353382, 0.0004771226376760751, -0.0017879506340250373, 0.005988710559904575], [-0.0216403566300869, -0.04701914265751839, 0.029880480840802193, -0.013377971947193146, 0.04682223126292229, 0.017828434705734253, 0.01016164105385542, 0.030642421916127205, -0.008397789672017097, 0.04818001016974449, -0.0001970421290025115, 0.03381623327732086, 0.003312253626063466, 0.014973604120314121, 0.021608255803585052, -0.01542697288095951, -0.0023689954541623592, -0.01759878545999527, 0.021486278623342514, -0.038653455674648285], [0.015149046666920185, 0.0024675147142261267, -0.0017114654183387756, 0.010878348723053932, -0.0015175413573160768, -0.0010776720009744167, 0.018447360023856163, 0.0068131196312606335, -0.0005817359196953475, -0.00015392625937238336, 0.0005096673266962171, -0.005371429957449436, -0.0006512468098662794, -0.002867813454940915, 0.011308055371046066, 0.0015823747962713242, -0.004354671575129032, 0.001041374052874744, -0.007319149095565081, 0.018334705382585526], [0.0021831286139786243, -0.00031353902886621654, -1.1930146683880594e-05, 0.0021905500907450914, 0.0003383192524779588, 2.4581619072705507e-05, 0.00032116688089445233, 0.0017792412545531988, -3.054570697713643e-05, 0.0004021917993668467, 1.6009620594559237e-05, 0.00014415713667403907, 4.869849726674147e-05, 9.182201210933272e-06, 0.0017855392070487142, -0.0004065262037329376, -0.00014840703806839883, -4.469819941732567e-06, 8.353949669981375e-05, -0.0001637869281694293], [0.020965099334716797, -0.005876597017049789, 0.007508677430450916, 0.018529126420617104, 0.005698175635188818, 0.0012424507876858115, -0.011171236634254456, 0.01687742955982685, 0.0021736864000558853, 0.0040212757885456085, -0.00018140699830837548, 0.004336029291152954, -0.0007915490423329175, 0.0003824507293757051, 0.022055871784687042, -0.003988128155469894, 0.0019963679369539022, -0.0016758075216785073, 0.0015931420493870974, 0.0023594561498612165], [0.03428173065185547, -0.023181580007076263, 0.019371172413229942, 0.03522738069295883, 0.028996732085943222, 0.009667682461440563, 0.027425996959209442, 0.04109443351626396, -0.0006529822712764144, 0.03128546103835106, 0.00034637327189557254, 0.013159388676285744, 0.002531816717237234, 0.006860274355858564, 0.04680994525551796, -0.02287585660815239, -0.0043816412799060345, -0.008449905551970005, 0.012908349744975567, -0.022997869178652763], [0.00081279018195346, -0.00012471624359022826, 6.353759818011895e-05, 0.0010566380806267262, 0.00018033791275229305, 4.912273652735166e-05, 0.0005261681508272886, 0.0015292202588170767, -5.274208524497226e-05, 0.0003276355273555964, 8.229442755691707e-05, -5.8264540712116286e-05, 4.721370351035148e-05, 8.296328451251611e-05, 0.0013057405594736338, -0.0008125861641019583, -0.00048299034824594855, -6.883405148983002e-05, 0.0007876385934650898, -0.0001415444421581924], [0.026848379522562027, -0.0051679108291864395, 0.001095389248803258, 0.023485753685235977, 0.0047609275206923485, 0.0013683474389836192, 0.0046115596778690815, 0.020313501358032227, -0.0006474228575825691, 0.005456875544041395, 0.00022592369350604713, -0.00029181543504819274, 0.000171440580743365, 0.000921969476621598, 0.03518592566251755, -0.0051228757947683334, -0.0002904598950408399, 0.0008740786579437554, 0.002243847819045186, -0.0005630343221127987], [0.0001316382404183969, -2.6393005100544542e-05, 6.828636287536938e-06, 0.0001254683593288064, -2.040707113337703e-05, 9.617509931558743e-06, 7.620253654749831e-06, 0.00013664166908711195, -1.4189573448675219e-05, 3.0222794521250762e-05, 2.806557120038633e-07, 3.5524377040019317e-07, 3.4578538361529354e-06, 5.815953045384958e-06, 0.00014591107901651412, -4.0568662370787933e-05, -5.5451932894357014e-06, -1.3259513025332126e-06, 2.5576222469680943e-05, -2.5807341444306076e-05], [0.0002852054312825203, 0.0001915434404509142, -0.0021070672664791346, -0.0004221899143885821, -0.0024086441844701767, -0.00021945781190879643, 0.0019302127184346318, -0.002218379871919751, -0.00012196676834719256, -0.0021563596092164516, 8.579761197324842e-05, -0.0001036647881846875, -0.000527157390024513, -0.0006182557553984225, -0.0018468389753252268, 0.0009566847584210336, -0.00012289210280869156, 0.00150885374750942, -0.0013679589610546827, 0.001988273113965988], [0.0013674590736627579, -0.00022737168183084577, 9.440243593417108e-05, 0.0010872267885133624, 2.3139566110330634e-05, 5.7042649132199585e-05, 0.00011200363951502368, 0.0011123697040602565, -3.7841920857317746e-05, 2.776414476102218e-05, -7.0935648182057776e-06, 0.00014089005708228797, 0.000108692045614589, 2.8473807560658315e-06, 0.001484155305661261, -0.0001981392124434933, 6.200895586516708e-05, 6.522561307065189e-06, 7.443271897500381e-05, 4.245539821567945e-05], [0.001928381621837616, -0.0002583167515695095, 0.0001243603473994881, 0.0017373132286593318, 0.0002300139603903517, 0.00011435803753556684, 0.00021771622414235026, 0.0018855766393244267, -4.691373396781273e-05, 0.00028790481155738235, 6.162539648357779e-06, 1.3803395631839521e-05, 1.444736699340865e-05, 3.370427657500841e-05, 0.0022890621330589056, -0.0004393068084027618, -5.056765803601593e-05, -9.617519390303642e-05, 0.00023324854555539787, -0.00024266631226055324], [-0.05153729394078255, -0.05073168873786926, 0.026783058419823647, -0.02116522379219532, 0.02634773589670658, 0.004156086593866348, 0.03114359825849533, 0.057168543338775635, -0.025103945285081863, 0.03925353288650513, 0.0008550792699679732, 0.04867490381002426, -0.018867695704102516, 0.008534910157322884, 0.07422017306089401, -0.027502933517098427, -0.00531651871278882, -0.01516679860651493, 0.019912250339984894, -0.0146739911288023], [0.015090268105268478, -0.002600886858999729, 0.003033272223547101, 0.012185115367174149, 0.005968474317342043, 0.0013102570082992315, 0.004658502992242575, 0.019460180774331093, -0.0007525829132646322, 0.005122057627886534, 0.00020959231187589467, 0.0018255612812936306, 0.0003706343995872885, 0.0010337423300370574, 0.028644984588027, -0.0013400050811469555, -0.0008859298541210592, -0.0012628420954570174, 0.0013863116037100554, -0.004354193340986967], [0.0007043928490020335, 5.635123670799658e-05, -0.0001468440459575504, 0.0006310662720352411, -0.00043350321357138455, -2.863921872631181e-05, 0.0014510940527543426, 0.0009574257419444621, -0.00016936888277996331, -1.464520664740121e-05, 4.492852167459205e-05, -0.00012683241220656782, -1.882495234895032e-05, 1.5390831322292797e-05, 0.000926081498619169, -0.00020106924057472497, -5.4307743994286284e-05, 0.000311323965433985, 1.5587778761982918e-05, 0.0006046418566256762], [0.000639605219475925, 2.7666314053931274e-05, -0.00011693520355038345, 0.0004723321762867272, -0.0002751001447904855, -1.53572837007232e-05, 0.0009946785867214203, -0.00025144682149402797, -6.525921344291419e-05, -6.969926471356302e-05, 2.0458675862755626e-05, -0.000542818452231586, 2.1075238691992126e-05, -3.6527875636238605e-05, 7.687453035032377e-06, -7.044449012028053e-05, -0.0003897234273608774, 4.9472371756564826e-05, 8.561868526157923e-06, 0.0007913531735539436], [0.0079281534999609, -0.0010323278838768601, 0.0007179488893598318, 0.006710453424602747, 0.0016762346494942904, 0.00040057572186924517, 0.001289942068979144, 0.009593818336725235, -0.00013262491847854108, 0.001901168841868639, 2.5622925932111684e-06, 0.0006883799796923995, 0.00014843151438981295, 0.0002580000145826489, 0.012019410729408264, -0.0013960222713649273, -0.00016402892651967704, -0.00031080259941518307, 0.0004765595367643982, -0.0012067992938682437], [0.0021516161505132914, 0.008643675595521927, -0.012981181964278221, -0.0009204338421113789, -0.031032366678118706, -0.003818809287622571, 0.007447117939591408, -0.0022443386260420084, -0.0024419017136096954, -0.01052598562091589, 0.0005658305017277598, -0.009039117023348808, 3.5534860217012465e-05, -0.0003129123360849917, 0.0009506074711680412, 0.0025981224607676268, -0.005288907792419195, 0.011234449222683907, -0.004120222292840481, 0.005907800048589706]], "rec.bias_ih_l0": [0.11764782667160034, -0.3782235085964203, -0.3155555725097656, 0.018083836883306503, -0.3419773578643799, -0.33479446172714233, -0.30283814668655396, 0.09350720047950745, -0.27761155366897583, -0.40689417719841003, -0.3841322362422943, -0.35584911704063416, -0.23640090227127075, -0.4197064936161041, 0.1631917506456375, -0.2530914843082428, -0.2737444043159485, -0.22938768565654755, -0.3112349212169647, -0.2873961925506592, -0.20525754988193512, -0.2526750862598419, -0.19853398203849792, -0.2844964265823364, -0.21485097706317902, -0.21418507397174835, -0.19744329154491425, 0.1321488320827484, -0.15588007867336273, -0.2977329194545746, -0.2325734943151474, -0.23407049477100372, -0.16233275830745697, -0.2620961368083954, -0.10905416309833527, -0.16763705015182495, -0.13587887585163116, -0.12614601850509644, -0.19028325378894806, -0.16972939670085907, -0.06811606138944626, -0.017217982560396194, -0.007415418978780508, -0.011596507392823696, 0.0010622460395097733, 0.054138969630002975, -0.055027514696121216, -0.08807329833507538, 0.05870929732918739, 0.013044682331383228, -0.1308247148990631, 0.05913521721959114, -0.02004966512322426, -0.024623429402709007, -0.0717720314860344, 0.10940200835466385, 0.14744694530963898, -0.03313998505473137, -0.03932870924472809, -0.07449627667665482, 0.07486163079738617, -0.37945908308029175, -0.3160983622074127, 0.15720893442630768, -0.3434956669807434, -0.33656078577041626, -0.30487191677093506, 0.2085249423980713, -0.27876269817352295, -0.40863674879074097, -0.38519784808158875, -0.3514936566352844, -0.23954126238822937, -0.4203151762485504, 0.2948305010795593, -0.25361552834510803, -0.2727240324020386, -0.23114915192127228, -0.33535680174827576, -0.28865617513656616], "rec.bias_hh_l0": [0.10822530835866928, -0.3780842423439026, -0.3156386613845825, 0.03653844818472862, -0.3419555127620697, -0.333194762468338, -0.302893728017807, 0.08108507841825485, -0.2776482403278351, -0.40680450201034546, -0.38414663076400757, -0.35356631875038147, -0.2349299192428589, -0.41899561882019043, 0.08011665940284729, -0.25415390729904175, -0.27392104268074036, -0.22943063080310822, -0.3113096058368683, -0.28738492727279663, -0.07023566961288452, -0.25268256664276123, -0.19853289425373077, -0.2909051477909088, -0.21485114097595215, -0.21414467692375183, -0.197450652718544, 0.11613103002309799, -0.15588097274303436, -0.29773131012916565, -0.2325732260942459, -0.23436547815799713, -0.16306571662425995, -0.2621917128562927, -0.07653461396694183, -0.16734230518341064, -0.13587769865989685, -0.12617234885692596, -0.19033648073673248, -0.1697286069393158, 0.08711747080087662, -0.02019997127354145, 0.025032106786966324, 0.029986625537276268, 0.054131679236888885, -0.04552476108074188, -0.0067105661146342754, 0.09962193667888641, -0.057772908359766006, 0.015816185623407364, 0.12824849784374237, -0.01322693657130003, 0.008411506190896034, 0.026281150057911873, 0.0828777477145195, -0.11119394749403, -0.13425803184509277, 0.023370249196887016, 0.044782474637031555, 0.04105530306696892, 0.24371710419654846, -0.37938326597213745, -0.31594014167785645, 0.14292989671230316, -0.3434434235095978, -0.33580636978149414, -0.3046848475933075, 0.15470656752586365, -0.2787463665008545, -0.4085710942745209, -0.3852287530899048, -0.3525674343109131, -0.23954075574874878, -0.41921311616897583, 0.33895444869995117, -0.2522956430912018, -0.27248337864875793, -0.23089760541915894, -0.3311329185962677, -0.28864502906799316], "lin.weight": [[-0.48326051235198975, 0.06496170163154602, -0.002541425172239542, -0.3769155442714691, -0.052606433629989624, -0.04950958862900734, 0.02849426679313183, -0.37150147557258606, 0.06683926284313202, -0.08020985126495361, -0.02238127775490284, 0.04225093871355057, -0.040118563920259476, -0.045245591551065445, -0.5537338852882385, 0.1974867284297943, 0.013466536067426205, 0.01932409778237343, -0.1416909396648407, 0.04159019514918327]], "lin.bias": [0.003605346195399761]}}